-5.14E-07,-7.82E-06,-7.45E-06,-3.11E-07,6.38E-09,-1.43E-08,-9.36E-07,-2.66E-06,-1.02E-05,-6.40E-05,-0.000257226,0.005618392,0.011684963,0.005003164,-0.000733505,0.009743324,0.024686537,0.011271257,-0.000239959,-9.70E-05,-9.58E-05,-2.03E-05,-1.69E-06,-1.90E-07,-1.75E-08,-2.59E-05,1.77E-05,-0.00011914,-0.001460813,-0.002335639,-0.004065873,-0.008419496,-0.008552683,-0.008761628,-0.011399465,-0.00908375,-0.016814903,-0.018174649,-0.010540119,-0.01646309,-0.012816073,-0.011862325,-0.013926574,-0.007008843,-0.002858034,-0.001331185,-0.000587392,-5.29E-06,-4.59E-08,-0.000481845,-0.00058727,-0.0014197,-0.006085599,-0.012394928,-0.003027401,-0.010803552,-0.018696891,0.002948384,-0.009320265,0.00467829,-0.005452551,-0.002092409,-0.003984902,-0.001492714,-0.005089679,-0.005980912,0.000327076,-0.008247492,-0.005648161,-0.001634182,-0.001595168,-0.004678687,-0.001274239,-2.96E-09,-2.11E-05,-0.000272297,-0.001365875,-0.008608779,-0.006927128,-0.003653065,-0.001654024,0.006274323,-0.004305752,0.00190166,-0.002855362,0.002438555,-0.00393047,0.003855618,-0.004510703,0.002006125,-0.0002317,0.000483892,-0.000838234,-0.000230222,0.000444864,-0.003011592,-0.002776249,-5.53E-05,-0.000890144,-2.94E-05,-0.000699674,-0.000849634,-0.004405495,-0.009750226,0.014976657,-0.003542644,-0.001814366,-0.001134003,0.005182066,-0.000788505,-0.002664715,0.002629207,-0.002305663,0.001700129,-0.000342324,-0.000674312,0.000756967,-0.001833657,0.000277358,-0.002268103,-0.002017774,-0.002975358,-0.000991864,-0.013372919,-0.003189551,-0.001785636,-1.04E-05,-0.000957379,-0.000658792,-0.007652903,-0.001801902,-0.006056919,-0.002931479,0.004632693,-0.008370255,0.000953547,-0.002308044,-0.001408833,0.0025163,0.000535233,0.000183517,-0.000286884,0.000495283,0.000952452,0.000830351,-0.000600962,0.003618843,0.002717639,0.000296794,-0.009046686,-0.021554419,-0.015463838,-0.005665305,-9.36E-09,-0.000646866,-0.000378432,-0.000995495,-0.000662391,0.002941482,0.00452281,-0.000767597,-0.00486186,0.002293556,0.000568204,0.002819098,-0.002338298,0.001436813,0.001412089,-0.000720986,-0.001348858,0.004180082,-0.000709433,0.002821896,-0.001141327,-0.001474725,-0.002814011,0.000760686,-0.003487183,-0.004255976,-0.009880372,-0.000454339,0.003964061,-0.000301592,0.000230209,0.001237367,-0.005013261,-0.006947687,-8.17E-05,0.001849689,-0.00129177,0.002042834,-0.00299028,-0.000830053,0.003682296,-0.003676654,0.002358139,0.000686972,0.004739044,0.00046123,0.001983996,-0.000959272,0.001401174,0.001557186,0.002838928,9.54E-05,-0.005969739,-0.021025925,-0.008682844,-0.000496796,-9.54E-05,-0.000558674,0.001664243,-0.008564302,-0.007888737,0.002722628,-0.002228013,0.000265156,3.23E-05,-0.001112835,0.00349781,-0.002302128,-0.002759213,0.004632938,6.33E-05,-0.00245311,0.000880777,0.001503525,-0.00062789,0.003251242,0.001722352,-0.000905443,-0.004654276,0.002160763,-0.002696858,-0.013064582,-0.018100806,-0.000156372,-0.000111572,-0.000273591,0.011317997,-0.010087977,0.005955914,0.002779812,0.002045859,0.001037233,-0.001395222,0.001796817,-0.002188083,0.003134819,-4.17E-05,-0.001799254,0.00119411,0.002067913,0.000612864,0.002122926,0.003984243,-0.002958775,0.000531896,0.000968784,0.005754268,0.0015416,-0.000569624,-0.007724044,-0.016765768,-1.59E-05,-2.16E-05,0.002182992,-0.004037968,0.006882455,-0.007908142,-0.005994169,0.001405282,-0.00043986,0.000950521,-0.002497599,-0.001006566,0.001542813,-0.004151121,0.001549213,-0.003852358,-0.002677068,-0.002134712,0.001151609,-0.003264662,0.003401528,0.000267279,0.000525319,-0.001880682,0.004021691,-0.00212833,-0.012245584,-0.011848294,-0.000111944,-5.05E-07,-0.000113793,-0.001919713,0.003004141,-0.016088861,0.005247521,-0.002547171,-0.000510605,-0.00114006,0.000789466,-0.00200558,0.000274218,0.002045206,0.000590636,-0.003628574,-0.003602689,-0.002333785,0.000960846,-0.001203307,0.000560369,0.001993063,0.002805777,0.001479594,-0.005168209,0.00502204,-0.009332375,-0.012458397,-0.00024742,-2.44E-08,8.81E-06,-0.000522237,-8.11E-05,0.01528847,-0.006692903,0.007439831,0.000149098,0.003414649,-0.000359304,0.003415759,-0.001126962,-0.00064676,-0.006423053,0.001200537,-0.006100367,-0.002023223,-0.001596937,0.000733714,-0.000285647,-0.004411904,-0.002308174,0.003928573,0.00362214,-0.000189112,0.003773043,-0.006599136,-0.001240356,-5.25E-06,-3.73E-05,-0.002290654,-0.016343988,-0.012118686,0.006454,-0.000676891,0.004099864,-0.001461028,0.001617278,-0.00290857,0.000959215,0.002675421,0.000487541,-0.009904591,0.000235712,-0.004695058,0.001180181,-0.001159193,-0.000636147,0.002148872,0.002906866,-0.002981208,0.001784947,-0.004146295,0.004331282,-0.006181768,-0.000184985,-3.30E-06,-6.73E-07,-0.002675657,-0.010305265,0.00721531,-0.001690427,-0.003063284,0.003202741,0.002517089,0.003013537,0.003390938,-0.003905846,0.00185109,-0.003978151,-0.005655851,-0.001556189,-0.004083369,-0.001488067,-0.000800153,-0.001302642,0.000942111,-0.001361937,0.003699123,-0.000280724,0.006465381,-0.002038074,-0.009775606,-0.000556313,-9.04E-06,-1.98E-06,-0.000298529,-0.009592592,-0.002123284,0.004208574,-0.000901724,0.002494591,0.000271654,0.001850142,-0.000229072,0.004828857,-0.003058121,-0.007754242,-0.006121102,0.000397781,-0.002490315,0.000698343,-0.002339703,0.000704853,-0.000205434,0.002731654,-0.005377903,-0.000243422,-0.004907261,-0.009258482,-0.018805488,-1.70E-05,-2.27E-05,-0.000881086,-0.001774632,-0.000126575,-0.000563533,0.002842319,0.000676796,-0.000856461,0.000594927,0.002198549,-0.004242695,0.002987547,-0.004470694,-0.002761739,-0.001969876,-0.001588102,0.000708107,-0.000360412,-0.001029412,0.002308995,-0.00433152,0.007826536,-0.000675926,0.001156937,0.000208165,-0.006303787,0.008820874,-0.000183438,-5.23E-06,-0.001275907,-0.008887006,0.001094059,-0.001750237,-0.001352768,-0.000950657,0.002618393,0.002191828,0.001220773,0.001672559,-0.002699551,-0.005002767,-0.002875981,-0.000697686,-0.002250089,-0.001008252,4.68E-05,-0.000367517,-0.003042573,0.001121188,-0.004198291,-0.00037179,-0.000741295,-0.003517855,-0.007706019,-0.004726761,-9.23E-09,0.001264741,-0.000598139,-0.011430366,-0.00615055,-0.001806068,0.001956256,0.000615345,0.001714129,-0.001444642,0.001238148,-0.000539577,0.004393317,-0.002883159,-0.000318856,-0.003025473,0.000913592,-0.000980209,-0.00024855,-0.003667656,0.002145455,-0.000855567,0.003506594,-0.003566562,-0.001387208,-0.009093582,-0.003166635,-0.000648261,0.003213156,-0.003355995,-0.003829474,0.007741856,0.001739596,-0.002054843,0.000343108,0.000755856,-0.001507738,0.001564734,0.002053031,0.000916767,0.000796312,-0.002775947,0.002370167,-0.005182376,4.09E-05,0.001941236,-0.000494764,-0.001196138,0.000933785,-0.002294965,-0.002289011,-0.000436138,-0.010334315,0.000965222,-1.29E-06,-1.68E-08,-1.86E-05,-0.010074433,0.002299706,-0.00511926,-0.001882922,0.000939773,3.11E-05,-0.00192753,0.002616731,0.001061614,0.00131792,0.002012986,-0.000495082,-0.002154235,-0.000228179,0.002802695,-0.007451513,-0.000423706,-0.001910629,-0.005008842,-0.00191502,0.004851809,-0.009462424,0.004009561,-0.003850497,0.012865663,1.12E-05,-1.63E-08,-1.31E-06,-0.0027947,-0.003535759,-0.004316103,0.000584247,0.002572177,-0.001387021,0.001693001,3.98E-05,-0.001075368,0.001155506,-0.002651227,0.005830168,-0.002201917,-0.001507393,-8.15E-06,0.002555583,-0.004864241,0.002701321,0.004099105,-0.006191542,0.003660857,0.001879329,-0.005745168,-0.001592875,0.002709303,2.07E-05,-0.000226078,-0.002888199,-0.014025828,0.002449911,-0.003330961,0.001677871,-0.002126283,0.000598521,0.001265738,0.000921215,-0.000435802,-0.000439706,0.002671178,-0.001883119,-0.003013457,0.003333655,-0.003823838,-0.002783672,-0.005728351,-0.001319017,0.002743862,-0.004375855,-0.008608009,-0.000631722,-0.000219152,-0.001155736,-0.001726831,0.000373837,0.004142208,-0.006720841,0.000469216,0.001865482,-0.000727255,0.001072411,-0.004850128,0.003135117,-0.001897394,-0.000123525,0.000553145,-0.004605962,0.000218696,0.001007106,-0.005012719,-0.005487539,-0.0087642,-0.006598977,-0.014978834,-0.003452852,-1.89E-05,-8.47E-08,-8.14E-07,-3.68E-05,-0.005320647,-0.013312797,-0.017844465,-0.016710457,-0.007282204,-0.002118177,-0.017833197,0.004743087,-0.014369859,-0.010678883,-0.006437341,-0.01581675,-0.006619757,-0.010698542,-0.024107012,-0.015091896,-0.014078863,-0.012191281,-0.009073068,-0.006452117,-0.001369445,-8.47E-08,-8.27E-08,-2.98E-07,-5.62E-05,-0.002066561,-0.00424069,-0.00656602,-0.009780257,-0.013593979,-0.014210428,-0.014456038,-0.010246456,-0.011806827,-0.011837181,-0.018149541,-0.015489642,-0.011612221,-0.007506931,-0.003198755,-0.006939053,-0.008157184,-0.004991288,-0.000858433,-1.44E-05,-2.06E-06,-6.40E-06,-0.000185291,-0.000569852,-0.000754422,-0.000705999,-0.00123632,-0.002031158,-0.002006764,-0.001393657,-0.001486693,-0.002748636,-0.003361262,-0.002079083,-0.000941131,-0.000896627,-0.000356906,-0.000714195,-0.001890076,-0.00531269,-0.001200052
-1.13E-07,-3.87E-07,-1.55E-07,-6.47E-09,-3.89E-09,-1.15E-08,-1.54E-08,-2.63E-05,-0.001272343,-0.001022373,-0.000555356,-0.000105263,-0.000105492,-0.00010068,0.00245467,0.001223007,-0.012166044,-0.002764705,-9.54E-05,-5.27E-06,-4.64E-06,-1.94E-06,-4.80E-07,-4.27E-08,3.17E-10,-1.23E-09,-1.53E-07,-5.99E-07,-4.34E-06,-0.000542242,-0.003191032,-0.004668759,-0.005015355,-0.007825393,-0.014070746,0.021085314,-0.01286382,0.008968506,0.000465312,-0.001205933,-0.00805868,0.011542509,-0.007162898,-0.003162616,-0.004073249,-0.001432589,-0.000149033,-2.49E-05,0.002443826,0.000581852,-3.54E-05,-0.002820844,-0.000441466,-0.002112567,-0.008607821,-0.013927806,-0.005510226,-0.012106723,-0.000172595,-0.002851971,-0.00917688,2.34E-05,-0.004245925,0.003022685,-0.011011946,0.005703809,-0.006679843,0.001331235,-0.001739858,-0.007923294,-0.007856718,-0.003217039,-0.005457227,-1.06E-08,0.008378504,0.000503876,-0.002067609,-0.000225637,-0.004293165,-0.016825017,0.012596064,0.000427558,-0.001339913,-0.001367571,-0.003202382,0.001215935,0.00024805,-0.002309586,-0.000435374,0.000106351,-0.003692715,0.002689308,-0.002506311,0.001405651,-0.003734038,0.005162731,-0.024695897,-0.022654222,-0.00207526,-0.001021045,0.00032563,0.001998633,0.007171752,0.012766826,0.003850942,-0.004779311,-0.004773615,-0.010061877,0.001533753,-0.007423791,-0.003941157,-0.000712902,-0.004311462,0.002725472,-0.002285141,-0.003653226,0.000341775,-0.002353342,-0.001540842,0.001469223,0.001657723,-0.000525203,0.011895347,-0.025489353,-0.004871909,-0.001401109,-1.22E-06,-0.003959922,0.007886591,0.00197895,-0.014210188,0.014823466,-0.009763874,-0.001018491,-0.005026418,-0.001823667,0.001110311,-0.001962542,-0.001388649,-0.000430865,-0.004491811,-0.002001015,-0.00345891,0.000790371,-0.002109831,0.000430307,-0.001450759,-0.001616391,0.007393828,-0.010700359,-0.029059859,-0.002972794,-0.000168019,-5.94E-09,-0.001891295,-0.00770991,-0.004308564,0.013739542,-0.016266776,-0.016730635,0.021531138,-0.015067769,0.005404328,-0.001952889,-0.002226722,0.001650517,-0.003969063,-0.000606184,-0.002250791,0.000891982,-0.001730383,-0.001558575,-0.00049425,0.003327215,0.001824841,-0.005656456,-0.003408084,-0.005613672,-0.016856154,-0.00080705,-0.000464488,-6.51E-07,-0.001541673,-0.005214742,-0.002100429,0.008779961,0.003908131,-0.013355571,-0.01102044,8.96E-05,-0.010276628,0.001730619,-0.003182811,0.000503578,0.000660437,0.000534868,-0.00030067,-0.003541166,0.003130158,-0.00079379,0.002080863,-0.004804282,-0.000679622,0.000606968,-0.000244778,-0.017817621,-0.018828717,-0.001802316,-0.00026128,-0.002260345,-0.010020395,-0.003457721,-0.001804664,0.001450147,-0.014416872,0.00301324,0.01601862,-0.004115109,0.002932521,-0.002493647,-0.000570665,-0.000532935,0.000743423,0.000846678,0.002976341,0.000776715,-0.002768833,0.001257779,-0.003808372,0.00114304,-0.000519502,-0.000983729,-0.007168569,-0.00031706,-0.02144548,-0.002524782,-0.001007991,-0.002628915,-0.001392145,-0.001907378,-0.014312345,-0.004145664,-0.014870371,-0.010082042,-0.007667481,0.008183777,-0.004387311,0.002447601,0.002372576,0.00027718,0.001694216,0.004261644,0.003939184,0.002454006,0.002894275,-0.00533768,0.001457279,-0.007294301,0.007532905,-0.000635487,-0.000679819,-0.024631946,-0.007709585,-0.003649119,0.002145775,-0.000283969,-0.000186305,-0.000672795,-0.010616351,0.006688433,0.001167037,-0.011096444,-0.011912747,-0.003865579,-0.006097422,-0.001096286,-0.001275858,-0.002854855,0.002731564,0.001462483,0.00459331,0.001144483,1.04E-06,0.001229138,-0.001265556,-0.004190929,0.001230745,-0.008746537,0.006963036,-0.016043505,0.000602028,-0.000151574,0.001335994,-5.16E-08,-0.000301497,-0.006400555,-0.002683995,0.010094021,-0.009110365,0.005962699,0.01141524,-0.006283132,0.005259442,-0.00400048,-0.001254154,0.000630109,0.000952944,0.006296733,0.003985001,-0.001283423,0.000319496,0.000144433,-0.000875653,0.001805823,-0.002922033,0.003582591,0.005602151,-0.008437561,-0.002876362,-0.00708274,-0.000158021,6.66E-06,-0.000515545,-0.002466204,-0.00080863,0.000853368,-0.008865553,0.009669967,0.003582814,-0.002190273,0.002047207,-0.006778361,-0.00202746,-0.000248768,0.000498256,0.00115393,0.001803258,0.002389136,0.003928379,-0.00214422,-0.006429644,-0.005640097,0.000335129,-0.011933483,-0.011556272,-0.011805294,-0.005588111,-0.005943087,-2.08E-05,-3.87E-07,-0.00037727,-0.000531003,9.81E-05,0.013222751,0.00289769,0.000725785,-0.015746637,0.003989345,-0.00425418,-0.0025359,-0.003463205,-0.001569432,0.000104405,0.003028622,0.002439328,-0.001101968,-0.000771187,-0.005008105,0.003698865,0.007361955,-0.006027255,0.009049947,0.004343201,0.009544318,0.001246069,0.00234117,-7.90E-06,-1.32E-07,-9.19E-08,5.42E-05,0.001628541,9.02E-05,-0.014670714,-0.011130143,0.001324504,0.006407987,-0.00437699,-0.004457419,-0.001006786,0.003273045,0.003330803,0.001647489,-0.000789094,0.003474177,-0.001716717,0.002240843,-0.015401467,-0.014901455,-0.005423242,-0.003579144,-0.008701121,-0.002350595,-0.001181883,2.05E-05,-0.000115482,-3.14E-08,7.31E-06,0.000207124,-0.000151007,-0.000546591,-0.005776586,-0.003906909,-0.008505858,-0.009612848,0.00679018,-0.002967185,0.000679527,-0.004290388,-0.002109747,0.002445402,-0.003235848,0.001403623,-0.007096401,-0.00514631,-0.010379267,0.00680529,0.00455047,-0.008234579,-0.018411222,0.008378645,-0.013691169,-0.004620802,-0.000459114,5.26E-05,-2.59E-05,-0.000726348,-0.000997247,-0.000362123,0.00952729,0.006924227,0.004098067,-0.00806454,0.001722655,-0.002919415,0.002204019,0.004558097,0.005147273,0.000997518,0.001450729,-0.007189307,-0.000527851,0.006855758,-0.002048433,-0.007630586,0.01583628,-0.000731927,0.007147675,-0.023421445,-0.003253513,-0.002518716,-0.000136473,2.29E-05,-0.00016207,-0.001383222,-0.005909584,-0.007378896,-0.019218964,-0.008754305,-0.001142322,0.003689965,-0.006012986,-0.001527343,-0.000867593,-0.002323419,0.001626904,-0.002311414,-0.010642476,0.006790077,0.001988611,-0.00729937,0.005170843,-0.001501431,-0.006873412,-0.013324372,0.015472663,-0.00410509,0.002713989,0.003193988,2.84E-05,-8.54E-05,-0.001373156,-0.005683082,-0.008253918,-0.015039505,0.005345667,0.008142123,-0.004937357,0.000205061,0.001287732,-0.002516026,-0.002187839,0.001396158,-0.002229654,0.001990376,0.007307689,-0.009090397,-0.002067685,0.002951101,0.001409825,-0.000582363,0.004364427,-0.003952454,-0.000734562,-0.007205652,0.005764849,0.00169783,-0.000470828,-0.001587431,-0.012098608,0.001857959,-0.015167305,-0.006759822,-0.004590811,0.002522799,0.001220999,-0.00023735,0.00255361,0.00379097,-0.002777468,0.000138869,-0.004347171,-0.00075435,0.002892945,0.00430006,0.003777522,0.000216287,-0.009148083,0.008154919,-0.004760736,0.009507533,-0.003579986,0.010027033,3.75E-05,0.000115536,-0.000374061,-0.003035605,0.013040597,-0.001043769,0.003351672,0.0064404,0.004837477,-0.000197844,-0.001787306,0.003992698,-0.003607482,-0.001227251,0.001274894,0.001358239,0.000722978,0.002269527,-0.001729414,0.003300012,-0.005695186,-7.99E-05,0.01430436,-0.018520967,-0.026690339,0.029184987,0.014574999,-0.002344212,9.52E-10,0.000111925,-6.52E-05,-0.002038898,-0.000498537,0.003860686,0.017421313,-0.004799885,-0.003922166,0.00215457,0.00058397,-0.001900888,-6.13E-05,-0.003721527,-0.004647786,0.001308912,-0.001791228,-0.000277221,8.53E-06,0.00726755,0.000220818,0.004768461,0.007456183,-0.017631527,-0.00077593,0.008118687,0.015485289,0.001132698,1.76E-09,-8.59E-05,-0.012930786,-0.019877,-0.000790904,0.000597825,0.003264892,-0.003704397,0.000669205,-0.00281196,-0.00178958,0.001717455,-0.000281601,-0.003501661,0.002368337,-0.000283084,0.003742345,-0.008766983,0.002869439,-0.008273668,-0.000267397,0.009529029,-0.010304541,-0.003925413,0.001678902,0.007285554,-2.34E-06,-0.005202528,-0.00962179,0.001219007,-0.004800544,0.00479936,-0.006835349,0.001685227,-0.002352691,-0.000949634,-0.003272664,-0.003887238,-0.003259268,0.000233778,-0.010078411,0.006535356,-0.008732271,0.018252749,-0.008445091,-0.006688347,-0.007662747,-0.000816848,-0.000266364,0.006250289,0.001087544,-1.37E-07,-0.000846779,-0.005588718,-0.013226505,-0.009685662,-0.018313378,-0.006841402,-0.008742351,-0.01551383,-0.017210168,-0.003596226,-0.009188954,-0.003160424,-0.011524639,-0.018270813,-0.017683922,-0.031003286,-0.023089516,-0.008964462,-0.002869716,-0.000761017,-9.11E-05,-1.59E-05,-1.51E-06,-1.80E-06,-4.97E-05,-0.000988975,-0.003430471,-0.005240624,-0.005623612,-0.008446653,-0.012514043,-0.008238837,-0.015225833,-0.031767433,-0.028373409,-0.018769665,-0.011077259,-0.004764227,-0.006759992,-0.015780246,-0.009644423,-0.003538387,-0.00147374,-0.000444472,-0.000281987,-7.22E-10,-1.01E-07,-7.18E-06,-1.83E-05,-2.01E-05,-1.74E-05,-2.92E-05,-2.56E-05,-0.001288246,-0.002060328,-0.000993031,-0.001283631,-0.001418697,-0.000323895,-0.000329745,-0.002788604,-0.008307511,-0.000136492,-1.21E-05,-2.56E-06,-2.14E-06,-3.15E-07
-1.31E-05,0.000397237,0.000473904,1.97E-05,-6.40E-07,-2.52E-06,-0.000491134,-0.000874102,-0.000273048,-0.00184411,-0.002355378,-0.001421262,-0.006963751,-0.006361331,-0.002565569,-0.002251841,0.006207048,-0.004814595,-0.003661976,-0.00475702,-0.002931899,-0.000588795,-0.000134574,-9.17E-05,-1.97E-07,-1.26E-05,-0.000275306,-0.000123935,-0.000389609,-0.003051533,-0.001752909,0.002710814,-0.009241592,-0.001103205,0.00064489,-0.004199616,-0.003185193,-0.000368806,-0.003128777,-0.003190572,-0.000990965,-0.007504431,-0.007540059,-0.004719548,-0.005873155,-0.000269917,0.002267307,0.001268524,-2.13E-05,-5.07E-05,-0.00037641,-0.001453398,-0.001892824,-0.000693229,-0.004456776,0.005622006,-0.000157053,0.000502678,-0.001100182,0.002004286,-0.000415277,-0.001791117,7.08E-05,-0.000571729,-0.00302752,0.000255337,-0.000361478,-0.001781258,0.003227449,-0.00459294,0.00028931,0.001139175,-8.96E-06,-1.47E-05,-0.000398466,-0.001736821,-0.007487617,-0.002716454,0.007308631,0.003695115,-0.003227258,0.003958452,0.000131329,-0.000213219,0.001258065,-0.000445771,0.002058119,-0.001493904,0.001632359,-0.001981471,-5.27E-05,-0.001802473,-0.001146097,-0.003056425,-0.005025551,-0.00987103,-0.008203778,-0.000261317,-0.000440198,-0.000421548,-0.000345343,-0.001287491,0.002246943,-0.001196098,-0.003388642,0.000670524,0.002016615,-0.002875594,0.000979949,0.00101001,2.95E-05,0.001045274,1.82E-05,0.000526433,0.001614729,5.88E-05,0.00161219,-0.001163906,-5.56E-05,-0.000723814,0.001921076,0.001543325,-0.008493143,0.00222074,-0.001592234,-0.000622454,-8.94E-06,-0.002132368,-0.003416155,0.000575651,-0.00113752,-0.001189243,-0.000930191,0.000560429,0.000842403,0.000808676,0.000168252,-9.60E-05,0.000982814,-0.000668885,0.000838145,-0.000114451,0.000582569,-0.000974871,0.000252017,-0.001409679,0.000175104,-0.001723737,-0.00251087,-0.006480235,-0.001516912,-0.001155399,-2.76E-05,-1.43E-06,-0.000283918,0.005243874,0.002191839,0.000588103,0.001135858,0.003315505,-0.001562753,0.001349689,-0.001377317,-0.001409371,0.001356263,-0.001209173,0.000922768,0.000888818,-0.001263599,0.001367955,-0.002435908,0.000288658,-0.001731007,-0.000524105,-0.000456401,0.003214898,-0.007094294,-0.003220477,0.003921078,-0.00243405,-3.34E-05,-0.000239606,0.000392169,-0.001789875,-0.005534731,0.00106389,-0.002628109,-0.001019544,0.001408883,0.000251806,0.000690967,0.001443213,0.000435046,3.07E-05,-0.000101908,0.000411931,-0.000306413,-0.001472187,0.001291368,-0.001463767,0.000759989,0.001261688,-0.000303546,-0.001458381,0.002833403,-0.01372306,-0.00730279,-0.002354214,-2.60E-05,-2.11E-05,-0.001353359,-0.003911637,0.00181944,-0.001568861,0.007541942,-0.006636655,0.000770376,-0.001810702,0.000363696,-0.000179885,-0.000194634,8.77E-05,-0.000860638,-0.000452404,0.000365957,0.001611387,-0.001661636,0.000606764,0.000203244,-0.001027294,-0.000736967,0.001496937,0.002773831,-0.013736463,-0.006824426,-0.00048558,-0.000162809,-3.56E-05,-0.001805747,-0.003029493,0.004960091,-0.003479971,-0.001353417,0.005610595,-0.001818318,0.000845071,0.000825665,0.000265718,0.001642132,-0.000218921,-0.000249726,0.000980883,-0.002248541,-0.001617173,0.002678639,0.00119461,-0.001569024,0.000740166,2.33E-05,-0.001804592,-0.002671267,-0.004662184,-0.002323417,0.002969704,-8.66E-05,-0.000117599,-0.000588403,-0.002074494,-0.007180597,-0.001676801,0.002757633,0.001039356,0.001718073,-0.003621529,-0.004314176,-0.004456087,-0.003780908,-0.004354029,-0.004236124,-0.003531142,-0.000595962,-0.000414952,-0.002859936,-0.00048337,0.000933088,-0.001948504,-0.000382329,0.000104131,0.002790969,-0.00410835,0.002329967,-0.001770459,-0.005182182,-0.000105005,-0.000106404,-0.000633184,-0.009782341,0.005675796,0.00190839,-0.012343278,-0.009545513,-0.001616035,-0.003212557,-0.002110043,-0.004245612,-0.002930997,-0.001275899,-0.005010113,-0.003133635,0.000164563,-0.001312841,-0.001106935,0.001751282,0.001151484,0.00103901,-0.001593308,-0.011273288,0.001397451,0.008638975,0.005092191,-0.004837238,-1.49E-05,-7.23E-05,-0.000226749,-0.005881812,-0.018507852,-0.00642845,0.000101997,-0.003768973,-0.003513816,-0.000730963,-0.000747817,0.000299549,-0.000273444,0.000203324,-0.000865181,-0.001279609,-0.001407963,-0.000263638,-0.000306849,-0.002268543,-0.001681454,-0.001317913,-0.000774327,-4.03E-05,0.002528857,0.002286094,0.014921408,0.009364207,-1.96E-06,-0.002225648,-0.000964018,-0.004034833,0.00075934,-0.0119179,-0.006089545,0.00286562,-4.61E-05,-0.001796001,-0.001302263,-0.000742565,0.001165824,-0.001649015,-0.000463763,-0.001326292,0.000629117,-0.00149155,0.000961732,-0.001233398,0.000519578,-0.001606492,-0.001852513,0.000605107,-0.004173158,0.001609076,0.017939016,0.000862489,-6.44E-07,-0.002652475,-0.004504056,0.004701353,0.005186629,0.010675742,0.003552785,-0.003671767,-0.000443983,0.000734843,0.000771386,0.00077666,7.31E-05,0.000566835,-0.001269596,0.000220315,0.000987236,-0.001613359,-0.002188819,0.001384265,-0.001555808,-0.000697591,-0.001021426,-0.0057306,0.005782048,-0.001266943,0.01253486,0.003891506,-1.67E-08,-0.001541918,-0.007659457,0.004837696,-0.004005257,-0.003451681,0.002515034,0.001816996,-0.000926255,0.000478797,0.000164329,-0.000228289,0.001445991,0.000813394,-0.001636126,0.00034143,6.83E-06,0.002232459,-0.001243456,0.00054575,-0.002018081,0.002845773,0.000244866,0.00416352,-0.002202946,0.00560811,0.013791395,0.004588773,-0.000834537,-0.000848686,0.001583273,0.000819133,0.001520389,0.00237984,-0.001113661,0.001821482,0.000173734,0.000127975,0.00098859,0.001260307,0.000895902,-0.000337676,0.002212897,-0.000262021,-0.001320253,0.001016692,-0.002043569,0.000223068,-0.001353171,-0.001478939,0.000941296,-0.002102681,0.008770032,0.002708162,0.002164735,-6.99E-06,-0.000117421,-0.006459158,0.001495723,-0.000917965,0.004283117,0.001096131,0.002068028,0.000720287,6.42E-05,0.002120934,-0.001847137,0.00224539,-0.000120829,0.001436315,8.29E-05,0.000667011,0.001086098,-0.000614981,0.001355333,0.000129648,0.001155725,0.002291628,0.000766502,0.007622469,0.001663479,-0.00104112,0.001400511,-2.47E-05,-0.000522505,-0.005859332,-0.00478102,0.000800058,-0.002204652,-0.000192833,0.001112183,0.000241359,0.001737547,0.000932251,0.000842246,0.00015795,0.001796902,0.000714806,0.000766941,0.00015012,0.000987064,0.000822652,-0.001593695,0.001023571,-0.000309607,0.00097593,0.000245466,-0.001878178,0.007923656,0.002853064,0.000133402,-0.000851586,0.003901818,0.000608508,0.003263069,0.001710279,0.001817215,0.002737665,0.00173269,0.000422868,6.73E-05,0.002567065,-0.000597758,-0.000599092,-0.000654167,4.06E-05,0.00083841,-0.002219166,0.000903457,0.001132636,0.00074004,0.001855766,-0.00100293,0.000978539,0.005345587,0.002074952,-0.00379014,-0.000209755,-1.66E-05,-0.000423266,0.000137396,-0.000390266,-0.00350576,-0.000393252,-0.000484294,0.000265162,-0.002132271,0.002236145,0.000557786,-0.000259316,-0.000217772,-0.00066979,-0.000321951,-0.002003669,0.000522926,0.001557279,-0.0010237,0.003146338,-0.001077031,0.002619623,0.000850993,0.007669634,-0.003655095,0.003688814,-0.001619449,-2.13E-06,-1.61E-05,-1.93E-05,-0.004153558,0.00087015,0.002561513,-0.000412806,0.002085827,0.000514911,0.001510294,0.001042535,-0.000654117,0.000890532,-0.000122059,0.000841361,-0.001182558,-0.000941102,-0.00056722,-0.00067275,0.002129881,-0.000924378,0.00200679,-0.001285475,0.003665702,-0.002451272,0.003749908,-0.002513027,-0.005465787,-3.93E-06,-0.001792046,-0.006384015,0.004536989,-0.001642725,0.000987029,-0.000935114,-0.001404665,-0.000551983,-0.000471512,-0.001205997,0.000184656,-0.0029205,0.000438443,-0.002864756,0.001016939,-0.002037444,0.001159572,0.001956621,3.38E-05,0.00291637,0.003139624,0.002141272,0.003855844,0.002248492,-0.002746408,-0.000239139,-0.012308399,-0.009829498,-0.004272673,-0.002217829,-0.003631571,0.000866003,-0.001012716,-0.001534455,-0.000835047,-0.000111841,-0.000996689,0.001287168,-0.000907475,-0.002944495,0.000248973,0.001777868,-0.001717303,0.000153367,0.002619671,0.000436859,-0.005061597,0.015262906,0.009113205,0.00011555,-1.38E-05,-0.001804161,-0.003627637,-0.011663429,-0.003890019,-0.006127859,-0.009011863,-0.013806943,-0.005497274,-0.007331527,-0.005409089,-0.005865,-0.002524694,0.00020828,-0.002927482,0.001160717,-0.00630177,-0.006335669,0.002871452,-0.009044664,-0.010483696,-0.012918013,-0.004599018,5.87E-05,0.000131515,-3.48E-07,-0.000298727,-0.001819432,-0.00309033,-0.003736568,-0.003972407,-0.004395977,-0.005414722,-0.011532005,-0.00766609,-0.010354914,-0.012317721,-0.012850599,-0.013249897,-0.011810022,-0.008059693,-0.002947885,-0.00374716,-0.00382649,-0.001261539,-3.04E-05,-5.13E-07,-2.92E-06,-2.92E-07,-1.54E-05,-0.000104678,-0.00020343,-0.000164002,-0.000248782,-0.001104129,-0.001436135,-0.00113873,-0.001495094,-0.001658447,-0.00126571,-0.001150472,-0.001455,-0.000412342,-8.86E-05,-0.000485989,-0.000302078,-0.000766865,-4.17E-05
-4.84E-06,-1.14E-05,-9.05E-07,-3.77E-08,-2.12E-09,-8.22E-09,-1.19E-06,-2.19E-06,-1.03E-05,-1.08E-05,-2.17E-05,-3.78E-05,-0.000121455,-0.00010113,-0.000712194,-0.000870523,-0.000350042,-9.36E-05,-1.23E-05,-6.21E-05,-9.40E-05,-2.02E-05,-4.39E-06,-4.33E-08,-5.73E-09,-8.05E-07,-2.84E-07,-4.46E-05,-0.000259919,-0.000614399,-0.001414795,-0.003530084,-0.003939596,-0.000281566,-0.0005303,-0.000890776,0.002428138,-0.006847023,-0.004662231,-0.00414073,-0.00812747,-0.008212645,-0.005318519,-0.00295224,-0.001666314,-0.000194409,-1.23E-05,-1.77E-07,-8.87E-06,-8.51E-06,-0.001062731,0.006252233,-0.00283371,-0.000184104,0.004705531,-0.003627527,-0.002316552,-0.00029648,0.005013017,-0.005894464,0.003407132,0.000425065,0.000699409,-0.000501705,0.002494881,-0.003227164,0.009642396,-0.00535264,-0.010279967,-0.006493231,-0.001990475,-1.03E-05,-1.81E-07,4.73E-06,-1.42E-05,-0.000531566,-0.004029091,0.004994394,-0.002710438,-0.00021924,0.001875608,-0.000403272,0.0013055,-8.45E-05,1.82E-05,9.44E-05,0.000291485,-0.000599301,0.001194302,-0.002328604,0.001829093,-0.001637695,-0.00046855,-0.003442757,0.005643951,-0.017919195,-0.003689769,-0.000246963,-1.37E-05,-1.12E-06,-0.000652718,0.00281985,0.001808275,0.004732409,0.001018572,0.002193807,0.00034588,0.000384356,0.000989858,2.95E-05,0.000140531,5.95E-05,-0.000206227,0.000227618,0.000730045,-0.001742501,-0.000783789,2.20E-05,-0.00054791,-0.003793019,-0.000977602,-0.001103851,-0.007279501,-0.002467956,-0.000184502,-4.30E-06,6.18E-05,-0.001920605,0.004617147,0.000274732,-0.003534371,0.002147975,-0.002120601,0.000463161,0.000511734,0.000920985,0.000725465,-9.76E-05,0.001461877,-0.000750711,0.000521498,0.000444804,-0.000134235,0.001337988,-0.002023202,-8.55E-05,0.00228522,-0.001135519,-0.002126882,-0.003923971,-0.006381939,-0.000849589,-1.18E-05,-2.12E-06,0.003643009,-0.007304688,0.000513412,0.00099928,0.002318202,0.00069405,-0.000411169,0.000154306,0.000756927,-0.001103186,-0.000136431,0.000480867,-0.000769916,0.001558676,0.000574243,-0.000682024,0.000647371,-0.001202368,2.08E-05,0.000752286,-0.003684119,-0.001032733,-0.000359025,-0.004643091,-0.005142214,-0.000441966,-2.65E-05,-8.65E-06,-0.001138144,-0.010999694,0.002100949,0.000149328,-7.30E-06,-0.000245548,0.000340131,-0.000108083,-0.001893776,0.000680453,-0.000677395,0.00146887,-0.000463733,-8.21E-05,-0.000107605,0.000817339,-0.000371435,0.001654909,0.000300811,0.000858686,-0.000678016,0.001337067,-0.007093353,-0.016361697,-0.005535845,-0.000534975,-6.20E-06,-0.000171032,-0.001582625,-0.003708098,-0.000363339,0.004721063,-0.001084867,0.001319218,0.000494226,-0.000964162,0.000487967,-0.000167743,-0.002608905,-0.000768137,-0.001071131,-0.000493363,0.001406372,1.91E-05,0.001021944,0.000567945,0.000437107,0.002396403,0.002483146,0.002460647,-0.002517938,-0.03268194,-0.004786234,-0.00053074,-5.51E-05,-0.00020785,-0.002730742,-0.007283244,0.001058323,-0.004603015,0.000467988,0.000491758,1.58E-05,-5.84E-05,-0.003237973,-0.002420015,-0.002478189,-0.00320811,0.001619482,0.001103139,0.00014891,0.001764764,0.000422218,0.000516727,0.000391837,0.000393611,0.002293396,0.002357421,0.007884947,-0.02386652,-0.00307295,-0.000827745,-2.06E-05,-0.000129328,-0.002619308,-0.008594962,0.006852558,0.004441753,-0.001021165,-0.000772675,-0.001863456,-0.003405464,-0.001691872,-0.0027707,-0.000381083,-0.00029629,0.000510518,0.000111106,0.001836692,-0.000367804,0.001119928,0.00129809,0.000279448,0.001232421,-0.003484462,0.000419059,-0.003043897,-0.011768015,8.42E-06,-0.000355788,-1.61E-05,-7.35E-05,-0.001750409,-0.005256114,-0.00035111,-0.003071676,-0.000757078,-0.00601057,-0.002088661,-0.002356273,-0.000168236,0.000981943,-0.002165417,0.002159643,-0.000238291,0.001099111,0.000696059,0.001811932,-0.001333693,0.000617883,-0.000383861,0.000566256,-0.002286562,-0.006542012,-0.019215411,-0.00799317,0.000948822,-3.97E-05,-2.72E-05,-2.82E-05,-0.00116701,-0.003679109,-0.000185139,-0.006849954,-0.000815426,0.004249209,-0.001141994,-0.000249174,-0.000792388,-0.001373311,-0.000294792,0.001345678,0.001051948,-0.000159474,-0.001538325,0.001830572,4.14E-05,2.55E-05,-0.000562504,-0.003279212,-0.004928273,-0.010414829,0.002651125,-0.004572681,-0.001477948,-0.000546372,-0.000914433,-0.000926446,0.000586393,-0.001288069,0.005952872,0.000395199,-0.001360239,-0.006545058,-0.001489846,0.000398216,-0.000375564,-0.000849582,-0.001824422,0.002886808,-0.000973125,-0.000995899,-0.000191349,0.000916543,-0.00044732,-0.000284596,-0.002257039,-0.00351195,0.002948831,0.000177772,0.003191914,-0.003603363,-0.004996011,-0.003631652,-0.000638282,-0.000304295,0.002350107,0.001650151,-0.001597202,-0.005129944,0.000385375,0.000541866,-0.000833897,-0.001785668,-0.000989582,-0.001143023,0.000274909,0.001308022,-0.000432268,-0.001004362,0.001451492,-6.99E-06,-0.002013686,-0.001651524,-0.000337997,0.003219551,-0.000351641,0.003969818,0.004774653,-0.004482784,-0.011792095,-0.001148467,-0.000116864,-5.40E-06,0.001397231,0.006598054,0.000143429,0.004422841,0.00077725,-0.001233057,-0.001504198,-0.003581877,0.001302958,-0.000993095,-0.000341432,-3.69E-05,0.000854058,-0.002097023,-0.001266073,-0.002070154,-0.00169579,0.002666179,0.000518323,0.001564055,0.001650266,-0.001047887,-0.001423894,0.004566821,-0.016200468,-0.003465643,-0.000142677,0.000530355,0.00550108,5.87E-05,0.001949539,-0.001039436,-0.000484386,0.001883174,-0.000957482,-0.004085484,-0.004070296,-0.003126152,-0.000536405,-0.002325133,-0.002658105,-0.002495871,-0.00046026,0.001896925,-0.000334337,0.002559322,-0.000473325,-0.000364931,0.002412801,0.003413091,-0.002224155,-0.01710895,-0.002586468,-8.41E-05,-0.000318182,5.61E-05,0.002012767,0.008804507,-0.004294035,0.000970427,0.000869371,-0.002120765,0.001076794,-0.001303157,-0.003251004,-0.003531661,-0.005055745,-0.004139536,-0.002063575,0.000863812,0.002100097,6.38E-05,0.000494317,0.000409567,0.000491437,0.002731792,0.002592749,-0.000516657,-0.006725401,-0.011572285,-0.001689315,-0.000117327,-5.68E-06,-0.000101329,-0.010112586,0.004260683,-0.000377807,0.002333862,-0.000998281,-0.000180863,-0.001031678,-0.00098989,0.000271732,-0.001927732,0.000504466,-0.001521311,-0.00176109,-0.001710094,0.000432542,0.001999052,0.00056754,0.001551891,-0.000563902,0.000467557,-0.001801945,-0.0009347,-0.001332133,-0.009652074,-0.001538547,-8.28E-05,-1.87E-05,-0.003875713,0.005993441,0.000475126,0.002131933,0.001278326,0.001023024,-0.000221879,0.001767603,-0.000509058,0.0003055,-0.001211204,-0.0009557,0.000520738,-0.00082511,-0.001032147,-0.00040698,0.002132348,-0.002130176,0.002337933,0.000109401,-0.00101045,0.003531916,-0.006123437,-0.005009611,-0.000549004,-4.55E-05,-8.29E-06,4.48E-05,0.005437823,0.000668253,0.000628085,-0.00049564,0.000320195,4.68E-06,0.001469771,-0.001924079,0.000161478,-0.001013495,-0.00022713,-0.000137486,-0.000518346,-0.000111885,0.001398177,-0.001707213,0.000386412,0.002373458,-0.001868149,-0.000150826,-0.001369243,-0.004693329,-0.014122477,-0.002799649,-0.000450457,-1.79E-07,-8.03E-06,-3.68E-07,0.000461986,-0.000450243,0.000818055,-0.000191679,0.000525785,0.000786359,-0.001803616,0.001108395,-0.000716027,0.000988882,-0.000339315,0.000164685,-0.001262315,-8.59E-05,1.87E-05,0.000922342,-0.000412827,-9.56E-05,0.002457805,-0.002807326,0.00421489,0.000223082,-0.008601263,-0.002023085,-6.50E-06,-3.30E-07,0.001835555,0.003493559,0.002289795,0.004226104,0.001310978,0.001022052,0.000121079,0.001231181,-0.000316014,0.000757621,-0.001298757,0.000842753,-0.001088612,-0.00017251,-0.001541576,-0.000666956,0.001850205,0.000175531,-0.001279774,0.001778713,-0.007247836,-0.006342653,0.002037181,-0.000953911,0.000199637,-0.002468159,0.007272899,0.009955805,-0.008827066,0.005464288,0.001177451,0.000850081,-0.000260103,0.00090766,0.000819581,-0.001158405,0.000483676,0.000665537,-0.001308721,0.000241657,0.000915623,-0.004140713,-0.002157858,-0.001329627,0.00330726,0.001418855,-7.43E-05,-0.00160258,-0.000145851,-3.33E-06,1.11E-05,-0.006834098,-0.008502994,0.002073145,0.00177767,-0.003666262,0.004085329,0.001035948,0.000732277,-0.000113719,0.002540201,-0.000794295,0.001052653,-0.001225793,0.000280867,-0.003120693,-0.001648807,0.004114186,-0.004945866,-0.007768587,-0.000663946,-0.001907513,-3.55E-05,-2.31E-06,-2.15E-07,-4.96E-05,-0.000660625,-0.000682889,-0.002733307,-0.001710812,-0.00492531,-0.006978624,-0.002797751,-0.003582902,-0.010213121,-0.005055078,-0.006869575,-0.009059886,-0.003122638,-0.002507305,-0.003215627,-0.003132292,0.000598296,0.00097471,0.000289288,-0.000224256,-9.05E-08,-4.50E-07,-4.83E-06,-1.32E-05,-0.000161246,-0.000375889,-0.000354144,-0.001221193,-0.002794431,-0.002471028,-0.002742182,-0.0033851,-0.003762814,-0.003073531,-0.004285891,-0.003911643,-0.002360233,-0.000930907,-0.000323433,-9.13E-05,-4.72E-05,-6.20E-06
-0.000100004,-0.000247767,-3.20E-05,-1.34E-06,-1.17E-06,-6.40E-05,-0.005322081,-0.008756943,-0.005509125,-0.002591564,-0.004168012,-0.00345516,-0.006001332,-0.005349755,0.00412329,-0.008930219,-0.011121693,-0.005400806,-0.003038756,-0.011148146,-0.009963278,-0.008645324,-0.016054813,-0.009411377,-4.09E-06,-0.001620424,-0.002110794,-0.000257446,-0.005034743,-0.019279075,-0.014719453,-0.012315052,-0.020753468,-0.017876176,-0.015230169,-0.002538919,-0.0004192,-0.008551362,-0.010818701,-0.007776521,-0.014913734,-0.013891183,-0.010012312,-0.005271419,-0.015596065,-0.01445234,-0.003130815,-0.000378657,-9.05E-06,-0.004725086,-0.001693132,-0.001071207,-0.012685946,-0.012276669,-0.01453907,-0.019262546,-0.005062819,-0.004673201,-0.006395065,-0.025557398,-0.003426932,-0.008078205,-0.00228299,-0.003591896,-0.011027727,0.002036599,-0.006077499,0.000932461,-0.00215054,-0.006505862,-0.0128768,-0.000967715,-0.000587218,-1.90E-07,-3.23E-05,-0.0003664,0.000152971,0.000535506,-0.012408802,0.011412091,-0.003427213,0.003112883,-0.007500717,-0.003586275,0.000580988,0.002805021,-0.005639694,-0.002666148,-0.001411967,-0.001888319,-0.003528604,0.000999853,0.000537769,-0.000132374,0.002971944,0.001449258,0.01152766,-0.000838849,-0.003664095,-0.000207114,-0.002017969,0.00044064,-0.000630623,0.001417809,-9.81E-05,-0.001003687,-0.000996896,-0.000109814,5.07E-05,-0.001231566,-0.000769574,-0.002634691,0.001507874,0.000369938,0.001529868,0.000714163,0.001248501,0.000540585,0.001241198,-0.000695608,0.00071904,-0.000390036,-0.001977596,-0.005135483,-0.009477044,-0.000302723,-8.27E-08,-0.000423727,-0.007647031,0.000886249,0.00203342,-0.003332541,-0.000685244,-0.000270817,-0.000388136,-0.002970276,-0.002332694,-0.002244421,-0.003173252,-0.003611001,-0.004257374,-0.003781772,-0.002322201,-0.004142219,-0.001113982,-0.002490866,0.000294016,-0.001128719,0.003222742,-0.001803081,-0.00084773,0.002015829,-0.001007099,-7.44E-08,-0.000143016,-0.001095037,-0.003678743,-0.002746551,0.005405868,0.00157868,0.00254355,-0.001487645,0.001749732,-0.001179765,0.001119032,-0.002991201,-0.001256396,-0.0022978,-0.002743205,-0.002706152,-0.000384436,-0.001260124,-0.000321299,0.000396962,0.000703293,0.000288046,0.005555387,-0.003725694,-0.005702145,-0.001175423,-0.001676767,-0.000430055,-0.003256623,0.005393486,0.009270459,-0.000510048,0.001596554,-0.004840121,0.002595001,-0.003864645,0.00093894,-0.001764235,-0.000908483,-0.001154979,-0.001145508,-0.002749666,-0.001555137,-0.002833255,-0.001012345,-0.000195938,-0.001039474,-0.00154389,-0.00040594,-0.002181618,-0.00373214,0.000799195,0.002998415,-0.004460843,-0.006116334,-0.001276352,-0.002139071,0.005739253,-0.003352969,-0.009811666,0.006346961,0.000101791,0.000316578,-0.000637038,-0.000997549,-0.002078083,-3.54E-05,-0.002561151,-0.000382728,-0.003572667,-0.001952225,-0.000126605,-0.001081361,-0.000459924,0.000425516,-0.000125569,0.000592967,-6.37E-05,0.004452092,-0.010404741,-0.006524057,-0.005035554,-0.003578171,-0.001484773,-0.000819963,-0.007701933,-0.010353412,0.007866151,-0.008489562,-0.004999005,0.001129788,0.000859206,0.000803545,-0.000809604,-0.000523959,0.00070963,-0.00057446,-0.003465863,-0.000366948,-0.003021934,0.000977263,-0.000782461,-0.001449103,-0.000498641,-0.000548444,0.002197598,-0.006565611,0.009016289,-0.005398493,-0.017077794,-0.000618779,-0.000161434,-0.003230626,-0.008395732,0.008903447,-0.003781556,0.002520483,0.002464583,-0.001813733,-0.001257789,0.001813017,0.001548052,-0.000255497,0.000584808,-0.005759103,-0.004470061,0.001141343,0.001822216,-0.00030583,-0.000867161,0.002016874,-0.002814182,-0.001233812,-0.003543389,-0.000677252,-0.017270203,-0.006876036,-0.008216015,-0.000216394,-6.83E-07,0.000514956,-0.00639374,-0.001263165,-0.00744413,-8.79E-05,-0.002110338,0.001397427,0.001587765,-0.000574527,0.001778966,0.001643276,0.005987867,-9.66E-05,-0.002852656,0.000767866,0.001897844,-0.000531074,0.000134947,0.000333886,0.000269044,0.000436393,4.68E-05,-0.00573528,0.01116086,-0.008675882,-0.017807149,-0.002602354,-1.96E-06,0.003518907,-0.005426155,-0.005574452,-0.004049175,-0.000647484,0.001103214,0.00075277,0.001275247,0.003294031,0.002669077,0.003406305,0.001412904,-0.001887487,-0.001246282,0.001426495,-1.86E-05,0.001563348,0.000499748,-0.001880632,0.000683472,0.004082768,-0.003203199,0.00029925,-0.011862994,0.005214223,-0.00944936,-0.008679488,-4.02E-05,0.001758108,-0.00400012,-0.002443855,0.00707448,0.001108086,0.001381865,0.003682522,0.000993883,0.000675529,0.000758369,0.002096308,0.002537223,-0.002309979,-0.000258138,0.000459293,0.001761606,0.001430094,0.000393162,0.003127865,0.000219313,0.000201778,0.002671579,-0.005477286,0.004038629,0.003673924,-0.025844832,-0.000957345,-1.80E-05,0.000110162,-0.000473006,-0.001439091,0.00735531,-0.001544865,0.001642442,0.000147674,0.001136556,0.001676926,0.001410623,0.001305905,0.001706471,-0.002149347,0.000274692,0.000946126,0.002286095,0.001064032,-0.000808625,0.001915341,-0.000260253,-0.003940193,0.004265405,0.006433469,-0.01851953,-0.001912099,0.008914594,-0.002252201,-2.79E-05,-7.97E-07,0.00217336,-0.003198992,-0.010464635,-0.00011638,-0.000899416,0.001864609,0.00251428,0.001413681,0.000375919,-0.001447715,0.002412849,-0.000684899,0.001395098,0.002149591,0.000581185,0.00108961,0.000360827,-3.98E-05,0.00312252,0.003918867,-0.003994777,-0.002134278,0.00530992,-0.010393634,-0.00683062,-0.00107199,-5.87E-07,0.011820612,-0.00894364,0.004339131,-0.001939926,0.000130888,0.001998076,0.000446011,0.001046365,-0.000785896,0.001009546,-0.002634319,0.001448745,0.002131025,0.001046874,0.001540424,0.001086609,0.003211506,-0.001971166,-0.001656691,0.000526639,0.000362511,0.004718441,-0.012144003,-0.005035312,-0.003239447,-0.008185824,-0.003106261,-2.87E-07,-0.001476366,-0.001930802,-0.003512195,-0.001039248,0.000486005,0.000719281,-0.000417285,0.002808969,-0.002573342,-0.004015946,0.004217606,0.002973283,0.000661889,-0.000357719,0.00161012,-0.002664707,-0.001996388,0.002271717,0.001006789,0.000382735,-0.004786768,0.002217068,0.002187105,-0.016603013,-0.000337365,-0.000275046,-2.55E-08,-0.004143189,-0.005373204,0.008938537,-0.000973285,0.005209202,-0.003260865,-0.002756023,0.001769829,-0.005167777,-0.001672345,0.002307041,-0.005597663,0.000156312,0.002302604,-0.000729477,-0.001760351,0.000396897,-0.00143123,-0.001936912,-0.002365077,0.005821617,-0.011611037,-0.00014097,-0.002812687,-0.01354674,-0.000146339,-3.07E-06,-1.17E-05,0.00171208,0.002209705,-0.001764127,-0.012252257,0.004733072,0.00102299,-0.009550781,0.001243133,-0.004120508,-0.000715737,0.000730384,-0.002875054,0.000839074,0.000900541,0.002841372,-0.000233053,0.001516473,-0.001003893,-0.005507037,-0.001547186,-0.000456067,-0.004747551,-0.003120709,-0.007074289,-0.000174811,-0.00026674,-1.46E-07,-1.72E-06,-3.69E-05,-0.001398245,-0.001641724,0.019455118,-0.013746209,-0.007963241,0.007594192,-0.003019771,0.000401824,-0.00091169,-0.002330744,-0.000608135,-0.001173498,0.00093192,-0.002950046,0.001824896,-0.001502917,-0.000221633,0.008484654,-0.004801365,0.000882639,0.0060708,-0.001675606,-0.004964797,-0.000305699,-4.04E-09,-1.41E-07,-7.70E-08,-0.001396552,-0.00479998,-0.008658805,-0.008965734,-0.001790425,0.000531348,-0.004297678,-0.001311419,-0.000203742,-0.001616007,-0.001128696,-0.000716195,-0.002959152,-0.000992477,-0.001046901,-0.000783404,0.00014803,0.003445507,-0.008941048,0.007009125,0.006287752,-0.002388541,-0.002137041,-0.008568709,0.000660787,-7.45E-09,-0.002269394,-0.005064129,-0.009117796,-0.00803043,-0.000543911,0.001252441,0.000249672,-0.002410557,-0.0006884,0.000252064,-0.001535033,-0.000637108,6.17E-06,-0.000245057,0.001509841,-0.00016605,0.000102899,-0.002273392,0.002700927,0.001904657,-0.01433709,-0.002037599,-0.000475274,0.00090441,0.000687988,-6.29E-06,-0.000165297,-0.005107204,-0.001133379,0.01144319,-0.006608209,0.002920349,0.003394488,-0.00245412,0.00222822,-0.001208067,-0.000994654,0.000464805,-0.002169911,-0.000402908,-0.001292595,-0.00156376,0.002924972,-0.003834285,0.000133087,0.007062922,-0.000956435,-0.00491855,0.003919157,-1.19E-05,-4.89E-06,-5.21E-06,0.000196013,-0.009037419,-0.001928909,-0.005167115,-0.002834267,-0.004490729,-0.000939361,-0.002603686,-0.004332384,-0.001356103,-0.004004693,-0.001326722,-0.004305723,-0.003670159,-0.001981287,-0.007865388,0.00040793,-0.008366715,-0.002223121,-0.002761277,-0.003497258,-1.84E-05,-1.26E-05,-9.34E-05,-0.002180732,0.003670558,0.000715441,-0.014517431,-0.007818034,-0.008314975,-0.006174095,-0.012640039,-0.006394241,-0.011370943,-0.010683645,-0.010836633,-0.009363192,-0.010633648,-0.006552439,-0.014776614,-0.018931126,-0.018276159,-0.015480494,-0.006990477,-0.000178986,-1.27E-07,-2.49E-07,-2.63E-05,-0.001060849,-0.006029192,-0.009412039,-0.007238204,-0.006875313,-0.003407843,-0.003965002,-0.00302589,-0.010484683,-0.003231683,-0.001730563,-0.001390768,-0.001933359,-0.001209637,-0.000623972,-0.006043079,-0.004195101,-0.000107634
-4.51E-06,-1.00E-05,-1.58E-07,-6.57E-09,-1.56E-08,-4.96E-08,-8.64E-06,-1.48E-05,-2.72E-05,-7.93E-05,-0.000367798,-0.000344832,-0.000577312,-0.000568156,-0.000271641,-0.000406286,-0.000453195,-0.000215834,-0.00039419,-0.000385256,-0.00018903,-3.86E-05,-4.43E-06,-4.78E-06,-2.90E-07,-2.51E-05,-1.13E-05,-6.99E-06,-1.66E-05,-0.000244078,-0.001332064,-0.002440735,-0.00403076,-0.007324222,-0.00811947,-0.00996818,-0.012215024,-0.008194097,-0.003386812,-0.002648083,-0.000783831,-0.00178889,-0.005887831,-0.004488557,-0.002242747,-0.000610835,-0.000504645,-3.11E-05,-1.52E-06,-9.36E-05,0.001432857,-0.002093913,-0.001517291,-0.002793542,-0.003969039,-0.004708937,0.001835762,-0.007094039,0.002147456,-0.001299,-0.002405366,0.000212257,-0.003993554,-0.00082751,-0.001887666,-0.000286704,-0.001374937,-0.000898554,0.002740867,-0.008268266,-0.004457313,0.000293125,-1.00E-05,-9.00E-06,-0.000186382,-0.000327034,-0.002563174,-0.010387673,-0.003195782,0.003538118,-0.006062025,-0.001505839,-0.001230634,0.000136839,-0.000619232,-0.002801848,-0.000501499,0.0006823,-0.000536646,-0.000855484,0.000750395,-0.000741264,-0.002526491,0.00295695,-0.001606485,0.001323142,0.006423258,-0.000930833,-0.000893415,-0.000532493,-0.000278842,-0.000676384,-0.008119893,-0.004987849,-0.005407432,0.000871853,-0.000281946,-0.000184286,6.29E-05,2.47E-05,-0.001114973,-0.000455126,-0.000469027,-0.001301372,-0.000123852,0.000607294,0.00064398,-0.001400567,0.003318923,-0.001200586,0.003437676,0.000187439,-0.00030602,-0.000155785,0.003897951,-0.000507765,-1.33E-06,0.000577,-0.004945982,-0.001688067,0.005926418,-0.000948689,-0.001329711,-0.001905125,0.000156149,-0.000718741,-0.000354128,-0.000496219,-0.000530022,0.000949482,-0.001342099,-0.000610499,-0.000626518,-0.000125118,0.001630401,0.000249377,-0.000768041,0.00140798,0.000532594,0.005489804,-0.002108943,0.004198125,0.001201532,-3.67E-08,-9.14E-05,-0.000146318,-0.004632101,-0.009676073,-0.000988832,-0.001757876,-2.61E-05,0.001185801,-0.001039735,0.001749394,0.000147837,0.000816549,-0.001804834,0.001343452,-0.002383107,0.000675795,5.83E-05,0.000425715,-0.00093743,0.000134226,0.001527165,0.001811604,0.000277216,0.002481224,0.007803117,-0.007806451,0.002114463,-3.90E-07,-2.83E-05,-0.000884459,-0.005696645,-0.010897356,-0.000977908,-0.000936576,-0.000555685,0.001541781,-0.000722998,0.001060938,0.000773598,-0.000188959,-0.000735942,-0.001080941,-0.000465443,-0.001242842,0.000373157,-0.000967065,0.001527289,0.00110549,0.001034183,-0.001974765,0.004286673,0.002820329,0.00372326,0.0030464,-0.002388888,-5.27E-05,-0.00012841,-0.000942812,-0.006277595,-0.003344424,-0.001654542,0.001654689,-0.00237897,-0.000447528,0.000565546,-0.000913959,0.002339411,0.000336454,-0.000286953,-0.00102838,-0.002458584,-0.001848878,-0.001476251,-0.000560172,-0.001307894,-0.00061871,0.003620831,0.003180511,-0.001765531,0.007773038,0.002446809,0.004663183,-0.000563558,-6.24E-05,-0.000246036,-0.000950575,-0.007970432,0.003896582,-0.002249942,-0.002522035,0.003573304,0.002002584,0.002367687,0.00128255,0.001332493,0.002467115,0.001256226,-0.000677929,0.000358099,-0.001883293,-0.002152731,-0.002901795,-0.003050692,-0.004224676,-0.000874365,0.005057204,0.00341432,0.011211153,0.003837525,0.005806466,-0.001516449,-2.74E-05,-0.00154234,-0.002596795,-0.011106919,-0.000451047,-0.001225359,0.004234053,-0.001488148,0.000506718,0.000763184,0.001297353,0.000896218,0.000530036,0.00177188,-0.000285549,-0.00075116,-0.000122256,-0.001675404,-0.000249224,-0.00165537,-0.00589113,-0.010357624,-0.013436929,0.004778702,0.017212632,0.022161312,0.008373692,-3.25E-05,-3.99E-06,-0.001361574,-0.002790492,-0.003139517,-2.45E-05,-0.002462657,0.00270303,0.000524031,0.000696071,-0.00081613,0.000824619,0.000973764,0.000736092,0.001633198,-0.001534248,0.000957485,-0.001291796,-0.001812385,-0.001736547,-0.00282275,-7.73E-05,-0.003405771,-0.01264738,-0.026254222,-0.0406532,-0.001066236,0.01709521,-0.000234148,-2.29E-06,-0.000449382,-0.001624889,0.001219234,0.001435558,0.00396674,-0.001438967,0.002090743,-0.000347863,0.000784052,0.000565547,0.001148813,0.00190756,0.000706649,-0.001826527,-0.000993832,-0.002057985,-0.002134618,-9.53E-05,0.000691285,0.00021918,-0.001773913,0.002666197,-0.01066468,-0.027055478,-0.020178529,0.001338761,-0.000910868,0.001391043,-0.000215185,-0.000574582,0.001244401,0.002139855,-0.001176179,-0.000602586,-0.001525288,-0.000365419,0.000305447,0.001962683,-0.000467182,0.001254049,-0.000500818,-0.000596556,-4.00E-05,-0.001049885,-0.001031606,-0.000425672,-0.002459463,0.000554643,-0.000547533,-7.29E-05,0.003266708,0.013152702,-0.021445289,-0.001552316,-6.53E-05,0.000387632,-1.66E-05,-0.000420889,-0.002722126,0.003536825,-0.002806464,-0.001319343,-0.000612511,0.000956133,0.001041119,-0.000192076,0.000253092,0.001415303,-0.001733094,-0.002631442,-0.000991235,-0.000159508,-0.002129043,0.0017555,-0.001181673,0.0003134,-0.001518372,-0.001005209,-0.002065716,0.010705176,-0.011292425,-0.003580328,-0.000551049,-0.00038767,-1.69E-05,-0.000661901,0.000945705,-0.001831404,0.001465174,-0.00364701,-0.003097749,-0.002372426,-0.001472704,0.00042837,-0.000709335,0.000583243,-1.47E-05,-0.001346781,-0.000442531,-0.002361919,-0.000224503,-0.002492375,0.000445357,0.00048604,-0.00175608,0.004561543,-0.000395745,-0.005560239,-0.010428536,-0.006668889,-0.001119462,-4.06E-05,-0.001961257,2.10E-05,-0.001350682,-0.000665037,0.006588409,-0.002725734,-0.000432586,-0.00217441,-0.002466224,-0.002191549,-0.003072892,-0.002580346,-0.002958651,-0.0004011,0.000191083,0.000210185,0.002388727,-0.000722202,0.000220276,0.003342079,-0.005243562,0.002633326,0.003530937,-0.011135054,-0.003001906,-0.000159162,-2.21E-05,-0.000175001,-0.003402465,-0.003921372,0.003224396,0.000212234,0.001118653,0.001877355,-0.002037851,-0.001287757,-0.003078604,-0.001951049,0.000546025,-0.000121281,0.001120337,-0.00088317,-0.000169022,0.001338542,-0.001332356,0.000960795,0.000480616,-0.002170195,0.004587474,-0.001080532,0.000500212,-0.009356098,-0.002139662,-0.000762858,-7.82E-08,-0.000390274,0.003597522,-0.001694103,0.003052373,-0.001883821,0.001961273,-0.00027597,0.002517574,-4.08E-05,0.000954873,-0.000476668,0.000279326,0.00016389,-0.000863059,0.001861187,-0.000766609,-0.001114917,3.46E-05,-0.001246596,0.000322137,0.001530165,-0.002021066,-0.000291051,0.006132241,-0.005693537,-0.004489635,-0.000540804,-0.000157213,0.001941307,-0.000857542,-0.001757372,0.000838916,6.97E-05,-0.000945259,0.000518721,0.001107763,-0.000423437,0.002584778,-0.000899178,0.001054089,-0.001115958,-0.00163602,0.001068378,0.000767394,0.000616511,0.001515076,-0.000753179,-0.003153835,0.004185115,0.000844198,-0.004102868,0.003470039,-0.002161496,1.14E-05,-3.35E-07,-0.000116119,-0.003842097,-0.001905358,0.003200788,0.001269019,0.000506073,0.000545066,0.00050819,0.000635305,0.000580502,0.000920978,-0.000626817,0.000404105,0.000319843,0.000314098,-0.000999464,0.000656025,-0.00058733,-0.000756281,0.003136989,0.004359256,0.002394437,-0.001101365,0.001121022,0.003256702,-0.000604408,-8.20E-08,-3.25E-07,-9.16E-06,-0.002516679,-0.006263326,0.000735985,-0.003867703,-0.001134051,0.000857459,-0.000172077,0.000864226,-0.000764063,0.000498908,0.001637708,0.000105161,0.000319963,-0.00055712,0.000905317,-0.00211795,0.002962599,0.001186201,-0.001084932,-0.001265992,0.000853783,0.002413427,0.001047502,0.002744553,0.002315781,-1.51E-07,-0.000306316,-0.001648771,0.00170517,0.005025489,0.001670286,-0.003519147,0.001219902,-0.001240239,0.001947791,-0.000188705,0.000523584,-0.000261654,0.000894047,-0.000843815,0.00158722,-0.000667351,-0.003120566,-0.001112918,0.002646106,-5.24E-05,0.000904008,0.000658822,0.000984551,0.003713049,0.001492494,-0.000186339,-0.000320491,-0.005034909,0.000369141,-0.003413058,0.001971286,-0.001683693,0.00336906,-0.001155537,-0.000102986,-0.000137345,0.000442636,0.001145698,0.00029064,-0.001616123,0.001756784,0.001528229,-0.002720511,9.10E-05,-0.003280854,0.000579216,-0.008151825,-0.001018317,-0.003435543,-0.000294903,-1.04E-06,0.001878015,0.002468636,-0.002518681,-0.000485756,0.000986349,-0.00341903,0.002308613,-0.001852043,0.00135367,-0.000532072,0.001750672,-0.002219481,0.002601464,-0.001242626,-0.000273584,0.001386051,0.001076541,-0.004267117,-0.000680074,0.006806022,0.007762262,0.006680206,-1.36E-06,-1.52E-06,-2.75E-07,-4.24E-05,-0.000344707,-0.002415403,-0.009015813,-0.011089377,-0.001661591,-0.002129983,-0.000189037,-0.003251349,-0.001062268,-0.005459523,-0.001169421,-0.000920761,-0.002482707,-0.006166654,-0.001768894,0.00108478,-0.005636703,-0.003560415,-0.00013297,-3.20E-05,-1.15E-07,-2.14E-07,-5.03E-06,-2.66E-05,-0.000204332,-0.000347958,-0.000350251,0.000601835,0.001904173,0.000216472,-0.00326534,-0.004316805,-0.003398723,-0.00342038,-0.002361898,-0.001845911,-0.000910893,-0.00089377,-0.003176943,-0.001869992,-6.81E-06
0.000154298,0.000304498,-3.71E-05,-1.55E-06,1.09E-05,3.28E-05,7.00E-05,0.00030519,0.002723508,0.000713801,-0.001377142,-0.001905294,0.005138638,0.00112198,-0.004063787,0.002621165,-0.007064698,0.002119905,0.003729615,0.00445988,0.002588105,0.000520287,0.00010413,1.80E-05,8.20E-06,-5.91E-06,0.000119496,0.000103261,1.26E-06,-0.000634751,-0.000601814,-0.000592212,0.008634645,-0.002830902,0.001416294,0.002971593,-0.000937222,-0.001120405,0.002568748,-0.000318094,0.00396612,-0.000471451,0.002733401,0.005496907,0.003010199,0.015284345,-0.003070952,-0.006975544,-0.000713829,0.000903854,0.004509832,-0.002191911,0.006282312,0.007322714,0.002855473,-0.000659992,-0.00326659,0.001934105,-0.001788195,0.000381891,-0.001403088,0.000927167,-0.000421358,-0.000856011,0.000355055,0.000995003,-0.000176569,-3.61E-05,-0.001950974,0.003171448,0.010059515,-0.010129708,0.006049361,-1.14E-08,-0.00248064,-0.000630436,0.003613276,0.003607348,-0.009850312,-0.000569842,-0.001050276,-0.002951251,7.35E-05,-0.003189865,-0.004141387,-0.000930228,-0.002639507,-0.002453669,-0.001134814,8.53E-05,-0.002501554,-0.000136051,-0.000518334,-0.001844078,0.002407033,0.000176029,-0.011402528,-0.000212313,-0.000409337,0.004186304,-5.90E-05,-0.006874532,-0.000569692,-0.004561772,0.002091594,-0.007744617,0.007395232,-0.004581228,0.00272311,-0.002667115,0.001080903,-0.003889888,0.000145503,-0.001578928,-0.001517669,-0.001717355,0.00187454,9.08E-05,0.002125243,0.00149257,-0.005183368,0.002439748,0.006539984,-0.003872134,0.004787597,0.00617405,-2.63E-08,-3.89E-05,-0.00810713,-0.000318278,-0.00228574,0.000255065,-0.000997431,-0.002501048,0.000113679,-0.003871063,-0.000209121,-0.001572005,-0.000685281,-0.002188033,-0.001277112,-0.002280275,2.37E-05,-0.00309562,-0.000963936,-0.002348648,-0.001096738,0.004141532,-0.00081225,-0.010591053,-0.004165033,-0.007617808,0.005465302,-1.26E-08,-1.11E-06,-0.000578722,-0.015593287,-0.001686256,0.007662359,-0.007498296,0.005413434,-0.001267888,0.000464355,1.05E-05,-0.000983825,-0.001257723,-0.001627669,-0.000241283,0.00036365,-0.00282877,-0.00163883,-0.001717506,-0.001690182,-0.001932127,-0.000209387,-0.007529434,-0.000125465,0.009445609,0.001726258,0.008635525,0.000454645,-1.05E-06,-2.84E-06,-0.000811506,-0.011740846,-0.00663536,-0.002985,-0.002388531,-0.003886423,-0.002963169,-0.001094715,-0.000812373,-0.000478507,-0.001327307,-0.000902101,-0.003171692,-0.00254759,-0.000768939,-0.002164554,-0.004327824,-0.00348633,-0.006004788,-0.003951461,-0.000724825,-0.013965242,-0.014449026,-0.005235361,0.005241037,-0.002555417,-7.09E-06,-7.15E-05,-0.001439389,-0.011899555,0.005661292,-0.000472284,-0.003346936,0.00696237,0.001750792,-0.001192494,-0.001555753,-0.000857765,-0.000223646,-0.002620163,-0.000787521,-0.002803876,-0.002713198,-0.003733969,-0.003726317,-0.003096969,-0.001226545,-0.00015581,-0.002384217,0.004377998,-0.006750476,-0.016687142,-0.007407194,-0.001350126,-8.37E-06,-2.46E-05,-0.005551515,-0.013386937,-0.000593871,-0.002981824,-0.003587644,-0.005135945,0.000519351,-0.002167325,-0.000183535,-0.00089835,-0.001658522,0.000746314,-0.001721996,-0.0011879,-0.002269808,-0.003563692,-0.000911154,-0.004926342,0.000131889,-0.002612983,-0.003775058,-1.07E-06,0.003759918,-0.009014491,-0.007306155,-0.002644302,-1.47E-06,-0.000158362,-0.000704973,-0.010060877,0.001507385,0.012885824,5.47E-05,0.002672205,-0.002329668,0.000300241,0.000271504,-0.002158876,0.001082065,0.000816022,-0.001203542,-0.002996721,0.001127764,-0.00219361,-0.00205069,0.001631444,-0.001063165,-0.002110217,-0.000942151,0.00290013,-0.006550752,-0.002759858,-0.011256326,0.002201629,-1.26E-07,-0.000161266,-0.001578612,-0.017327331,-0.004575747,-0.011303456,-0.000904806,-0.00155234,0.002874192,0.001289774,-0.00141549,0.003187063,-0.000132312,0.000421971,-0.00085754,-0.001463745,-0.001403746,0.000993741,0.001032889,-0.002696894,-0.002535615,0.003438772,0.002458054,-0.000247429,0.001381839,0.000677971,-0.017337271,0.000495476,-7.28E-06,-0.000267077,-0.000585297,-0.011775144,-0.002475841,0.005588446,0.006670394,-0.0012418,-0.000877996,-0.000390476,0.002419422,-0.001962602,0.001567449,-0.000712734,-0.002335737,0.002978924,-0.001102596,-0.00154655,-0.000156588,-0.00019738,0.00112777,0.001822856,-0.002008881,0.007049344,0.000107401,-0.010652368,-0.020533541,-0.005808724,-9.79E-05,-3.97E-06,-1.07E-05,-0.001461783,-0.005751918,-0.002470075,0.002417765,0.001424837,0.002737929,0.000490517,0.001048246,0.002276543,0.00158655,0.000255844,-0.001254084,-0.001178155,0.002143642,-0.002322015,-0.000181231,0.000376119,-0.001027958,-0.001598947,0.004975292,-0.002497422,0.001289258,0.009633473,-0.01879107,-0.000864242,-3.21E-05,-1.64E-07,-1.47E-05,-0.002737414,-0.014652543,-0.003066734,-0.001487127,0.001364688,-3.36E-05,0.000934733,0.000910942,0.000366979,0.000945445,-0.00140443,0.002468377,-6.57E-05,-0.000975168,0.000480968,-0.000650056,-0.001615686,0.003206322,0.002269754,-0.001841169,0.002847873,-0.006940453,0.001663832,-0.016641136,-0.001239291,-1.04E-07,-4.58E-06,-4.68E-05,-0.004272152,0.006781735,-0.003761355,0.002055234,0.002621453,-0.002244248,0.002447439,-0.000155924,0.003623229,-0.001361062,-0.000773784,-0.001079223,0.000172542,0.000124995,-0.002014907,-0.00045211,0.001740853,-0.002496027,5.25E-05,0.000406384,-0.003469418,0.00387179,-0.004085558,-0.018640987,-0.004004905,-1.02E-05,-0.000182462,-0.002659821,-0.009724735,0.005420233,-0.001748975,-0.002631999,0.004014557,-0.000698059,0.003425853,0.001790227,-6.46E-05,0.000673169,0.001301449,-0.00198555,-0.00157557,0.000984312,0.00026086,0.000264372,0.002933477,-0.001387908,0.002197978,0.00147925,-0.000683105,-0.004402797,-0.011468399,-0.007568049,-1.16E-06,-1.96E-06,-0.000462277,-0.003728664,-0.00227518,-0.005987163,-0.000957242,0.003245094,2.18E-05,0.001685209,0.001121919,0.000259711,0.002961584,0.000374359,-0.001343068,0.001478264,0.000828852,-0.000225158,0.001739685,-0.000577528,-0.001862014,0.002236892,-0.003396264,0.001044467,-0.007626156,0.006345323,-0.00244812,-0.00255711,-1.16E-06,-9.11E-05,-0.000320816,-0.010291624,0.001968481,0.001118355,-0.000323901,-0.00093564,-0.000134099,0.000933124,0.001918086,0.003328428,0.003290262,3.38E-05,0.000558599,0.001573818,0.00067169,0.001295857,0.000417336,0.001047663,0.00157509,-0.00103926,0.002486992,-0.000417387,-0.000996924,-0.014325056,-0.006726261,-0.001474883,-0.000211938,-0.000482583,-0.006666792,0.000672699,-0.000586905,-0.000456959,0.001020829,-0.001142152,0.001744948,0.002999168,-0.000914975,0.003620009,-0.001806886,0.004371971,-7.10E-05,0.001554222,-0.00058797,0.000119113,0.000310756,-0.000822211,0.002343874,-0.004383202,0.000356293,-0.001542362,-0.001927666,0.006040752,-1.30E-05,-1.42E-07,-2.14E-05,-0.000583372,-0.005569965,-0.002826527,-0.002010725,-0.00481504,-0.00020726,0.002654268,-0.000744365,-0.000352819,0.001944642,0.002165095,0.003124865,0.002101239,0.001150868,-0.000372674,0.002575371,0.001087843,-0.001110423,0.00264238,-0.007059196,0.004307884,-0.004397521,0.003285341,0.000189375,0.008455635,-6.88E-08,-1.37E-07,-6.09E-08,-2.22E-05,-0.003024777,-0.003315939,-0.005470429,-0.015017117,0.006672685,-0.002012218,4.45E-05,0.002663705,-0.001628342,0.000909071,-0.000189434,-0.001776187,0.002791024,-8.80E-05,0.000713358,-0.0009458,-4.50E-05,0.000769767,0.006210269,-0.001575136,-0.010859061,-0.011086665,-0.003264165,0.003835505,-1.27E-07,-1.78E-06,-4.24E-05,-0.000185629,-0.00120749,-0.006443112,-0.007389014,-0.004443825,0.000290716,-0.004787722,-0.00105594,-0.002503295,5.44E-05,-0.000791371,-0.001182303,-0.000115695,-0.004517115,0.002805294,-0.0006455,-0.00376289,-0.00408821,-0.005021039,-0.007020485,-0.00520085,-0.001180594,-0.000119476,-5.21E-07,-3.59E-06,-4.79E-05,-0.000367172,-0.002001898,-0.006333809,-0.009154535,-0.010378261,-0.013962314,-0.010525965,-0.003311133,-0.002820689,-0.006347291,-0.005291215,-0.003799914,0.000594429,-0.008270564,-0.013855099,-0.008658945,-0.010493189,-0.003035305,-0.000960903,-0.000351893,-6.35E-05,-1.95E-06,-3.16E-08,-5.64E-06,-7.07E-05,-5.23E-05,-0.000101573,-0.000319423,-0.000685179,-0.002327013,-0.002505934,-0.002229745,-0.002480203,-0.006638327,-0.007438661,-0.010995351,-0.009245358,-0.00571616,-0.004158553,-0.002378456,-0.001688342,-0.002160306,-0.000375743,-0.000167911,-3.35E-05,-1.11E-06,-1.30E-06,-2.71E-07,-2.91E-06,-8.01E-06,-2.24E-05,-3.67E-05,-0.000143126,-0.000194152,-0.00103431,-0.001204655,-0.000618835,-0.001146007,-0.001296393,-0.002349708,-0.001090236,-0.001095329,-0.000952617,-0.000785217,-0.00073778,-0.001782136,-0.000521792,-1.58E-05,-1.88E-07,-1.90E-08,-4.37E-08,-3.95E-07,-1.54E-06,-4.37E-06,-6.18E-06,-7.72E-06,-1.74E-05,-1.85E-05,-3.12E-05,-5.15E-05,-0.000134033,-0.000117365,-5.29E-05,-6.53E-05,-5.23E-05,-1.42E-05,-6.39E-05,-0.000989894,-0.000634925,-1.52E-06
-1.10E-07,-4.25E-07,-2.06E-07,-8.57E-09,-5.35E-09,-9.12E-07,-3.20E-05,-7.74E-05,-0.000158946,-0.000103897,-7.85E-05,-0.001550284,-0.002997328,-0.001349248,-0.000108742,-0.000191326,-0.00038158,-0.000141207,-5.77E-06,-1.23E-05,-8.13E-06,-1.20E-06,-3.33E-05,-4.60E-05,-4.11E-09,-0.000159939,-5.53E-05,-3.37E-06,-0.000302914,-0.000550767,-0.000334435,-0.000294702,-0.000765323,-0.002053617,-0.003434501,-0.002102326,-0.000686761,-0.000928696,-0.001141866,-0.000333286,-8.63E-05,-4.94E-05,-2.42E-05,-1.49E-05,-5.62E-05,-3.93E-05,-1.92E-06,-2.98E-08,-1.53E-08,-0.000465228,-0.000181346,-0.000163059,-0.000395979,-0.002028994,-0.004080987,-0.004019097,-0.004106172,-0.00453332,-0.005956493,-0.008274497,-0.005998841,-0.007072332,-0.005723588,-0.002639706,-0.002182971,-0.000769336,-0.002799084,-0.001865763,-0.000136881,-9.83E-05,-3.26E-05,-1.49E-06,-1.24E-08,-2.13E-09,-3.15E-08,0.000174134,6.41E-05,-0.006005671,-0.006654798,-0.008643877,-0.009013446,-0.010877241,-0.01707781,-0.006829508,-0.002417495,-0.003030999,-0.004121196,-0.008704656,-0.013547495,-0.018216587,-0.016228467,-0.010928142,-0.008053175,0.00770127,-0.00168845,-0.001792347,-0.000415594,-7.64E-05,-6.62E-06,-4.50E-07,-3.11E-05,-0.000308864,-0.009275135,0.009117477,-0.00062254,-0.000884845,-0.000301486,0.004733205,-0.002206848,-0.001563615,-0.001187755,-9.24E-05,0.000306623,-0.002326881,-4.88E-05,-0.007188664,-0.001071932,-0.008472298,-0.007024773,-0.003498521,-0.01328036,-0.011828815,-0.00277668,-0.001324102,-0.000894344,-0.000125574,-5.58E-07,0.001532087,0.010245794,-0.002482416,-0.00177153,0.006019157,-0.004153505,0.005958082,-0.002785827,0.001743257,0.001522873,0.002657817,-0.002016897,0.000254036,-0.001024032,0.000367225,0.000829203,-0.000903802,0.000687863,-0.001857095,4.47E-06,0.00187392,-0.010152493,-0.003637282,-0.006370937,-0.004470259,-0.00082125,6.57E-07,0.001508301,-0.000973713,0.005989547,-0.000189859,-0.003437442,0.001139745,0.002577956,-0.002938121,0.003145024,0.001549359,0.000526722,0.00066808,0.002042082,-0.001887216,-0.000827172,0.000362511,0.001381314,0.00126303,-0.000309385,0.001687781,0.003092225,-0.000642175,0.000120054,0.001410937,-0.005954039,-0.004675571,-0.000428293,-0.000955228,0.005889965,0.000613391,0.002345425,-0.000405364,0.001641163,0.000393549,0.004921402,0.002377951,-6.63E-05,0.001120137,0.00244444,0.002194396,-0.00112201,0.000566852,0.001933675,0.000261107,-3.71E-05,0.001151916,0.000935466,0.001538807,-0.002875793,0.002116185,0.003135973,-0.003282536,-0.006832672,-0.00604,-0.000418226,0.00037363,0.006105885,0.001801296,0.001124226,0.006420532,-0.000886018,-1.71E-05,-0.001254559,0.001233487,0.001394886,-0.00088538,-0.000846563,0.005653663,-0.001255335,0.003628514,0.000176984,9.83E-05,0.003849664,0.001013252,0.000632052,-0.001184861,0.00344658,-0.001679813,0.000961553,-0.001788252,-0.003822583,-0.002591206,0.011484525,0.000444834,0.005082355,0.009303521,-0.004927748,0.001975807,0.003161653,0.001649666,0.001308344,-0.000984743,0.001389749,-5.51E-05,-0.000996903,-0.001951063,0.005646816,-0.000968724,0.002534348,0.004378074,5.01E-05,0.000863428,0.001529472,0.002031847,-0.000354711,0.00490169,-0.00184495,-0.000595361,0.003705462,-0.005222869,0.002840458,7.44E-05,0.003476184,0.016263804,-0.00169538,-0.000426004,0.002133951,-0.000832825,0.001288068,-0.003761472,0.000223447,0.002231781,0.001269044,-0.00203368,0.002323716,0.002129574,0.0016184,-0.000388299,0.000577001,0.001205724,0.000355067,0.002433455,-0.001207984,0.001322283,-5.62E-05,-0.002188735,-0.009563348,-0.005799799,0.000458803,2.90E-05,0.003167965,0.010742459,0.007125634,0.003179752,-0.000482397,-0.004710902,0.002646199,0.003968479,-0.001509513,-0.003467445,0.000219834,-0.002286373,-0.005379432,-0.002051575,0.002024257,0.002505866,0.001587239,0.001551656,-0.000283211,-0.001214935,-0.001494887,0.001553539,-0.006881691,-0.009942757,0.003902812,0.006883113,0.003747704,-3.56E-05,0.002069601,0.010099328,0.001445412,-0.002605315,0.001149589,0.004057313,-0.003217522,-0.003411637,-0.001396166,8.52E-05,0.000215533,-0.003691058,-0.004544359,-0.003880682,-0.000330183,-0.000154226,-4.58E-05,-0.001919216,-0.003701975,0.000785224,0.001583162,0.001862318,-0.005337557,0.005415527,-0.005750487,-0.004854894,-0.004054013,-6.48E-06,0.001517956,0.007936774,-0.002744252,0.001788206,0.001076627,-0.004777112,0.001341816,0.001823375,-0.000832982,-0.00101791,-0.002848677,-0.003391433,-0.002623472,-0.001541496,-0.001514986,0.000813793,-0.000469585,0.001073571,0.005656616,0.000988587,-0.000584864,-0.001610449,0.007744473,-0.007459334,0.000700448,-0.004683523,-5.01E-05,9.83E-06,-8.17E-07,-0.002124215,0.010238004,-0.00263031,-0.000787141,0.000493776,-0.002330154,-0.003045919,-0.00245273,-0.001079577,-0.001035794,-0.001220969,-0.003500064,-0.001710838,0.001017294,-0.00390969,0.003643373,0.001084995,-0.000869429,0.000896652,0.001713198,0.005900954,-0.000999328,0.000182027,-0.006660008,-0.002260392,-9.12E-05,6.83E-05,-0.000129135,-0.004180274,-0.007732353,0.000300648,-0.004061682,-0.000739574,0.003384879,-0.001930814,0.001285785,-0.00064703,-0.005952096,0.000430463,0.000278692,-0.0035795,0.001322592,0.000617038,0.000404646,0.000111933,0.001477701,0.001848152,0.002026474,-0.003880665,-0.000204451,0.000185708,-0.017743801,-0.004805134,-0.001074455,-6.64E-06,-0.002313132,-0.000256384,0.001810488,0.00016459,0.000705618,-0.002651976,-0.002180473,0.000945158,-0.005601769,0.000935467,0.000422582,-0.001882333,0.000325847,-7.76E-06,-0.001396502,0.000794942,0.001728526,-0.001644976,0.003384103,-0.004521734,0.001594846,-0.003426685,0.004459333,-0.000138509,0.000935359,-0.002867709,0.000978473,1.99E-07,-0.000501505,-0.002355937,-0.001829499,0.004812661,-0.006370266,0.00172143,-0.001083553,-0.001566666,-0.001862634,0.000577163,-0.002685782,0.002559519,-0.001558597,-0.001278174,-0.000430709,-0.003056621,0.001998123,-0.000606468,-0.004852539,0.003193678,0.00172258,-0.010812303,-0.00516061,0.001754231,0.006871309,-0.000139061,-3.43E-07,0.004532037,0.002625417,-0.00101508,0.014293034,-0.007142631,0.000827822,-0.00944044,0.000645027,-0.00043017,-0.005262686,0.001281095,0.001385233,-0.000667176,0.000909629,-0.001011838,-0.00162701,0.001603878,-0.006005177,0.001070225,0.003745687,-0.001893057,-0.00398963,-0.01161723,0.005093085,-0.003634464,-0.000572321,-1.26E-05,8.07E-06,-0.00027242,-0.006864428,-0.015531925,-0.003948125,-0.008199166,-0.005059154,0.001027665,-0.005443421,0.000596974,-0.001004722,0.001363248,-0.001697359,0.000393559,-0.000281987,-0.004036269,-0.004604274,-0.003265428,-0.002779279,-0.011652529,-0.000782549,-0.003503178,-0.003209289,0.00760954,0.001707165,-0.00032555,-1.39E-06,-3.96E-07,-3.54E-05,-0.002183281,-0.009773636,-0.005418113,0.002568192,-0.005522746,-0.005626321,0.001261812,-0.001414419,-0.000258378,0.000315302,-0.000518814,-0.000612264,-0.002596715,-0.001491576,0.000616541,-0.001201699,6.14E-05,-0.00725526,-0.001503735,-0.003977055,-0.0021838,-0.013018526,0.001515907,0.007164111,-0.000695738,-1.37E-09,-3.84E-07,-1.28E-06,-0.005850405,-0.019572816,-0.01482857,0.013736808,-0.009019933,0.005054343,0.000523799,0.000444993,-0.000196212,-0.003250411,0.001993906,-0.001136336,0.00061716,0.001783695,-0.000493462,-0.001048621,-0.002389872,0.007554249,-0.001329053,-0.000982619,-0.00172438,-0.012846888,0.000375075,0.003135174,-0.000278582,-2.53E-09,-0.006014873,-0.019074152,0.00388498,-0.003946032,-0.002593132,0.004369806,-0.00656604,-0.001240292,-0.001572379,-0.001600743,-0.001566959,-0.000854176,-0.002262082,-0.003459168,-0.000843477,-0.00149986,-0.000466466,-0.008747273,-0.005572724,-0.013400806,0.001028137,-0.013740079,0.001233036,0.000125227,-0.000260034,-0.004619028,-0.003119028,-0.002071818,0.007876167,0.005062022,3.07E-05,0.001547693,-0.001456925,4.29E-05,-0.001186341,-0.003373488,0.000623393,-3.47E-05,0.001573262,-0.001578498,0.001617926,-0.004796436,0.001397982,0.007072752,-0.003886182,-0.002615407,-0.011721815,-0.003423039,-0.001335542,-6.70E-07,-0.000616234,0.007430214,0.007100806,-0.006302277,-0.00035173,-0.00296534,0.000379665,0.001282618,-0.001839359,0.002263051,0.002413643,-0.000623616,0.000532172,0.000300007,-0.000624645,-8.02E-05,-0.000600959,-0.002792891,-0.003381305,0.003440722,0.004217952,-0.006995505,-0.000104246,-4.91E-05,-1.81E-08,-4.54E-05,-0.006740009,-0.010921841,-0.00205123,0.00297079,-0.001222608,0.001168365,0.000275453,-0.000298938,-0.00222134,0.000782609,-0.001074257,0.000839679,0.001063572,-0.000863006,0.002368777,0.003815912,-0.009134758,0.004736491,0.004623068,-0.008383911,-0.00013549,5.36E-06,6.01E-05,0.000277892,-0.000146735,-0.001412844,-0.000317719,-0.004055074,0.005583917,-0.000548143,-0.003393179,0.01173916,0.001874161,0.000251591,0.000400685,0.010101164,0.001290311,0.004901995,0.001586062,0.013006964,0.010406068,0.002872309
-2.23E-05,-4.92E-05,-4.16E-07,-1.73E-08,-1.02E-08,-3.82E-08,-1.24E-06,-5.10E-06,-3.89E-05,-0.000113529,-0.000379429,-0.00016736,-0.000158113,-0.00020822,-0.00021417,-0.000201526,-0.000405836,-0.000199797,-0.000104309,-0.000151635,-7.98E-05,-0.000132398,-0.000204319,-9.15E-05,-4.73E-08,-1.21E-07,-3.34E-05,-2.13E-05,-0.000138317,-0.000359059,-0.000604675,-0.001362613,-0.002189531,-0.002650047,-0.00415682,-0.004703199,-0.007163698,-0.007778854,-0.008021839,-0.007251381,-0.003080915,-0.004454592,-0.001697945,-0.000946408,-0.000842904,-0.000680032,-0.001281838,-0.00073004,-2.08E-06,-1.70E-06,-3.58E-05,-0.000489525,-0.000859519,-0.001600787,-0.002258914,-0.004071589,-0.004234931,-0.007680021,-0.005620802,0.001061499,-0.00715665,-0.003362121,-0.005231614,-0.008640979,-0.002859229,-0.006714769,-0.003325671,-0.003339416,0.000530699,0.004167945,0.001118023,-0.000383294,-9.41E-05,-7.68E-08,0.000227969,-6.56E-05,-0.000594408,-0.001581162,-0.004477715,-0.003802545,0.001591358,-0.00076012,-0.000183114,-0.00037969,-0.000739007,-0.000805601,0.00021829,-0.000859429,0.000290457,-0.002086171,-0.000585741,-0.001179136,-0.000864117,-0.001590962,-0.001141942,-0.005589732,0.004260037,0.003270679,0.001084854,5.51E-05,-6.61E-05,-0.001565413,-0.003403119,-0.004039016,-0.003422407,0.002367586,-0.003225665,-0.000479747,-0.001375231,-4.67E-05,-0.000138657,-0.000639167,0.000532605,0.000291716,-0.000204578,0.000754685,2.97E-05,-0.000541601,-0.00091133,-0.0014097,-0.0006336,-0.001839249,-0.003094928,-3.86E-05,-0.001691251,-0.000700457,-8.18E-06,-0.000432178,-0.004943827,-0.004323309,0.001191684,0.000907221,-0.002688191,0.000411583,-0.000970785,-0.001264783,-0.000106872,0.000455831,0.000293985,-0.001000742,0.000877426,-4.18E-05,0.000735519,-0.001594482,0.001071887,-0.001339418,0.001045318,-0.001086848,-8.41E-05,-0.002389288,0.00183788,-0.0015253,0.000419993,-2.64E-07,-0.000558314,-0.001640324,-0.004206089,0.000393169,-0.003692928,0.000112226,-0.001000478,0.001692778,7.13E-05,0.000439401,-0.000197696,-0.000693676,-0.000477041,-0.000949786,0.000902152,-0.000637092,-0.001136084,0.000767702,-0.001721413,0.001399923,6.17E-05,-0.000445216,0.002390523,-0.00096134,-0.004663499,-0.001747988,0.000218366,-5.58E-06,-0.000795778,-0.002326656,0.000373443,0.00260895,-0.000916028,0.000330599,0.002011534,-0.001639655,0.001400491,6.21E-05,-0.000230147,0.001101741,0.000480044,-0.00064952,-0.000723357,0.000939121,-0.001036349,-0.000695318,0.001436597,-0.000710938,0.000249245,0.002270181,-0.000345336,0.000356076,-0.004489368,0.002450141,0.000865024,-6.93E-05,-0.001478433,-0.003266683,-0.000560756,-0.00686281,0.00218986,0.000857777,0.00018536,0.001137274,0.000728543,0.000134778,0.000925692,-0.000514442,0.000117988,-0.000803469,-0.001991603,-0.000985762,0.000406468,-0.000458395,-0.000329947,0.000416257,0.001689377,0.000663834,0.000398552,-0.000481384,-0.001597926,0.003900253,-0.003893608,-8.25E-05,-0.001005477,-0.003101952,-0.006651634,0.009013763,-0.004355779,0.002584913,0.000731293,0.000990178,0.000359116,0.001887602,0.00033111,0.000975572,-0.00029323,-0.002228546,-0.00323598,-0.001502564,-0.000761647,0.000325312,0.001259679,-4.78E-05,0.001918869,0.001382471,0.004094117,-0.003671696,-0.005540442,-0.006953692,-0.001594131,-2.98E-05,-0.001162225,-0.003626477,-0.00645959,-0.004270549,0.000951461,0.000623328,0.002198183,0.002258882,0.001991718,0.00062917,0.001337223,0.001095105,0.001823098,0.000644029,-0.000424608,-0.000893827,-0.001188014,0.000159915,-0.000338896,-0.000389039,-0.001004602,0.001606211,-0.001091092,0.009611658,-0.006828504,0.002460528,-0.0005616,-1.47E-05,-0.000471574,-0.003163747,0.002347089,-0.002073959,0.00066833,0.001380666,0.000363622,-0.001682123,-0.000672632,-0.000372122,-0.001437816,0.000782674,0.001025253,-0.00050783,0.000517827,0.000753611,0.000266081,0.000116745,0.002282341,0.001241159,0.003400466,0.000450503,0.002089856,0.003725509,-0.00275337,-0.0009277,-0.002006085,-9.07E-06,-0.000101038,-0.001291742,0.000795313,-0.000992414,0.000736184,-2.46E-05,0.00076214,0.00061015,0.001010538,-0.002226093,-0.000258128,0.002726477,0.001803465,-0.002863427,0.001610114,0.000782563,-0.001366667,0.000170822,-0.000341336,0.001010251,-0.001987321,0.001874202,0.002066458,-0.00229008,0.001962864,-0.000259832,-0.00239585,-0.000146809,-4.71E-05,-0.000268936,-0.002356538,-0.006650786,0.001408081,-0.002996774,-0.003501364,-0.003663815,-0.002707662,-0.001709935,0.002643549,0.0011695,-0.000121124,-0.000376535,-0.0004172,0.00122174,-0.000332218,-0.001064314,-0.001843197,-0.001577911,0.00072327,-0.006597545,-0.004225816,-0.006493147,0.002720419,-0.003190891,-0.000458213,-5.91E-05,-4.61E-05,-0.000469712,-0.002642505,-0.003305017,-0.008306053,-0.006260686,-0.002309076,-0.001739616,0.000137917,-0.000532225,0.000559172,0.000931571,0.001061153,-0.000808086,0.000394428,0.000300793,-0.002493039,-0.000767898,-0.000205867,-0.002087388,-0.002864032,0.002653425,-0.006425337,-0.00368533,-0.002085957,-0.003090261,-0.000366962,-6.31E-05,-5.44E-05,-0.001111052,7.73E-05,-0.002422439,-0.000987619,0.001594893,-0.000595373,-0.001029812,-0.000580115,0.00083671,0.000195605,0.001143607,-2.25E-05,-0.001974313,0.00069158,-0.000187527,-0.000610873,-0.001765231,-0.002529568,-0.001385697,-0.001047892,-0.006518614,0.005533741,-0.002035742,-0.00972351,-0.003548918,-0.000232516,-0.000231624,-0.000364144,-0.001404022,-0.000980133,-0.003362457,-0.002446257,0.001487312,0.001144538,0.002198281,-0.000801842,0.000660715,0.002656228,-8.42E-05,0.000119645,-0.000998763,-7.78E-05,-0.001322498,-0.0013203,-0.000204017,-0.000528516,-7.63E-05,0.001222857,-0.001223662,0.00697829,-0.016846191,-0.003922052,-0.000276571,-4.81E-05,-4.44E-05,-0.000601667,-0.004791296,-0.002144521,-0.002787855,1.18E-05,3.81E-05,7.94E-05,0.000572612,0.001758645,0.001619025,0.000551334,-0.000467901,-0.001342362,-0.000482344,-0.001772653,-0.00048199,-0.000177476,-8.18E-05,-0.000627891,-0.000591237,0.002330255,-0.005500928,-0.002668938,-0.011870731,-0.001907788,-0.000186162,-1.75E-05,-0.000185364,-0.000621337,-0.00403813,-0.001025494,0.000375373,-0.001061988,-0.001454468,0.001027489,0.002152417,0.000793349,3.48E-05,-0.000149522,-0.002227273,-0.001914296,-0.000764543,0.000617513,0.000386599,-0.000464026,-0.00038943,0.001447647,-0.003571847,0.001176588,0.003822979,-0.004091211,-0.012214223,-0.001921009,-7.58E-05,-9.46E-05,-0.000582213,-0.004834166,-0.002622291,-0.002117328,-0.00096273,0.002920945,-0.000905235,-0.00223083,-4.54E-05,-0.001623288,0.000922176,-0.000772597,-0.001467731,0.000409618,-0.001187471,-0.001377832,0.000219575,-0.00065008,-0.000957108,0.002843287,-0.00068482,0.000443199,-0.004431033,-0.008019159,-0.0016825,-0.000223526,-6.67E-06,-3.50E-05,-0.001593867,-0.006161169,-0.003357187,0.000775629,-3.18E-06,-0.000776845,-0.000155724,0.000831985,-0.000543474,-0.000619455,-0.00045935,0.000691449,-0.000197085,-0.001107385,0.000252778,0.00020617,-0.000274485,0.00083816,0.001516908,-0.001769777,0.003551707,-0.0011327,-0.009039757,-0.004932778,-0.001025401,-7.53E-06,-6.46E-06,-2.95E-06,-0.001451767,-0.001317683,-0.000482594,0.000711695,0.001198739,0.000809326,-0.000980039,-0.001293858,-8.76E-07,0.000302043,0.000841441,0.000394932,0.001133774,-0.000610144,-0.001285195,-0.000803137,0.000299472,-0.001866502,-0.000143149,0.000598776,-0.000318256,-0.002918194,-0.005401257,-0.002391116,-0.000518898,-1.39E-05,-0.000179087,-0.000397362,-0.001671066,-0.00383917,-0.002572605,-0.00298402,3.14E-06,-0.000466376,0.000175875,-0.000194787,0.000343765,0.001651666,-0.000468867,0.001327018,0.00103541,-0.000117194,0.000958257,-0.000491073,-0.001751787,0.001932116,-0.000614959,0.0010038,-0.002965129,-0.00152151,-0.001429905,-1.29E-05,-0.001654764,-0.008829826,-0.007123918,-0.000394247,9.71E-05,-0.000273539,0.000758443,-0.00077417,0.000381228,-0.000730413,0.000292511,0.000563587,-0.00107833,0.001902463,-0.001816731,0.000700381,0.004230766,-0.000495088,-0.000138196,-0.004273882,-0.001970519,-0.005202327,-0.003262966,-0.001208988,-2.75E-05,-0.000795766,-0.004184601,-0.007484092,-0.001677441,-0.005989271,-0.002321434,-0.004695866,-0.001958688,-0.002335979,-0.002801319,-0.003083265,-0.001631953,-0.000250434,-0.003791711,0.000769104,-0.004370699,-0.00268165,-0.001031969,-0.009131812,-0.003920874,-0.002639063,-0.000767171,-0.001031807,-0.001207888,-1.51E-05,-0.002206011,-0.004064759,-0.006838132,-0.006119564,-0.006281582,-0.007794072,-0.009351113,-0.006863955,-0.006946891,-0.008564054,-0.010462587,-0.015798031,-0.013057072,-0.009342884,-0.00813557,-0.008155306,-0.005521495,-0.0038848,-0.000939773,-0.000144316,-2.88E-06,-1.59E-06,-8.23E-05,-0.000245518,-0.000444965,-0.000757799,-0.000847754,-0.000901239,-0.002981913,-0.001845597,-0.002342879,-0.00206973,-0.00257749,-0.001934921,-0.001438718,-0.00149835,-0.001703287,-0.000838605,-0.0005415,-0.000465445,-0.000364132,-3.20E-05
-0.000235657,-0.000516932,-1.03E-06,-4.29E-08,-4.14E-08,-1.50E-07,-6.23E-06,-1.45E-05,-0.000102535,-0.00024278,-0.000263235,-0.000476162,-0.001158841,-0.000762393,-0.000247604,-0.001337091,-0.003039187,-0.001443452,-0.000327842,-0.000302304,-0.001293271,-0.002685271,-0.003284157,-0.000361792,-4.70E-07,-2.27E-05,-8.74E-06,-9.69E-07,-2.00E-05,-0.000143795,-0.000222999,-0.000473238,-0.001042958,-0.001951459,-0.00295947,-0.002424124,-0.002766005,-0.002762099,-0.003078525,-0.003319056,-0.001801883,-0.0023287,-0.001983554,-0.001447585,-0.004113234,-0.001606302,-4.46E-06,-1.07E-06,-1.08E-06,-6.64E-05,-0.000142022,-0.000868555,-0.001118089,-0.00056804,-0.000571438,-0.001858485,-0.002679979,-0.004463204,-0.00710974,-0.006243848,-0.007803683,-0.008374584,-0.006354451,-0.006076955,-0.003802425,-0.004334285,-0.003592521,-0.004163912,-0.001625134,-0.000414945,-4.31E-05,-9.96E-06,-9.90E-08,-7.56E-09,-2.09E-06,-1.72E-05,-7.28E-05,-0.000738064,-0.000572377,-0.003593561,-0.004682984,-0.006757172,-0.006343803,-0.004123485,-0.004250066,-0.004268918,-0.005852145,-0.006075981,-0.005809487,-0.006011779,-0.003620201,-0.008676074,-0.007431076,-0.009257824,-0.005564305,-0.002347783,-0.00077827,-0.000155619,-5.58E-05,-5.55E-06,-2.72E-06,-0.000176312,-0.00031161,-0.002308415,-0.006461678,-0.008304536,-0.002624606,-0.003946791,-0.004677679,0.002362077,-0.002596698,0.000889214,-0.003803329,-0.000279712,-0.005397197,-0.002725605,-0.003847572,-0.003146473,-0.004016635,-0.004255691,-0.008643767,-0.011892904,-0.005854917,-0.001498859,-0.00021189,-1.58E-06,-8.92E-05,-0.000296213,-0.000797872,-0.002453745,-0.009471379,-0.005063152,-0.005774393,-0.002713383,0.00051563,-0.001370401,0.000354167,0.001453747,0.001268601,0.002727182,0.000162468,0.002998401,0.001332927,0.001738164,-0.000125085,0.001251147,-0.000834664,-0.001841756,-0.005333584,-0.006143924,-0.003034019,-0.001537443,-0.000247375,-4.24E-07,-0.002125493,-0.000765172,-0.001812341,-0.006133998,-0.013374429,-0.000586438,-0.001769115,-0.000744122,-0.001517041,-0.000261667,-0.000445006,0.001068397,0.001476913,0.002326424,0.00263932,0.002614996,0.000265303,-5.44E-05,-0.000660896,-0.000241886,-0.000453098,-0.002252908,-0.000472243,-0.007590033,-0.008412771,-0.002999938,-0.000538416,-0.000334305,-0.001058046,-0.002015199,-0.006751185,-0.000139633,0.005620383,-0.002587002,-0.003014584,0.0007035,-0.001532606,-0.000400981,-0.001660509,-0.001153586,0.001376124,0.001198454,0.000773482,0.000912384,-0.000292002,1.42E-05,-0.000112528,-0.001134266,0.001200177,-0.000292148,-0.000928308,0.000785988,-0.006041214,-0.003116063,-0.000477266,-0.000266655,-0.000894084,-0.002478805,-0.003212479,-0.006980223,-0.002956877,0.002483453,-0.000533213,-0.000981015,-0.000126986,0.000242585,-7.49E-05,-0.000293818,0.000187794,0.000641632,0.001582108,-0.00147392,-0.000263913,-0.000324801,-0.001450072,0.0006849,-0.001470585,-0.000684367,-0.004021676,-0.001474158,-0.008128716,-0.003736828,-0.001548728,-0.000325351,-0.000887264,-0.005190269,-0.000486909,0.001997366,-0.000923867,0.00085917,-0.000654933,0.000715061,-0.001041358,0.000258119,0.000165396,-0.001149266,-0.001185135,0.000789969,-0.001605146,-0.000304278,-0.001445397,-0.000438554,0.000624545,-0.001482116,-0.000925944,0.000362253,0.001269428,-0.004540099,-0.000902177,-0.006057324,-0.00268069,-0.000111374,-0.002640636,-0.006648244,-0.003113397,-0.002592131,0.001379132,-0.000649749,0.001686099,0.002522567,0.001029545,0.001064391,0.001219785,-0.000291176,-0.000375909,-0.003309794,0.000352296,0.000343809,0.001272857,0.000523287,-0.000414817,0.002863615,0.001551115,0.000413685,-0.005969049,-0.001643283,-0.009226523,-0.005373096,-0.000303904,-8.70E-05,-0.002136418,-0.00620817,-0.003799225,4.75E-05,0.000646979,0.002436433,-0.000603968,-0.000142871,0.000587258,0.000617508,-0.00018123,-0.000115143,0.000633089,0.000799401,0.001806353,-0.000573741,0.000875215,0.001028989,0.002106658,0.00099271,0.00133026,0.002948017,0.008576502,-0.009638126,-0.014272246,-0.004581173,-0.00051803,-8.62E-05,-0.001048332,-0.004421762,-0.001754822,0.001666538,0.002356169,-6.79E-05,0.001787321,0.001477495,0.001127262,0.000355822,0.000572459,0.000719041,-0.000222956,8.56E-05,0.001237571,0.001769452,6.96E-05,0.001312439,0.001792784,0.000810208,0.001188347,-0.00084559,-0.002991314,-0.005201513,-0.00823836,-0.002143917,-0.000156761,-0.001656041,-0.000255771,-0.002455389,0.003330029,-0.000475502,-0.001588402,0.001820118,-0.000173114,-0.00060625,0.0005953,0.000196734,0.000586065,0.001478414,-0.000576762,-0.00021593,0.000769352,7.72E-05,0.000393902,-0.000527836,-0.001531503,0.000554207,0.000490466,0.000469362,-0.003769736,-0.009552267,-0.002320789,-0.00113579,-8.43E-06,-0.000543386,-3.78E-07,-0.005269124,-0.003685124,-0.000324593,0.00024469,-0.001316477,-0.000341928,0.000721471,-0.00066077,0.000435199,0.000619223,0.001276818,-0.000582273,-0.002074439,0.00043404,0.000825188,-8.76E-05,-0.000477529,0.000335263,-0.001090659,5.42E-05,-0.00133782,0.000184624,-0.010847205,-0.005044453,-0.000736457,-0.00035669,-6.53E-06,-1.66E-05,-0.002291027,-0.000961817,0.003905875,-0.000105703,-0.001296979,-0.00100097,0.000911117,-0.000540197,0.001885961,0.000944515,0.00087148,-0.001751553,-0.000465058,-0.001598151,0.000348483,-0.000529513,0.000297034,-0.001717531,0.000471448,-0.004855746,0.001656058,-0.000208789,-0.009319465,-0.008036973,-0.002451659,-0.0003252,-5.14E-05,-0.002467921,0.000587877,-0.004274317,-0.000245915,-0.000338695,0.001410483,0.000438463,0.00040006,0.000328072,0.0003849,0.000723044,-0.000203207,-0.001899417,0.000476663,-0.000870576,-0.000475597,-0.000138534,-0.000555681,0.000173375,0.000377765,-0.00144267,-0.00204341,-0.009896614,-0.003212152,-0.002387936,-0.001620645,0.00036273,-1.33E-05,-0.003447121,-0.003927782,0.000485976,-0.007918216,0.001573061,-0.000350548,-0.001732656,-0.000481919,0.002177233,0.001163596,-0.001432117,-0.001682057,0.000759393,0.000204698,-0.000542622,0.000132569,-0.001510755,-0.000108719,-0.000740756,-0.00016104,-0.000196123,-0.004201539,-0.008352645,-0.004385877,-0.001277222,-0.000215004,-2.29E-07,-0.001386296,-0.003364199,-0.002129702,-0.006724931,0.001000713,-0.000936009,0.002514878,0.000151185,-0.001162587,-0.000174322,-0.000165625,0.001272841,-0.000739707,-0.001731336,-0.001678352,0.000439199,-0.000846836,-0.000583971,-0.001215943,0.001205335,0.000436991,0.00025958,-0.002768523,-0.007958552,-0.004136922,-0.001250565,-1.36E-05,-0.001496804,-0.00199419,-0.003433154,-0.002973673,0.002829661,-0.001269249,-0.005760766,-0.00028833,-0.004871449,-0.003723779,-0.001747592,-0.002492901,-0.001340807,-0.00130206,-0.002027933,-0.001878493,-0.000680427,0.001398609,0.000860048,-0.003550429,-0.004907627,-0.003518162,-0.002832348,0.000209782,0.005085856,-0.001710934,-1.73E-06,-1.09E-07,-0.000111093,-0.001100215,-0.005569448,-0.000327588,0.000738368,-0.000925256,-0.000307183,-0.001293205,0.000758891,-0.00110005,-0.002974896,-0.001162637,-0.001020029,-0.001212131,-0.000357062,-0.001232075,-0.002903561,-0.005252489,0.000714448,0.001499534,0.002764794,-0.005505236,-0.00060687,0.00678567,0.004137402,-0.002126042,-5.67E-09,-1.06E-07,-1.20E-06,-0.001318408,-0.002287608,0.002110391,-0.004197231,-0.005069641,-0.00095337,1.18E-05,-0.000698796,0.001956694,0.000472251,0.000669968,-1.87E-05,-0.000140811,-0.002461809,-0.000134724,-0.000850381,0.002994585,-0.006310425,-0.000441765,-0.002618675,0.001210539,0.000276126,0.00175163,0.001713618,-0.000424741,-1.05E-08,-0.000815385,-0.000691925,-0.00511687,-0.002919093,0.001776732,-0.003864835,0.002481098,-0.002499959,-0.001136019,-0.001240181,-0.000780063,-0.001312425,-4.61E-05,-0.000894335,-0.001291789,-0.001243146,-0.00276206,0.001496384,-0.000693486,-0.000164957,0.008177453,0.001546605,0.003577749,0.00126651,-0.001276617,-0.000350572,-0.002372896,-0.000470364,0.003135606,-0.001356502,0.001869611,-0.001657013,-0.000134622,-0.001044824,-0.001836198,-0.001717825,-0.002628983,-0.002779583,-0.001087095,-0.001141672,6.39E-06,-0.001016628,0.000207932,0.000261542,-0.000725475,0.001194299,0.00429158,-0.007328112,-0.002244122,-0.002140431,0.000377165,-0.001853651,-0.004806261,0.003757751,-0.002420283,-0.003431608,-1.53E-05,-0.00175933,0.000257969,-0.000677419,0.000627579,0.000730927,8.76E-06,5.29E-05,0.000525629,0.001501479,0.001710017,0.000352582,0.006663564,0.005030369,-0.001614252,7.64E-05,-0.004043159,-0.000395279,-0.002270561,0.000133471,0.004176311,0.000668695,0.003365567,0.001812917,0.001173179,0.000786002,0.000965101,-0.000820587,0.002141732,-0.001177226,0.004251901,-0.001799427,0.003042663,-0.001980008,0.005760502,-0.002357392,0.004967887,-0.003665403,-0.00023584,0.001802314,0.000237289,-1.95E-05,-0.000122508,-0.002218046,-0.002607497,-0.001002847,-0.002523558,-0.002179916,-0.002729653,-0.004044883,-0.000437436,-0.008210793,-0.001188718,-0.004629853,-0.002548748,-0.007428229,-0.005382586,-0.002464718,0.000621669,-0.001981045,-0.001150689,-0.000470695