0,1,2,3,4,5,6,7,8,9,10,11,12,13,14,15,16,17,18,19,20,21,22,23,24,25,26,27,28,29,30,31,32,33,34,35,36,37,38,39,40,41,42,43,44,45,46,47,48,49,50,51,52,53,54,55,56,57,58,59,60,61,62,63,64,65,66,67,68,69,70,71,72,73,74,75,76,77,78,79,80,81,82,83,84,85,86,87,88,89,90,91,92,93,94,95,96,97,98,99,100,101,102,103,104,105,106,107,108,109,110,111,112,113,114,115,116,117,118,119,120,121,122,123,124,125,126,127,128,129,130,131,132,133,134,135,136,137,138,139,140,141,142,143,144,145,146,147,148,149,150,151,152,153,154,155,156,157,158,159,160,161,162,163,164,165,166,167,168,169,170,171,172,173,174,175,176,177,178,179,180,181,182,183,184,185,186,187,188,189,190,191,192,193,194,195,196,197,198,199,200,201,202,203,204,205,206,207,208,209,210,211,212,213,214,215,216,217,218,219,220,221,222,223,224,225,226,227,228,229,230,231,232,233,234,235,236,237,238,239,240,241,242,243,244,245,246,247,248,249,250,251,252,253,254,255,256,257,258,259,260,261,262,263,264,265,266,267,268,269,270,271,272,273,274,275,276,277,278,279,280,281,282,283,284,285,286,287,288,289,290,291,292,293,294,295,296,297,298,299,300,301,302,303,304,305,306,307,308,309,310,311,312,313,314,315,316,317,318,319,320,321,322,323,324,325,326,327,328,329,330,331,332,333,334,335,336,337,338,339,340,341,342,343,344,345,346,347,348,349,350,351,352,353,354,355,356,357,358,359,360,361,362,363,364,365,366,367,368,369,370,371,372,373,374,375,376,377,378,379,380,381,382,383,384,385,386,387,388,389,390,391,392,393,394,395,396,397,398,399,400,401,402,403,404,405,406,407,408,409,410,411,412,413,414,415,416,417,418,419,420,421,422,423,424,425,426,427,428,429,430,431,432,433,434,435,436,437,438,439,440,441,442,443,444,445,446,447,448,449,450,451,452,453,454,455,456,457,458,459,460,461,462,463,464,465,466,467,468,469,470,471,472,473,474,475,476,477,478,479,480,481,482,483,484,485,486,487,488,489,490,491,492,493,494,495,496,497,498,499,500,501,502,503,504,505,506,507,508,509,510,511,512,513,514,515,516,517,518,519,520,521,522,523,524,525,526,527,528,529,530,531,532,533,534,535,536,537,538,539,540,541,542,543,544,545,546,547,548,549,550,551,552,553,554,555,556,557,558,559,560,561,562,563,564,565,566,567,568,569,570,571,572,573,574,575,576,577,578,579,580,581,582,583,584,585,586,587,588,589,590,591,592,593,594,595,596,597,598,599,600,601,602,603,604,605,606,607,608,609,610,611,612,613,614,615,616,617,618,619,620,621,622,623,624,625,626,627,628,629,630,631,632,633,634,635,636,637,638,639,640,641,642,643,644,645,646,647,648,649,650,651,652,653,654,655,656,657,658,659,660,661,662,663,664,665,666,667,668,669,670,671,672,673,674,675,676,677,678,679,680,681,682,683,684,685,686,687,688,689,690,691,692,693,694,695,696,697,698,699,700,701,702,703,704,705,706,707,708,709,710,711,712,713,714,715,716
-5.144477182585832e-07,-7.823120714667926e-06,-7.452098641507202e-06,-3.1050411006278316e-07,6.377750977154277e-09,-1.425272544167509e-08,-9.36083490256091e-07,-2.661355675155938e-06,-1.0156778475378308e-05,-6.40213628026535e-05,-0.00025722577576791055,0.005618392319441969,0.011684962980775235,0.005003164184976077,-0.0007335053087581299,0.009743323629655376,0.024686536540238727,0.011271256851475496,-0.0002399586561500606,-9.700829220443833e-05,-9.58261115744408e-05,-2.0253758437112722e-05,-1.6884529814922854e-06,-1.9046324838728694e-07,-1.7484192087131908e-08,-2.5862444622061175e-05,1.76982770741831e-05,-0.0001191395309620999,-0.001460812674551184,-0.002335639211151344,-0.00406587297122248,-0.008419496227214537,-0.008552682958582513,-0.00876162838898586,-0.011399464813645479,-0.00908374982143277,-0.01681490317180915,-0.018174648605301765,-0.010540119144249125,-0.01646308969487397,-0.012816072558123004,-0.011862324763456453,-0.013926573543831056,-0.007008843088389185,-0.0028580342941623197,-0.001331184819760252,-0.0005873921473509333,-5.290040461549753e-06,-4.594215196054407e-08,-0.00048184533602244664,-0.0005872703453879558,-0.0014196997551743805,-0.006085598933116963,-0.012394928068917179,-0.0030274014833836325,-0.010803552391159951,-0.01869689077183704,0.002948384217378145,-0.009320264562426026,0.004678289878022316,-0.005452550779017329,-0.002092408899806621,-0.003984901922266674,-0.0014927140965388767,-0.005089679438852352,-0.005980912387133578,0.0003270759060006796,-0.008247492008427856,-0.005648161210413422,-0.0016341820862164516,-0.001595167691459607,-0.004678686862997847,-0.0012742392159665317,-2.961894535509687e-09,-2.1073241977696977e-05,-0.0002722971082535427,-0.0013658746490169342,-0.008608779186584948,-0.006927127702611862,-0.0036530646819388822,-0.0016540235601264334,0.00627432311876438,-0.004305751900324982,0.0019016595700382232,-0.002855362283294766,0.002438555402827004,-0.003930470249365768,0.0038556183944956014,-0.0045107033155019835,0.002006125330211893,-0.00023169961758174196,0.0004838923805760006,-0.0008382340718611458,-0.00023022175366413047,0.00044486417615152246,-0.003011592293029046,-0.002776248723879508,-5.53056352744843e-05,-0.0008901442027608774,-2.943600359215185e-05,-0.0006996738174654399,-0.0008496336308404331,-0.004405494879408044,-0.009750226345154243,0.014976656716321191,-0.003542644175858856,-0.001814366343424592,-0.00113400259484678,0.005182066139901506,-0.0007885050024226978,-0.0026647151588456283,0.002629207489175007,-0.002305663118283394,0.0017001293996574047,-0.0003423240902162516,-0.0006743119081164498,0.000756966578927616,-0.0018336572622169938,0.0002773583954908112,-0.002268103470575914,-0.002017774433385966,-0.002975358050903942,-0.0009918639677482899,-0.013372919275021008,-0.003189550882314946,-0.0017856364163391092,-1.0363634010500644e-05,-0.0009573793372273383,-0.0006587921828878913,-0.0076529025831122074,-0.001801902105586908,-0.00605691852153328,-0.0029314792869174753,0.004632692595653064,-0.008370254741112405,0.0009535469240937205,-0.0023080443234686247,-0.0014088326879196532,0.0025163002896204855,0.0005352327640716293,0.00018351703352481268,-0.00028688372651582237,0.0004952825387660318,0.0009524516789371484,0.0008303507054068884,-0.000600962344711107,0.003618843484217204,0.002717639103061063,0.00029679422627679734,-0.00904668580868979,-0.021554418893351662,-0.015463837866982529,-0.005665304746839601,-9.356489502192345e-09,-0.0006468663987726484,-0.0003784319378014277,-0.0009954950075395904,-0.0006623911685027125,0.0029414821165098183,0.004522810392418496,-0.000767596711433087,-0.004861860093015846,0.002293555514389773,0.0005682035956797247,0.0028190981515469737,-0.0023382984732841154,0.0014368131217637136,0.001412089396355267,-0.0007209862557127777,-0.0013488583277618002,0.004180081516543041,-0.0007094327820353672,0.0028218957453986235,-0.0011413266195314767,-0.0014747246275624525,-0.0028140112657016655,0.0007606858840874003,-0.003487183381406821,-0.0042559755003137995,-0.009880371519303656,-0.0004543389665274517,0.003964061385336873,-0.0003015922791270226,0.0002302094604502508,0.001237367047454747,-0.005013261358722419,-0.0069476868651481075,-8.165574319938596e-05,0.0018496887543391172,-0.0012917703961915089,0.002042834372191243,-0.002990279732707764,-0.0008300534412304769,0.003682295867193226,-0.0036766535078898107,0.002358138622154579,0.0006869718111639468,0.004739043722418232,0.00046122953111139506,0.001983996049730598,-0.0009592717385416077,0.0014011741446184037,0.0015571864385945746,0.00283892765138397,9.542208718939883e-05,-0.005969739249049167,-0.021025924976385862,-0.008682844201691298,-0.0004967958505125361,-9.542955768801819e-05,-0.0005586735544141388,0.0016642426925707926,-0.008564302282207495,-0.007888737485535174,0.002722627537900986,-0.0022280128842216557,0.0002651564683414153,3.226648181261692e-05,-0.0011128346328165171,0.003497809664065911,-0.0023021278618288476,-0.002759213221593673,0.0046329378540236055,6.331006812050963e-05,-0.002453109797235857,0.0008807767466362365,0.0015035250327151376,-0.0006278904288117515,0.0032512418307957523,0.0017223521642920918,-0.0009054433739216468,-0.004654276402578125,0.002160762887380125,-0.0026968578471069115,-0.013064581724226369,-0.018100806140572908,-0.0001563724423132188,-0.00011157247469881123,-0.00027359095672115053,0.011317996918075187,-0.010087977223496665,0.005955914127845685,0.0027798121378293196,0.0020458588690770003,0.0010372328083637086,-0.0013952220840136751,0.001796817427487517,-0.002188082977303788,0.00313481896771985,-4.1685930832505365e-05,-0.0017992536335547143,0.0011941099876540224,0.0020679127839851254,0.0006128637762452406,0.002122926069573894,0.003984242790608846,-0.002958774644107109,0.0005318958084766669,0.0009687837196713202,0.005754267898574705,0.0015416001557621622,-0.0005696239213079879,-0.007724043970626074,-0.016765768443610427,-1.5905007922771273e-05,-2.1610805384858337e-05,0.0021829917083056346,-0.004037967518265045,0.006882455311427558,-0.007908142155349216,-0.005994169487663655,0.0014052818829567147,-0.00043985998983370504,0.0009505212821940877,-0.002497598676204958,-0.0010065661113922368,0.0015428131335208295,-0.0041511214263405425,0.001549213161835902,-0.0038523578687538924,-0.00267706791856195,-0.0021347116955796226,0.0011516090272753264,-0.0032646620054314936,0.0034015275773452117,0.00026727910994392277,0.0005253185631676923,-0.001880681857978264,0.004021691390656985,-0.002128330477298934,-0.01224558393481742,-0.011848294276669896,-0.0001119439045835133,-5.053942680899288e-07,-0.00011379329761805887,-0.001919713217967874,0.0030041406471905444,-0.016088860588683685,0.005247520855318834,-0.0025471712919097837,-0.0005106054377437501,-0.0011400598559049716,0.0007894659977140568,-0.0020055795319974066,0.0002742176721514639,0.0020452062361100546,0.0005906358008343851,-0.003628574481484749,-0.003602688897161541,-0.002333784748421913,0.0009608462423972127,-0.0012033065885127512,0.0005603686412123675,0.0019930630821303214,0.002805777019464304,0.0014795939977763255,-0.005168208788903754,0.005022040455017215,-0.00933237461944653,-0.012458397460534197,-0.00024742027293045665,-2.4428946837925456e-08,8.81484562439708e-06,-0.0005222366359950122,-8.109018524032855e-05,0.015288470179860942,-0.006692903306458422,0.007439831143256816,0.00014909821754934672,0.003414648591536918,-0.0003593035593892489,0.003415759316823546,-0.001126962259699749,-0.0006467595123350505,-0.006423052711553055,0.001200537333590605,-0.006100367435895518,-0.002023223181316906,-0.001596937428395155,0.0007337141575123018,-0.00028564737200280295,-0.004411904431572844,-0.002308173596923404,0.0039285728762723906,0.003622140137885626,-0.0001891117457591277,0.0037730433231245963,-0.006599135750947148,-0.0012403559072798299,-5.2540575279061906e-06,-3.725302754401806e-05,-0.00229065370911224,-0.01634398816794783,-0.01211868648938192,0.006453999543216248,-0.0006768909378333071,0.004099863963956525,-0.001461028044916142,0.001617278203514731,-0.0029085699732426767,0.0009592154042835463,0.0026754210609211287,0.00048754088973808227,-0.009904591132290235,0.00023571208021552675,-0.004695058224950042,0.0011801812344246082,-0.0011591932533732315,-0.0006361468987414609,0.0021488718658656102,0.0029068661665086646,-0.002981207904409581,0.0017849473226803597,-0.0041462949400572794,0.00433128192263747,-0.006181767620466042,-0.00018498496310658002,-3.3025460981434504e-06,-6.726259875744441e-07,-0.002675657093884588,-0.010305264522009777,0.007215310038254683,-0.0016904270248716453,-0.0030632842486864095,0.003202741071234019,0.0025170885462863332,0.003013536815872866,0.0033909375167769686,-0.0039058456068763315,0.001851089576604437,-0.003978150885800954,-0.005655850749533224,-0.001556188560928028,-0.004083369496097469,-0.001488067443389632,-0.000800153405264747,-0.0013026418912761347,0.0009421108490355962,-0.0013619369100718959,0.0036991231998484146,-0.0002807239493476023,0.006465380984500349,-0.0020380738437379073,-0.00977560637691946,-0.0005563133617661257,-9.041091305065729e-06,-1.983698400109792e-06,-0.00029852917117868403,-0.009592591890767858,-0.0021232841945892297,0.004208573835281912,-0.0009017236627541082,0.0024945906980201136,0.0002716543849373218,0.0018501417786503333,-0.00022907161821956011,0.004828856540038419,-0.003058120642700748,-0.0077542419876853175,-0.006121102383601684,0.00039778085572113916,-0.002490315239008247,0.0006983434346446716,-0.002339703073362199,0.0007048530237909928,-0.00020543425760281066,0.0027316539497632517,-0.005377903214430983,-0.0002434224675994474,-0.004907260976556807,-0.009258481764134524,-0.018805487893418512,-1.703806387365792e-05,-2.271707413595952e-05,-0.0008810856947364941,-0.0017746315114583041,-0.0001265748316948488,-0.0005635330730815694,0.0028423193156208604,0.0006767963335728599,-0.0008564614245630464,0.0005949269036452546,0.0021985487872998384,-0.004242694951875761,0.0029875472530836587,-0.0044706943344747455,-0.0027617393371899756,-0.0019698762196422043,-0.0015881020361260512,0.0007081065049427939,-0.00036041203238073455,-0.0010294116008073605,0.002308994723052194,-0.00433151977754501,0.00782653563059642,-0.0006759256600542287,0.00115693692390229,0.00020816507020525332,-0.006303787471255799,0.008820873902779143,-0.0001834381679430481,-5.234271794607077e-06,-0.0012759070908237656,-0.008887005978998542,0.0010940591566996774,-0.0017502371422323873,-0.0013527682733441436,-0.0009506574995678654,0.0026183928837520696,0.0021918283176786957,0.00122077301515567,0.0016725589915049166,-0.002699550856258712,-0.005002767406969752,-0.00287598122687896,-0.0006976859918278358,-0.0022500885140429873,-0.001008252423465091,4.6841085430991716e-05,-0.0003675170246638641,-0.003042573229986035,0.0011211882492064014,-0.00419829128902476,-0.0003717896938204352,-0.0007412954261675412,-0.003517855242102023,-0.0077060190083425625,-0.004726761028835433,-9.22598968249004e-09,0.00126474140184656,-0.00059813915674042,-0.011430365609749844,-0.006150550285068913,-0.001806067710138167,0.001956256091333957,0.0006153446536663569,0.0017141292436371012,-0.0014446417395220222,0.0012381481795996473,-0.0005395772369640034,0.004393316845470934,-0.0028831593503540302,-0.0003188559711205405,-0.0030254725313238673,0.0009135921760772574,-0.000980209183611938,-0.00024855044937100395,-0.0036676564621411878,0.0021454547594445574,-0.0008555669840003055,0.0035065936039118772,-0.0035665621435963,-0.001387207608519896,-0.009093581572558308,-0.0031666351230121583,-0.0006482607687191924,0.003213156161267212,-0.003355995448731947,-0.0038294736935523344,0.007741855668847218,0.001739595737260155,-0.0020548432422682695,0.0003431083378784049,0.0007558556759077691,-0.0015077376652826433,0.0015647343999469136,0.00205303064196914,0.0009167669708412758,0.0007963122444263869,-0.0027759473869186555,0.0023701666299605745,-0.005182376451924477,4.0927647369215834e-05,0.0019412361484938043,-0.0004947638092539417,-0.0011961382589699913,0.0009337846076436987,-0.0022949650592897965,-0.0022890112467636686,-0.0004361375022214947,-0.010334314696451404,0.000965221870647691,-1.2857436932728541e-06,-1.6847594253904455e-08,-1.862531678973514e-05,-0.010074432751325867,0.002299706296257311,-0.005119259997343989,-0.0018829218208428209,0.0009397733311665431,3.1107669501987946e-05,-0.0019275304702855653,0.002616731316882223,0.0010616140965876595,0.0013179200893536293,0.0020129861886210437,-0.0004950820683683176,-0.002154234582513353,-0.0002281790409793706,0.0028026950198975233,-0.007451513338056939,-0.0004237055936102347,-0.0019106288515511225,-0.005008842006054464,-0.0019150195301925875,0.004851808568016176,-0.00946242401336659,0.00400956080312157,-0.0038504969691908757,0.012865663468420255,1.1215942253786277e-05,-1.6321106933470428e-08,-1.3099422077034611e-06,-0.002794700389727595,-0.0035357589232017862,-0.0043161031305550745,0.0005842473633980873,0.002572176535647667,-0.0013870209490083902,0.0016930011125892732,3.980094951206173e-05,-0.0010753676490740938,0.0011555064872707994,-0.002651227235447913,0.005830167673148049,-0.002201917421569229,-0.0015073933475710241,-8.145686621730166e-06,0.0025555827609473553,-0.004864241408022751,0.002701320953660337,0.004099104950279662,-0.006191542436588239,0.003660856950197464,0.0018793288230340996,-0.005745168223797301,-0.0015928751564979588,0.0027093034370954906,2.0706354930066655e-05,-0.00022607777031299504,-0.0028881986343636036,-0.01402582822629079,0.0024499110728244374,-0.0033309611168905245,0.0016778709581307058,-0.0021262827579946286,0.000598521276564202,0.0012657380490136254,0.0009212146497699586,-0.00043580156948349724,-0.00043970641544536685,0.0026711777020912517,-0.0018831186710993042,-0.003013456604004698,0.003333655341038943,-0.0038238381639769826,-0.002783672054738708,-0.005728350861843415,-0.0013190171902851017,0.002743861975603073,-0.004375855402031353,-0.008608008680734568,-0.00063172158826705,-0.0002191522321657885,-0.0011557358464174283,-0.001726831211596014,0.0003738371294279934,0.0041422077459060645,-0.006720841022794901,0.0004692157628458741,0.0018654817464594743,-0.0007272548600010772,0.0010724105094704582,-0.00485012806319335,0.0031351170903340764,-0.0018973943856138873,-0.00012352487691388527,0.0005531451416894735,-0.004605961557377079,0.00021869648430606413,0.0010071059276151502,-0.005012718868737448,-0.0054875385390005405,-0.008764199896305532,-0.006598976667528246,-0.014978833597244686,-0.0034528517236091408,-1.891898486457961e-05,-8.469744078259081e-08,-8.137681362354326e-07,-3.6779543750645016e-05,-0.0053206467904170305,-0.013312796521656756,-0.01784446477871979,-0.0167104567424769,-0.00728220376595613,-0.002118176575372231,-0.01783319714009673,0.004743087277266629,-0.014369859352108858,-0.010678882721063926,-0.006437340639272735,-0.015816750170553652,-0.006619757230106475,-0.010698541891870278,-0.024107011971979092,-0.015091896473825769,-0.014078863459666847,-0.012191280710449254,-0.009073068128003048,-0.0064521167117054705,-0.001369444751625265,-8.47204083053957e-08,-8.27350064156959e-08,-2.97504655721105e-07,-5.621849463010342e-05,-0.0020665609626413246,-0.004240690035316374,-0.0065660198795462555,-0.009780257287553289,-0.013593978782406051,-0.014210428357167073,-0.014456037686926973,-0.010246456304557793,-0.011806826772234531,-0.01183718056949355,-0.018149541027653086,-0.015489641506016042,-0.011612221166164347,-0.007506931368043742,-0.003198754910556121,-0.006939052739983643,-0.008157183593017677,-0.004991288431596778,-0.0008584328850534397,-1.4392638978754012e-05,-2.0616670517526782e-06,-6.400084776881061e-06,-0.00018529130323340139,-0.0005698518941596957,-0.0007544223496937778,-0.0007059994258867913,-0.001236319828802351,-0.0020311576601017116,-0.0020067638741889,-0.0013936567882752995,-0.0014866932920936133,-0.0027486359585145426,-0.0033612617158161667,-0.0020790827227008465,-0.0009411307413493555,-0.000896626890569559,-0.00035690587858594073,-0.0007141945082853327,-0.0018900759040019908,-0.005312690483658257,-0.0012000524728523457
-1.1290914791324257e-07,-3.8673711638401647e-07,-1.5524239194378002e-07,-6.468432997657602e-09,-3.89284883591127e-09,-1.1493371331790609e-08,-1.5413931598034096e-08,-2.6259236171733724e-05,-0.0012723434317977215,-0.001022373181104179,-0.0005553564433118775,-0.00010526331197347357,-0.00010549169585520337,-0.00010067988394400742,0.0024546700012805195,0.0012230069427504842,-0.012166043801855783,-0.002764705259629171,-9.543504344004583e-05,-5.272909222825243e-06,-4.643249472716687e-06,-1.9358890072927723e-06,-4.796548793615988e-07,-4.270616376693854e-08,3.168498489850108e-10,-1.2338495902437727e-09,-1.5340352343479173e-07,-5.993871674771275e-07,-4.335914757873743e-06,-0.0005422415029354452,-0.0031910318207411976,-0.0046687586010123825,-0.00501535476153826,-0.007825392646553183,-0.014070745681580227,0.021085314174953344,-0.012863819552398329,0.008968506195108139,0.0004653121241848004,-0.0012059331018479324,-0.008058680013501346,0.011542509076276405,-0.007162897590325997,-0.003162615544220562,-0.0040732486475496725,-0.0014325885586359446,-0.00014903272628598687,-2.490231809326352e-05,0.0024438260851748265,0.0005818518395298626,-3.537569340168412e-05,-0.002820843563841796,-0.0004414657747764088,-0.0021125671003247633,-0.008607820618870603,-0.013927805535959785,-0.005510225799618857,-0.012106722792695696,-0.0001725946827368338,-0.0028519706196436265,-0.00917688034927705,2.3382880345644948e-05,-0.004245925233086354,0.0030226848175250436,-0.011011945836620726,0.005703809107013826,-0.006679843004749289,0.0013312347930546902,-0.001739857740866118,-0.007923293868096478,-0.007856718468800112,-0.0032170393997102654,-0.0054572269495666015,-1.0599227296795316e-08,0.008378504374726163,0.0005038760252862558,-0.0020676094100735044,-0.00022563657731675864,-0.004293165042444089,-0.01682501719140285,0.012596064280646913,0.00042755832321521395,-0.0013399125924164377,-0.001367571229104371,-0.0032023821053429095,0.0012159346169470276,0.0002480496911218901,-0.002309585534149797,-0.00043537371437884115,0.00010635141727674156,-0.0036927146698735847,0.0026893080899279896,-0.0025063114609689802,0.00140565067222135,-0.0037340382744093293,0.005162730778395279,-0.02469589690524086,-0.02265422189101706,-0.0020752602251088467,-0.0010210445950101822,0.00032562954438534233,0.0019986331281137333,0.007171752389527674,0.012766825636393095,0.0038509419155580136,-0.004779311083856517,-0.004773614911508797,-0.010061876687899129,0.0015337526002256806,-0.007423791257333625,-0.003941156799371329,-0.0007129020504673076,-0.004311461965343736,0.0027254716830900547,-0.002285140799027659,-0.0036532260625981128,0.00034177513540413273,-0.002353341617565029,-0.001540842411273423,0.0014692227773244794,0.0016577231068419553,-0.0005252026808288165,0.011895347196697367,-0.02548935306441963,-0.0048719086895598115,-0.0014011093444561953,-1.2150918790660638e-06,-0.0039599223915023985,0.007886590673052826,0.001978950406081611,-0.014210188102003621,0.014823466318761901,-0.00976387365437197,-0.001018491469759997,-0.005026418490811909,-0.001823667308955773,0.0011103110177279392,-0.0019625415139164627,-0.0013886492452502965,-0.0004308645144568675,-0.004491811279358225,-0.0020010152296357523,-0.003458910278152779,0.0007903713997294913,-0.0021098307774400802,0.00043030701582127306,-0.0014507592786293837,-0.0016163913410254633,0.0073938278576756705,-0.010700359362606073,-0.029059858787027416,-0.002972793641444547,-0.00016801906500928918,-5.935660352775385e-09,-0.0018912954790590458,-0.007709910257350479,-0.004308564067566873,0.013739542021155994,-0.01626677577633384,-0.016730634754985624,0.021531137868484602,-0.01506776853403936,0.005404327919019133,-0.0019528887537568853,-0.0022267218420379425,0.001650516794724733,-0.003969063099122639,-0.0006061835119355862,-0.002250790995177227,0.000891982002105331,-0.0017303831452929901,-0.0015585748944285495,-0.0004942500937723754,0.0033272145533446624,0.0018248412279994366,-0.005656455663004774,-0.0034080839483301264,-0.005613671696007275,-0.01685615373452195,-0.0008070495091595689,-0.0004644881226183694,-6.513040834057708e-07,-0.001541673099398229,-0.005214741524452832,-0.00210042866862351,0.008779960738779997,0.003908131412321093,-0.01335557065214095,-0.01102043953392417,8.961921246158767e-05,-0.010276627729317282,0.0017306188968047745,-0.0031828111417930858,0.0005035781478874166,0.0006604365746029241,0.00053486786610369,-0.00030067042034336163,-0.0035411661703448976,0.0031301583477242973,-0.0007937898645945096,0.0020808632656553693,-0.004804281869916039,-0.0006796217936561891,0.000606967963153911,-0.00024477798905561514,-0.017817620993819068,-0.01882871676387011,-0.001802316062125107,-0.0002612804515999976,-0.002260344949769283,-0.010020394803492922,-0.0034577207539573766,-0.0018046635145026093,0.0014501470967560781,-0.014416872226948953,0.0030132402240921614,0.01601861981682492,-0.004115108932058651,0.0029325212346252446,-0.0024936472481806022,-0.0005706650522946373,-0.0005329346766706291,0.0007434232966747175,0.0008466784088716453,0.0029763412937736295,0.0007767152417225691,-0.002768833321903553,0.0012577793559010023,-0.003808371884579285,0.0011430403004345944,-0.0005195023461574003,-0.0009837287405727033,-0.0071685688310332936,-0.0003170595504432207,-0.02144547964392973,-0.002524782153575175,-0.0010079910665177372,-0.0026289145914679514,-0.0013921450968306483,-0.001907378017348561,-0.01431234522591455,-0.00414566351431022,-0.014870370505980054,-0.010082042490304354,-0.0076674810295924165,0.008183776639728321,-0.00438731102748331,0.0024476008597193247,0.0023725761899608283,0.0002771795379141631,0.0016942161087449563,0.004261643941673747,0.003939184033377755,0.00245400627812278,0.0028942746407036013,-0.00533767956066437,0.001457278589581366,-0.007294300974965205,0.007532905382118565,-0.000635486766555749,-0.0006798186108671927,-0.024631945840804012,-0.007709585468772075,-0.0036491185588644814,0.0021457750860566648,-0.00028396870244280423,-0.0001863047931901076,-0.0006727947610926669,-0.01061635119520281,0.006688432615446805,0.0011670367524467516,-0.011096443758267979,-0.011912746625855933,-0.0038655794633705985,-0.00609742210524464,-0.0010962864508763043,-0.001275857830172665,-0.0028548545405074955,0.002731563845465374,0.001462483214776808,0.004593309892797282,0.0011444830523795941,1.0362844691800928e-06,0.0012291377561421623,-0.0012655563262596978,-0.004190928719618124,0.001230744567526199,-0.008746537028568842,0.006963035689709094,-0.016043505115164742,0.0006020278769132651,-0.00015157425986611959,0.001335994016297883,-5.1626872045583265e-08,-0.00030149678980415714,-0.006400554591161206,-0.002683995037551097,0.010094020929713609,-0.009110364800498011,0.005962698887138796,0.011415240181182168,-0.006283131930060972,0.005259442381212821,-0.004000479746972391,-0.0012541541729648882,0.0006301086328451904,0.0009529436926821385,0.006296732587891922,0.003985000737058964,-0.001283423294812563,0.00031949623410629924,0.00014443287649673,-0.0008756527786874506,0.0018058226202698397,-0.0029220326687046942,0.0035825906025482015,0.005602150697666792,-0.00843756065145712,-0.0028763622933578783,-0.007082740363785517,-0.00015802056079324732,6.663934948377613e-06,-0.0005155450372072129,-0.0024662041118490487,-0.000808629815799335,0.0008533678581656042,-0.008865552773233686,0.009669967357283269,0.0035828140403708956,-0.0021902726152999447,0.0020472073383975956,-0.006778360527055389,-0.0020274604417955915,-0.0002487675307753732,0.0004982558667810849,0.0011539298106217164,0.00180325766132194,0.002389135728764814,0.003928379426636234,-0.002144219599885556,-0.006429643881569887,-0.005640097298025973,0.0003351286516090209,-0.011933483470061705,-0.011556271703005085,-0.011805294199798378,-0.005588110898013372,-0.005943087358049152,-2.0755190133261258e-05,-3.874735122751254e-07,-0.00037727025751360194,-0.0005310032811359231,9.814164082040239e-05,0.013222750950394659,0.0028976902151477903,0.0007257850328607145,-0.015746636584771594,0.003989344798881261,-0.004254179648831168,-0.00253590040870683,-0.003463204965530872,-0.0015694323779934793,0.00010440479510870117,0.0030286217051774507,0.002439328023256601,-0.0011019677516868767,-0.0007711873340899619,-0.005008105321694112,0.003698864829995858,0.007361954541607099,-0.006027255479706112,0.009049947314394183,0.004343201272955547,0.009544317672620681,0.0012460687320646976,0.0023411697936205674,-7.902464966709373e-06,-1.3237514622811872e-07,-9.18920767651529e-08,5.415655834759831e-05,0.001628541140768028,9.024144156904109e-05,-0.01467071445306281,-0.011130142703256816,0.001324504482629329,0.006407986939965471,-0.004376990007018417,-0.0044574189661595875,-0.001006785929837245,0.003273045107474542,0.0033308029237686197,0.0016474885842315018,-0.0007890937211522163,0.0034741766507648936,-0.0017167170984300772,0.002240843460511696,-0.015401466662152639,-0.014901454742837736,-0.005423241691331483,-0.0035791440355049573,-0.008701120544588903,-0.0023505948087243628,-0.0011818826140617376,2.051466913183796e-05,-0.00011548184261360172,-3.144736129438854e-08,7.309108243459861e-06,0.00020712428172898727,-0.00015100722554229986,-0.0005465911297243657,-0.005776586437479335,-0.003906909326946633,-0.008505857745478396,-0.009612847721518533,0.006790180377350937,-0.0029671852976856793,0.000679526949590888,-0.004290388015542687,-0.0021097466148778028,0.002445401987668828,-0.0032358480866669795,0.0014036227875724569,-0.007096401232105169,-0.005146310001190733,-0.010379266746296075,0.006805290266560378,0.004550469709901533,-0.008234578630150825,-0.01841122237841762,0.008378644588979082,-0.013691168595835686,-0.004620802483946781,-0.0004591135157779508,5.2618266667665424e-05,-2.5878419933898004e-05,-0.0007263477324427235,-0.000997247362110099,-0.00036212328366094196,0.009527289522280255,0.006924226973491644,0.004098067470993052,-0.00806454031812757,0.0017226553573241148,-0.002919414968366383,0.002204019313598387,0.0045580971366468446,0.005147273195767686,0.0009975182881303642,0.0014507286067482795,-0.0071893073556710384,-0.0005278513649454495,0.006855758067492925,-0.0020484326370936987,-0.007630585546120347,0.01583627953032926,-0.000731927338826751,0.007147674934933797,-0.02342144489775628,-0.003253513456472449,-0.002518715560661402,-0.00013647296642940344,2.2864061064155892e-05,-0.0001620702417080399,-0.0013832221275645352,-0.005909584443229388,-0.007378895673856268,-0.01921896412124751,-0.00875430470019692,-0.0011423224019713278,0.0036899649044043917,-0.006012985674787687,-0.0015273428045100188,-0.0008675933625603621,-0.0023234194260502517,0.0016269044875712063,-0.0023114138909950594,-0.010642475762034729,0.00679007663274391,0.001988610671076065,-0.00729936991486801,0.00517084346257115,-0.0015014307443335826,-0.006873412375920991,-0.013324372142285677,0.01547266273399354,-0.0041050898130649514,0.002713989261520879,0.0031939879914703213,2.835477130014146e-05,-8.538697664185656e-05,-0.001373156049925904,-0.00568308185250703,-0.008253917589017846,-0.015039505208475166,0.005345666614420529,0.008142123240782109,-0.004937356644372389,0.00020506086928406492,0.001287732162789912,-0.002516026075031094,-0.0021878390922538764,0.0013961583826751674,-0.002229654078573081,0.0019903760379808002,0.007307689033373919,-0.009090396610788528,-0.002067685250369108,0.0029511009533826323,0.0014098248471483828,-0.0005823628221668086,0.004364427199870674,-0.003952454128704045,-0.0007345617876952194,-0.007205651690467951,0.005764848740110384,0.0016978295929236207,-0.0004708279730754045,-0.0015874311248352806,-0.012098607573921373,0.0018579589731821638,-0.015167304901029835,-0.006759822137869206,-0.004590810631488366,0.0025227986729565647,0.0012209992280169978,-0.00023734979629005544,0.002553610029387677,0.003790969703900488,-0.0027774683598416213,0.00013886868088163436,-0.004347171089087704,-0.0007543504535755935,0.0028929447199189814,0.004300060405624114,0.0037775223788466534,0.00021628737605957322,-0.009148083143829887,0.008154919229951166,-0.0047607355184833815,0.00950753317029026,-0.003579986047753969,0.010027032951960368,3.748686247514918e-05,0.00011553560750922252,-0.0003740606845468248,-0.0030356045970317456,0.013040597449363336,-0.0010437685160960086,0.0033516722632424174,0.006440399779568007,0.004837477288986067,-0.000197843780428708,-0.0017873060994173084,0.003992698021818209,-0.003607481811200318,-0.0012272511971201118,0.0012748943628674123,0.0013582388354357467,0.0007229781609387958,0.0022695268137333884,-0.0017294137016212112,0.0033000120802510807,-0.005695185572164373,-7.989705406099171e-05,0.014304359581379909,-0.018520966811362918,-0.026690338698198424,0.02918498745103952,0.014574999158495321,-0.002344212263843226,9.517558581034742e-10,0.00011192511977456299,-6.523537886115987e-05,-0.0020388977202766877,-0.0004985365140504582,0.00386068622816073,0.017421313194472186,-0.004799885146536914,-0.003922166412250596,0.0021545695664306145,0.0005839701570532453,-0.001900887799757488,-6.133013195772227e-05,-0.003721527275730514,-0.004647785898764843,0.0013089117838238332,-0.0017912281453757114,-0.00027722130864781636,8.526037742304307e-06,0.007267550220520799,0.00022081818274769421,0.004768460788796488,0.007456183278798972,-0.017631527145801667,-0.0007759301323003491,0.008118687013215014,0.01548528890965358,0.0011326978280563518,1.7570877380371433e-09,-8.592181227877914e-05,-0.012930786489742715,-0.01987699967828155,-0.0007909039916732759,0.000597824805525773,0.0032648919877038057,-0.0037043968851263394,0.0006692053418541458,-0.002811960228890734,-0.001789580296774483,0.0017174551825070784,-0.00028160114856615935,-0.003501661310783054,0.0023683370221744887,-0.00028308389661414567,0.0037423446730832986,-0.008766982590568654,0.0028694392343939167,-0.008273668030926296,-0.0002673971209641938,0.009529029088862506,-0.010304541374874451,-0.003925413397349648,0.0016789022773437106,0.007285554161664291,-2.34051863641161e-06,-0.005202527684559497,-0.009621789812803752,0.0012190067026219642,-0.004800544157654289,0.004799360172768266,-0.006835349128117648,0.0016852273322756123,-0.0023526906836401754,-0.0009496335062721093,-0.0032726642749456095,-0.003887237739775689,-0.003259267501119453,0.00023377758244259267,-0.010078410535656205,0.006535355983317069,-0.008732270882291176,0.018252748810008847,-0.008445091163574569,-0.006688347079872128,-0.007662746761817453,-0.0008168475078427643,-0.0002663642285118212,0.006250289452174852,0.0010875443317391565,-1.370287220631563e-07,-0.0008467794104384161,-0.005588717522288868,-0.013226504783368363,-0.009685661884471434,-0.01831337813752501,-0.00684140197118399,-0.00874235091678229,-0.015513830345561391,-0.01721016805203044,-0.0035962260287634674,-0.009188954366077888,-0.0031604236920048344,-0.011524638646943993,-0.018270812970958734,-0.017683921633979565,-0.0310032862378112,-0.023089515803632627,-0.008964462041049157,-0.0028697159972002687,-0.0007610169292230509,-9.108932918253862e-05,-1.5858745070707228e-05,-1.5072155933356614e-06,-1.8032776259725387e-06,-4.9703241769383175e-05,-0.0009889753887816488,-0.0034304708886964312,-0.005240623746251669,-0.005623611982635976,-0.008446653128576662,-0.012514043132570778,-0.00823883679549747,-0.015225833473108661,-0.03176743326352997,-0.028373409157446232,-0.01876966546927174,-0.011077258615553585,-0.004764227030389808,-0.0067599920039199835,-0.01578024579662307,-0.009644423474549748,-0.003538387483177305,-0.0014737396105717968,-0.00044447191655305713,-0.0002819870421177801,-7.221636661219784e-10,-1.0114401758568375e-07,-7.177747933812575e-06,-1.8308431120101995e-05,-2.0149329910777523e-05,-1.741515308442383e-05,-2.9208388834716262e-05,-2.5561625594011444e-05,-0.0012882458343820898,-0.002060328164172176,-0.000993031032838633,-0.0012836311355169433,-0.0014186966808457067,-0.0003238953597929974,-0.00032974452447488033,-0.0027886035454441718,-0.008307510926876866,-0.0001364923488789362,-1.2126774424673901e-05,-2.5557833450106957e-06,-2.1443159498452424e-06,-3.1477753664799675e-07
-1.3073474019437063e-05,0.0003972366128062334,0.00047390405263258864,1.9746002193024608e-05,-6.40478171139657e-07,-2.5189169955006567e-06,-0.0004911340575634238,-0.0008741022701965378,-0.0002730476639611516,-0.0018441099542898908,-0.0023553784420495116,-0.0014212616264371919,-0.006963750639091761,-0.006361331367989458,-0.002565568543260621,-0.0022518409805502345,0.006207048274710592,-0.004814595272114235,-0.0036619758068328853,-0.00475702043339042,-0.0029318989447518567,-0.000588794788904974,-0.0001345739298815396,-9.17345301911488e-05,-1.973079717040016e-07,-1.2560563961598946e-05,-0.00027530642958240547,-0.00012393461936699738,-0.0003896087360960636,-0.003051532809794808,-0.0017529090788722661,0.0027108138025846015,-0.009241591906388494,-0.0011032052451712415,0.000644889707167745,-0.004199616388133031,-0.0031851934790474807,-0.0003688063158676825,-0.0031287765044672286,-0.0031905724588041752,-0.0009909654852058333,-0.007504431366182157,-0.007540058646437153,-0.004719547536388104,-0.005873155359611531,-0.00026991742403211844,0.0022673065788958663,0.0012685241400421032,-2.1322815284641146e-05,-5.068435702976569e-05,-0.0003764095077350951,-0.0014533977470502296,-0.0018928235841457815,-0.000693229288745623,-0.00445677600262959,0.005622006115837475,-0.00015705262031055918,0.0005026779113620536,-0.0011001817323401718,0.0020042857695694648,-0.00041527682992265454,-0.0017911172479823734,7.084474759766207e-05,-0.0005717294390173537,-0.003027519859993236,0.00025533655024350104,-0.00036147830965046644,-0.0017812583878823595,0.0032274488790233267,-0.004592940068751005,0.0002893098352742239,0.0011391752455719112,-8.958291451162518e-06,-1.4733712102054304e-05,-0.00039846646195456904,-0.0017368212890610775,-0.00748761677057151,-0.0027164544421207568,0.007308630541276869,0.003695115102835362,-0.003227257942170302,0.003958452361638861,0.00013132856903557883,-0.0002132194286982811,0.0012580653310138967,-0.0004457708029164163,0.00205811937752772,-0.001493904474976264,0.0016323591831960019,-0.0019814710161012916,-5.267980745271585e-05,-0.0018024730416816097,-0.0011460967625394082,-0.0030564254512178107,-0.005025550725346372,-0.00987103006423326,-0.008203777592713825,-0.00026131709317600424,-0.0004401977795994627,-0.00042154841920442974,-0.0003453432868248399,-0.0012874910976082338,0.002246943470135458,-0.001196097960389693,-0.003388641641248145,0.0006705242881267224,0.002016614858222855,-0.002875593725401962,0.00097994913826721,0.0010100100824181207,2.9470825444052775e-05,0.0010452741743145508,1.8187289203743433e-05,0.0005264327453675973,0.0016147291738902658,5.880987756776763e-05,0.0016121903574255168,-0.0011639060093387745,-5.561556878725248e-05,-0.0007238144686579884,0.0019210759249165188,0.001543325156171903,-0.008493143104155698,0.0022207400239280055,-0.0015922343443402053,-0.0006224535119495728,-8.94375487136057e-06,-0.0021323678974865395,-0.003416154516758029,0.0005756513209261849,-0.0011375198777453233,-0.0011892430395126993,-0.0009301909773268227,0.0005604291281975247,0.0008424027972746494,0.000808676007760346,0.00016825181796837545,-9.604326360843574e-05,0.0009828138793231077,-0.0006688849949215491,0.0008381450330352154,-0.00011445107487445559,0.0005825687033766022,-0.0009748712507796649,0.00025201686217552377,-0.0014096792734844034,0.00017510433755506683,-0.0017237367078058617,-0.0025108697031219745,-0.006480235407081609,-0.0015169121283929812,-0.0011553991964293935,-2.7619883787076096e-05,-1.4347707542657263e-06,-0.00028391843678096874,0.005243874388374306,0.002191838732599867,0.0005881032895505205,0.0011358579130661339,0.003315504913103102,-0.0015627531253446963,0.0013496893410694215,-0.0013773165395623032,-0.0014093708786649883,0.0013562633242982798,-0.001209173072552305,0.0009227682723494833,0.0008888178015087259,-0.0012635986043861374,0.0013679545504316204,-0.0024359084142444145,0.0002886580954511716,-0.001731007133360046,-0.0005241047706310294,-0.00045640068047699526,0.0032148980195855032,-0.0070942939191815805,-0.0032204771712058488,0.003921077904581667,-0.002434050038213454,-3.338001440536616e-05,-0.00023960627087537599,0.0003921694830295706,-0.0017898747394436724,-0.0055347310239058116,0.0010638899820415869,-0.002628109141989473,-0.0010195437867331493,0.0014088831173504717,0.00025180628403749424,0.0006909668653884017,0.001443213234128633,0.0004350458212575273,3.0747827158618606e-05,-0.00010190801368498864,0.00041193134378057983,-0.0003064130240075997,-0.0014721871437348422,0.0012913677728326196,-0.0014637665615360334,0.000759988536543242,0.0012616876218766496,-0.00030354611236469185,-0.0014583811418521404,0.0028334025766304422,-0.013723059714833282,-0.007302790251327282,-0.0023542141626101474,-2.5961728667943523e-05,-2.1121677059644582e-05,-0.0013533590358191317,-0.003911637133206002,0.0018194403448536197,-0.0015688605803142253,0.00754194209597176,-0.006636655449110731,0.000770375999975943,-0.0018107024431932024,0.0003636962817074451,-0.00017988463510382606,-0.00019463351276250131,8.773665196059914e-05,-0.0008606380398130289,-0.00045240442175828075,0.0003659571189611711,0.0016113874998388519,-0.0016616363872505053,0.0006067641980601853,0.00020324427543903954,-0.001027294256284287,-0.0007369671462819104,0.0014969371470732996,0.0027738309932719874,-0.013736463257786921,-0.006824425800162211,-0.00048558032026201525,-0.00016280948448620875,-3.5556167544897894e-05,-0.001805747422897963,-0.003029492981871579,0.0049600910285613154,-0.0034799709064411363,-0.001353416594741397,0.005610595362734327,-0.0018183182311407883,0.0008450706032793456,0.0008256648885201226,0.00026571818342669795,0.0016421324188644162,-0.00021892067324992234,-0.00024972620378366743,0.000980883226479963,-0.0022485412406847804,-0.0016171727122532686,0.002678638966709693,0.0011946097458497603,-0.001569024012861243,0.000740165599523318,2.3333557084025257e-05,-0.0018045916909759086,-0.0026712673564541086,-0.0046621841993454765,-0.0023234166359934584,0.002969704447614978,-8.664110173771733e-05,-0.0001175993796089937,-0.0005884027239329043,-0.002074493684093353,-0.007180596929700451,-0.0016768012022345688,0.0027576327482469265,0.0010393557596355737,0.0017180731519954601,-0.0036215294378093713,-0.004314175733185275,-0.004456087111095716,-0.0037809079234049467,-0.004354028707170586,-0.004236124466952501,-0.0035311420702298646,-0.0005959622480246009,-0.0004149520196877236,-0.0028599361450108523,-0.0004833701672542347,0.0009330877722808613,-0.0019485036967274592,-0.0003823287898974355,0.00010413105667649767,0.0027909687849202733,-0.00410834993772521,0.0023299673245792737,-0.001770458810006504,-0.005182182339243834,-0.00010500450534046472,-0.00010640373046092615,-0.000633183721348694,-0.009782341434543202,0.005675795891980172,0.0019083904713774332,-0.012343278196231109,-0.009545513395754492,-0.0016160354167392699,-0.0032125574934627455,-0.0021100433103288627,-0.004245611674701323,-0.00293099742544138,-0.001275898527871303,-0.005010112608622722,-0.003133634513539966,0.00016456260912098964,-0.0013128412358578451,-0.0011069349346752915,0.0017512820631634522,0.001151483963076475,0.0010390099272331334,-0.001593307562999587,-0.011273288244592982,0.0013974507999792983,0.008638974546516956,0.005092190624070396,-0.004837238437999418,-1.4936380127967873e-05,-7.227480614446945e-05,-0.00022674904983795805,-0.0058818124345479655,-0.018507852445775675,-0.006428449582911834,0.0001019965534221764,-0.0037689729861262664,-0.0035138160725508554,-0.000730963429739289,-0.0007478167533388243,0.00029954912403192587,-0.00027344368179014176,0.00020332409665924106,-0.0008651807923287844,-0.0012796089997038418,-0.001407963223648917,-0.0002636378546364178,-0.0003068487816762926,-0.0022685434920668005,-0.0016814536739105967,-0.0013179133493035923,-0.0007743272790934663,-4.0332640024793166e-05,0.0025288573878528534,0.002286094277047216,0.014921407613207998,0.009364207166065548,-1.956975843222729e-06,-0.0022256478271988427,-0.0009640182354391121,-0.004034832985944286,0.0007593401230422639,-0.011917900002574535,-0.00608954494933366,0.0028656196204398655,-4.6137132279775874e-05,-0.0017960007212210612,-0.0013022632015393574,-0.0007425648962284497,0.0011658239757834606,-0.0016490154334638093,-0.0004637625268834073,-0.001326291662729195,0.0006291168926711115,-0.0014915501385630635,0.00096173232481143,-0.001233397837584778,0.000519578013986204,-0.0016064916931164306,-0.0018525127406494846,0.0006051066024565194,-0.004173158437412785,0.0016090762648032376,0.017939016473851505,0.0008624891478089159,-6.436980232839011e-07,-0.002652475300207806,-0.004504056058864466,0.004701352937140108,0.0051866292301085935,0.010675741685501871,0.0035527848729321977,-0.003671766514909377,-0.000443983224641966,0.0007348432139071617,0.0007713863704380137,0.0007766604635106265,7.306780313737565e-05,0.0005668351333447429,-0.0012695956339100875,0.00022031464134480286,0.0009872359306959829,-0.0016133586797515151,-0.0021888189980546423,0.0013842652584766134,-0.001555808179761748,-0.0006975909737675333,-0.0010214259618920652,-0.005730599827659708,0.005782048072544252,-0.0012669425630383222,0.012534860025182924,0.0038915062026139485,-1.6676128032384105e-08,-0.0015419184009609014,-0.007659456827067307,0.004837695694817613,-0.004005257077384517,-0.0034516814011529002,0.002515034026899309,0.0018169960085274617,-0.0009262546954239265,0.0004787967692100214,0.00016432866321454596,-0.00022828867515701685,0.0014459910083555647,0.0008133935692103823,-0.0016361258594684714,0.0003414295734979527,6.830023384981125e-06,0.002232458866783203,-0.0012434560661067878,0.0005457504884612514,-0.0020180810023410368,0.0028457732729593017,0.0002448660706436092,0.004163520035891471,-0.002202945758018278,0.005608109631377924,0.013791395117599152,0.0045887728883269455,-0.0008345369225890632,-0.0008486859721725705,0.001583272948606943,0.0008191332282532676,0.001520389260829268,0.0023798402700538567,-0.0011136606722478783,0.0018214824153762305,0.00017373445585683466,0.00012797536483962637,0.0009885903092155073,0.0012603069506911025,0.0008959021028326623,-0.0003376756002842156,0.0022128971505822694,-0.00026202106003809497,-0.001320253035851625,0.0010166921905918006,-0.002043569165819476,0.00022306810817118212,-0.0013531710908170306,-0.0014789389659272112,0.0009412961395459647,-0.002102680814750802,0.008770032217376534,0.0027081621278041194,0.0021647348983610424,-6.988322084421797e-06,-0.0001174205341939441,-0.006459158000215735,0.0014957227609766017,-0.0009179653996403897,0.004283116888419429,0.0010961310980934363,0.002068027761788472,0.0007202872700753023,6.420378418281082e-05,0.002120934141400829,-0.0018471368600405673,0.002245389976626695,-0.00012082927992457034,0.001436314935776434,8.29087233483651e-05,0.0006670112941915091,0.0010860981863136207,-0.0006149805864694362,0.0013553328750354101,0.00012964756163381076,0.0011557252185984597,0.0022916278668628286,0.0007665018586962908,0.007622469321201873,0.0016634794133706652,-0.0010411198547444042,0.001400510596462437,-2.472195406910982e-05,-0.000522505349841753,-0.005859331704135286,-0.00478101992370742,0.0008000582060715822,-0.0022046522253275844,-0.00019283336641049388,0.001112183385882194,0.00024135880728016264,0.0017375466768226517,0.0009322508032608072,0.0008422459509314684,0.00015794973771732964,0.0017969021675230924,0.0007148057102312951,0.000766940705646451,0.00015012046500936845,0.000987063512257158,0.0008226517090740706,-0.0015936945845209582,0.0010235709062945653,-0.0003096070105140589,0.0009759295277525353,0.0002454656943814848,-0.0018781784240959525,0.007923655698003292,0.0028530639666942306,0.00013340230918821596,-0.0008515862785571927,0.0039018176176387497,0.0006085083608949182,0.003263069345513003,0.001710279271154601,0.0018172145046248056,0.0027376650796213315,0.00173269005587925,0.00042286771310663695,6.727743584399406e-05,0.0025670648296819134,-0.000597757570893005,-0.000599092083435001,-0.0006541672511850502,4.0568526793996664e-05,0.0008384104067468382,-0.0022191660705033053,0.0009034566130126406,0.0011326358566518782,0.000740040127062528,0.0018557663875945806,-0.0010029296001118524,0.0009785389099194303,0.005345586522801823,0.002074951687353835,-0.003790140171819841,-0.000209754771172618,-1.6613315601155847e-05,-0.00042326595046163055,0.0001373960569269247,-0.00039026606637825425,-0.0035057599234268157,-0.00039325150756990094,-0.00048429412359814796,0.0002651620291897206,-0.002132270733681284,0.0022361447108611102,0.0005577859845455195,-0.00025931568109451307,-0.00021777241706895598,-0.0006697904798984842,-0.0003219509859321725,-0.0020036690901384627,0.0005229262417956504,0.0015572787676657277,-0.0010236996067601414,0.003146337984825765,-0.0010770310630457604,0.0026196226169834143,0.0008509928353314648,0.007669634382273642,-0.0036550950033040755,0.0036888138452631698,-0.0016194488235464373,-2.129988524170415e-06,-1.609414948861957e-05,-1.9285336455467998e-05,-0.004153557991930944,0.0008701501460729376,0.0025615133767591183,-0.0004128055471331977,0.0020858273257133167,0.0005149106894332373,0.0015102938915871477,0.001042534675754392,-0.0006541168235187014,0.0008905322384905079,-0.00012205852452949781,0.0008413606268587356,-0.0011825578765282117,-0.0009411020790739972,-0.0005672199566764376,-0.000672750161210528,0.0021298812766296056,-0.0009243784441170567,0.002006790017788662,-0.0012854752619789827,0.003665701557119126,-0.0024512717623071823,0.0037499081246111566,-0.00251302673041686,-0.005465787041201607,-3.932286506160716e-06,-0.00179204578866282,-0.006384015085480343,0.004536988701602879,-0.001642725148698921,0.0009870292895644978,-0.0009351137034036821,-0.0014046650786420677,-0.0005519831116874585,-0.00047151230001510016,-0.0012059971121626512,0.00018465628057803534,-0.002920499962319374,0.00043844259365213243,-0.002864756388026677,0.0010169385823905594,-0.002037443757008852,0.001159572164741228,0.001956621077786862,3.384350970998594e-05,0.002916369633163331,0.003139624195777716,0.0021412722792719073,0.00385584440849019,0.0022484922335258978,-0.0027464084842542358,-0.00023913898798875424,-0.01230839940167273,-0.009829497721653133,-0.004272673098638432,-0.002217829047236967,-0.00363157143623533,0.0008660026320846786,-0.0010127157435508044,-0.0015344548563039455,-0.0008350472347425869,-0.00011184080241105981,-0.000996689190632492,0.0012871680021947277,-0.0009074752409686647,-0.002944494713029228,0.00024897297381174394,0.0017778679098997732,-0.0017173033524469463,0.00015336677393503303,0.002619671381852116,0.00043685947775604235,-0.005061596902838567,0.015262906497952564,0.009113205317494209,0.00011554965797614,-1.3813000724500502e-05,-0.0018041610456155954,-0.0036276369405573274,-0.01166342894700762,-0.0038900188967200284,-0.006127859453730474,-0.009011862971255565,-0.013806943238630024,-0.005497273632701931,-0.007331527225523165,-0.0054090888097514086,-0.005864999704016422,-0.0025246939453090777,0.000208280182934681,-0.0029274818400768176,0.0011607174005706063,-0.00630176958627647,-0.006335668842376886,0.0028714523229390423,-0.0090446635326626,-0.010483696091383072,-0.01291801342037787,-0.00459901831743198,5.866048504928603e-05,0.00013151531071707952,-3.483970261396552e-07,-0.0002987265794890779,-0.001819432030554062,-0.00309032969845964,-0.0037365684703298194,-0.0039724065619922205,-0.004395976627569973,-0.005414722116925356,-0.011532004568268922,-0.007666089823632644,-0.01035491387035138,-0.012317721344329385,-0.012850599273906905,-0.013249896639574028,-0.011810022005800908,-0.008059692927713075,-0.0029478846697490913,-0.0037471603899430425,-0.0038264903379166626,-0.0012615387117445756,-3.039925462455393e-05,-5.129231403672759e-07,-2.9191727774798706e-06,-2.915512531597897e-07,-1.5363761182538128e-05,-0.0001046778792843703,-0.00020342989423883089,-0.00016400236845129368,-0.00024878241237969427,-0.0011041285800355862,-0.0014361353965241736,-0.0011387296021194533,-0.0014950939438200198,-0.0016584465567867621,-0.0012657104199120125,-0.0011504718068761997,-0.001455000400686183,-0.00041234203189273124,-8.856618736475982e-05,-0.0004859892229219226,-0.000302077986992616,-0.0007668645953896197,-4.165327464772331e-05
-4.844969705153591e-06,-1.1421890731886844e-05,-9.047999766656247e-07,-3.7699999027735766e-08,-2.12337989587122e-09,-8.218352207864442e-09,-1.1929786898802074e-06,-2.1888548910540753e-06,-1.0285948714131335e-05,-1.0813725918745008e-05,-2.1736372905600547e-05,-3.783163084444538e-05,-0.00012145533029608288,-0.00010112992355124163,-0.0007121941061905113,-0.0008705233453854252,-0.00035004244403095795,-9.356646022513555e-05,-1.2264931585537261e-05,-6.205170905781987e-05,-9.397853165400893e-05,-2.023910832009209e-05,-4.3907546941972695e-06,-4.3269964652776884e-08,-5.732584279360516e-09,-8.047271108628829e-07,-2.844870365243708e-07,-4.461567337689917e-05,-0.0002599191462175203,-0.0006143993089360257,-0.0014147949525163666,-0.0035300840827543092,-0.003939595766700785,-0.0002815661213789996,-0.000530300014174803,-0.0008907758958261234,0.0024281384581523323,-0.00684702251908808,-0.004662230914324946,-0.004140730227629066,-0.00812746968955317,-0.008212644723101355,-0.005318519236403739,-0.0029522398696207827,-0.001666313546262506,-0.00019440858259669802,-1.2336180440343067e-05,-1.772855344546967e-07,-8.86540838292739e-06,-8.509183985417414e-06,-0.0010627305794858742,0.006252232713111883,-0.0028337104161411057,-0.00018410405168179866,0.0047055305648956046,-0.0036275265799759707,-0.0023165518110491398,-0.00029648021885396556,0.005013017337827803,-0.005894464276408175,0.0034071320376512513,0.0004250652203121035,0.0006994093484335243,-0.0005017045627993689,0.0024948806646238873,-0.0032271639802211316,0.009642395564129278,-0.00535263969765303,-0.0102799672142405,-0.006493231091412748,-0.0019904745675141905,-1.0342290192900426e-05,-1.8090036157061224e-07,4.728633889025203e-06,-1.4241273786136531e-05,-0.0005315662789167791,-0.0040290912236713205,0.0049943939332982796,-0.0027104377053620205,-0.00021923981185585967,0.0018756075915673778,-0.00040327229963017547,0.001305499624426024,-8.45207977313103e-05,1.821942613255703e-05,9.443699818892975e-05,0.0002914847250329443,-0.0005993009240790377,0.0011943015726145509,-0.0023286043739972843,0.0018290931574666438,-0.001637695408748182,-0.0004685495647635213,-0.003442756688316902,0.005643950544311621,-0.017919194920820176,-0.003689768702948998,-0.0002469630706129567,-1.366846767062064e-05,-1.1165976907356559e-06,-0.0006527184940533656,0.0028198497643305118,0.0018082750565570555,0.004732409336833817,0.001018571908329778,0.0021938067522305096,0.00034588012516723515,0.0003843557212045562,0.0009898580813841253,2.95105913416259e-05,0.00014053132130329913,5.9523221815492764e-05,-0.00020622685641830617,0.00022761794125109042,0.0007300454937029372,-0.001742500791020398,-0.0007837886113018625,2.1956085610299182e-05,-0.0005479100734676256,-0.0037930191350994684,-0.000977602293467028,-0.001103850915546096,-0.007279500687795077,-0.002467955534210933,-0.00018450231348650327,-4.299342702621333e-06,6.181099503454714e-05,-0.0019206049733315838,0.004617147434343771,0.0002747317321830477,-0.0035343706588677414,0.002147974639866866,-0.002120601475995578,0.0004631606943849565,0.0005117335966602749,0.0009209852829746066,0.00072546473640224,-9.755741649234808e-05,0.0014618772982837272,-0.0007507109349557911,0.0005214983939826046,0.0004448040104503897,-0.0001342352387686816,0.0013379875234265952,-0.002023202253933941,-8.5506353882291e-05,0.0022852203470432107,-0.0011355185217710995,-0.0021268823394273353,-0.003923971106277978,-0.006381938606113536,-0.0008495886657264763,-1.1807839139267349e-05,-2.1242805933857095e-06,0.0036430085778882595,-0.007304688450740647,0.0005134124682353245,0.000999279613138874,0.002318202205599252,0.0006940498231710593,-0.00041116914576835097,0.00015430585036111077,0.0007569267320930017,-0.00110318582031056,-0.00013643110811891693,0.00048086655020574846,-0.0007699162082709572,0.0015586759103637376,0.0005742432992939078,-0.0006820240083800967,0.0006473707433438071,-0.0012023679419138735,2.0804230877546037e-05,0.0007522864151488438,-0.0036841187324485568,-0.0010327329990012554,-0.0003590253448250435,-0.004643091125100016,-0.005142214229352038,-0.00044196630359752024,-2.652711808262894e-05,-8.652149179982437e-06,-0.0011381443115102503,-0.010999693919377511,0.0021009491042379186,0.00014932818251148133,-7.3048466656204035e-06,-0.0002455476606959654,0.00034013111944445175,-0.0001080833095410978,-0.0018937764160131831,0.0006804529082367855,-0.0006773946853209607,0.0014688702297641592,-0.0004637327160991742,-8.210343422837154e-05,-0.00010760530980540801,0.0008173388790800807,-0.00037143470873257596,0.0016549087287191387,0.0003008111733543327,0.0008586858291694245,-0.00067801559697195,0.0013370672167637443,-0.007093352854181132,-0.01636169739431063,-0.005535844527537052,-0.000534975177835367,-6.19636633651826e-06,-0.00017103167612069034,-0.0015826252891367751,-0.0037080982458602527,-0.0003633393962448626,0.004721062611311723,-0.001084867252087456,0.0013192175596758475,0.000494225504124065,-0.0009641618200720223,0.00048796653879367634,-0.0001677428604008125,-0.002608905060458424,-0.0007681369959281098,-0.0010711307310679941,-0.0004933629411213018,0.0014063724548690941,1.9140154061226544e-05,0.0010219444674220753,0.0005679451020107831,0.0004371066392448103,0.002396402635884263,0.002483146145476428,0.002460647476456671,-0.0025179383600241333,-0.0326819399896447,-0.0047862337126171415,-0.0005307395375190245,-5.508535763692438e-05,-0.00020785046741225648,-0.002730742129484928,-0.007283243710934633,0.0010583225248512779,-0.004603015468201065,0.0004679880638223273,0.0004917580221939188,1.5772412128229127e-05,-5.8433197853939484e-05,-0.0032379732143403097,-0.0024200149172328403,-0.0024781894713070338,-0.0032081095001284653,0.0016194816834476712,0.0011031388419890033,0.00014890973278504864,0.0017647642488218536,0.0004222184986344493,0.0005167265117891433,0.00039183704959935384,0.0003936114340309768,0.002293396046267535,0.002357421405657923,0.007884947402491545,-0.023866520353742027,-0.0030729499279538532,-0.0008277453060751912,-2.05706897476752e-05,-0.00012932785914439082,-0.0026193084565011085,-0.008594961691825378,0.006852558206018753,0.0044417529217420934,-0.0010211651867632053,-0.0007726747779018365,-0.0018634560245449686,-0.003405463519904568,-0.0016918716270417833,-0.0027706999386689353,-0.00038108305980704164,-0.0002962900681728988,0.0005105180411398584,0.00011110641388432135,0.0018366920422405912,-0.00036780383652452645,0.0011199277151908956,0.001298090425809123,0.00027944781299863315,0.0012324208117154459,-0.0034844616535904594,0.0004190587946985268,-0.0030438971592663864,-0.011768015198618765,8.424406431988934e-06,-0.00035578821167999764,-1.612781658175074e-05,-7.345500919212519e-05,-0.0017504092137955328,-0.005256113997531173,-0.0003511098708061479,-0.003071675640215412,-0.0007570778400304613,-0.006010570288247267,-0.0020886612555125286,-0.0023562728007501537,-0.0001682357830013793,0.0009819426869152146,-0.0021654171386299935,0.002159643097205261,-0.00023829112513347673,0.0010991107132038557,0.0006960593486498106,0.0018119318162714523,-0.0013336934036918442,0.0006178825878821355,-0.00038386143950700153,0.0005662562162829389,-0.0022865623854932066,-0.006542011556958264,-0.019215411080978514,-0.007993170126694225,0.000948821956530438,-3.966585408754221e-05,-2.7249636881314755e-05,-2.8245157986723745e-05,-0.00116700975340481,-0.0036791088083393325,-0.0001851388156644571,-0.0068499541539182324,-0.0008154255506420648,0.004249209078447847,-0.0011419935659916873,-0.0002491739866884602,-0.0007923883362450502,-0.0013733112418558146,-0.0002947918460082786,0.0013456784906476847,0.0010519483596695845,-0.00015947423301775686,-0.0015383247625418291,0.0018305719996803127,4.135006480442839e-05,2.5523340921574895e-05,-0.000562504056731935,-0.0032792116148828206,-0.004928272973665293,-0.010414828591232285,0.0026511247771524777,-0.0045726808605339635,-0.001477947557437402,-0.0005463716376635564,-0.0009144334041321069,-0.000926445789518074,0.0005863926247329873,-0.0012880686760192712,0.0059528724542814646,0.00039519931694021045,-0.001360239363887758,-0.006545057941336713,-0.0014898460586283233,0.0003982158997154003,-0.0003755637158292791,-0.0008495824212606581,-0.001824421761539303,0.0028868078859610063,-0.0009731245641781812,-0.0009958986553926649,-0.00019134921378461748,0.000916543415513807,-0.0004473203583940054,-0.00028459559278410214,-0.002257038631936822,-0.00351194971461008,0.0029488307678117265,0.00017777186728800608,0.0031919137256566634,-0.003603363133672403,-0.004996011157053005,-0.003631652496286284,-0.0006382824430608476,-0.00030429470604767604,0.0023501070598034336,0.0016501508039329716,-0.0015972019729895142,-0.005129944140635135,0.00038537512631369293,0.0005418663589277358,-0.0008338967038974722,-0.001785667826693466,-0.0009895821922113188,-0.0011430233574495669,0.0002749086969205044,0.0013080221892198267,-0.00043226835301372353,-0.0010043621228564973,0.0014514917260106182,-6.98589764779117e-06,-0.0020136858883687166,-0.0016515238209990585,-0.00033799694846888657,0.003219551031374641,-0.0003516414106924401,0.003969817611748274,0.004774652860923109,-0.004482783867025402,-0.011792094619206427,-0.0011484673468028725,-0.00011686394528381899,-5.401141401738777e-06,0.0013972312040502076,0.006598054095387729,0.0001434289682399328,0.004422840661864225,0.0007772500780169096,-0.001233057445247322,-0.0015041983375240066,-0.003581876714065613,0.0013029581714735837,-0.000993094740411494,-0.00034143246896385713,-3.687272761786862e-05,0.000854057525251754,-0.0020970225287048933,-0.0012660725815922958,-0.0020701540914580935,-0.0016957899204586213,0.002666179209012024,0.0005183234244193589,0.0015640548610418128,0.001650266055743531,-0.0010478871224995944,-0.0014238938426267545,0.004566820741912312,-0.016200468382672827,-0.0034656428700100385,-0.0001426771967363653,0.0005303550219548609,0.005501079746733525,5.867094584983024e-05,0.0019495389365861327,-0.0010394362324148984,-0.00048438581950116104,0.0018831744871918507,-0.0009574816825619838,-0.004085483551823066,-0.004070295762958728,-0.003126152378418911,-0.0005364050516210516,-0.0023251328620569394,-0.0026581045862231543,-0.002495870712277093,-0.00046026044598579006,0.0018969249328027434,-0.0003343365362293076,0.0025593222347744847,-0.0004733253877873637,-0.00036493135502199345,0.0024128008181911,0.0034130907628602634,-0.0022241549519428938,-0.017108949806892853,-0.0025864677799559105,-8.411921989805736e-05,-0.0003181815033072037,5.609963386417938e-05,0.0020127673525379974,0.008804507218318693,-0.004294035089067396,0.0009704268591238855,0.0008693711210908388,-0.0021207653418178116,0.0010767944702407717,-0.0013031573036530973,-0.0032510039529505923,-0.0035316614424476924,-0.0050557447242258816,-0.0041395362519623825,-0.0020635752933501235,0.0008638115189993457,0.0021000974345065085,6.381704977583486e-05,0.0004943166999126809,0.0004095671935274177,0.0004914367912770358,0.002731792302323905,0.0025927488052539744,-0.0005166565577279307,-0.006725401444630275,-0.011572284757919937,-0.0016893147522512523,-0.0001173267561704931,-5.67611186206537e-06,-0.00010132912806739999,-0.010112586206013697,0.004260683145816705,-0.00037780733543961334,0.0023338619007076187,-0.0009982807672939352,-0.00018086303390272662,-0.001031677508860788,-0.0009898895983381385,0.00027173229225316975,-0.0019277322283034297,0.0005044659659623386,-0.001521311450873421,-0.0017610904206350527,-0.0017100944586583959,0.00043254228736649476,0.001999052129331812,0.0005675399111311317,0.001551891044702211,-0.0005639016504986973,0.00046755705998952876,-0.0018019446205213311,-0.0009346997784408941,-0.0013321328170299309,-0.009652073889968,-0.0015385474878342965,-8.280849929370001e-05,-1.8745019675313534e-05,-0.0038757134991541137,0.005993441027593633,0.000475125988924126,0.00213193310253563,0.0012783259149638493,0.0010230240465508203,-0.00022187915731479343,0.0017676033091969605,-0.0005090579059293822,0.00030549993556780377,-0.0012112042020458787,-0.0009556997756291416,0.0005207378367970258,-0.0008251103581243156,-0.0010321467395565615,-0.00040697992524525576,0.0021323478482542938,-0.002130176096965645,0.002337932589316013,0.00010940086624233476,-0.0010104496162568085,0.003531915933041701,-0.006123436774342229,-0.005009610750284658,-0.0005490042134892002,-4.5526745239420194e-05,-8.293200211654564e-06,4.4844463170366237e-05,0.005437822917611224,0.0006682527400235374,0.0006280849878812194,-0.0004956395302605064,0.0003201947086910778,4.6755358127008734e-06,0.0014697706626396224,-0.0019240794645422267,0.00016147790979733953,-0.0010134949634564249,-0.00022712974441538495,-0.0001374861225587027,-0.0005183460804604198,-0.00011188470789673433,0.0013981768283896588,-0.0017072131199565575,0.0003864115418524984,0.002373457569775828,-0.001868149256488414,-0.00015082607804105814,-0.0013692429002684558,-0.004693328695063076,-0.014122476895658738,-0.002799648761112519,-0.0004504568000062443,-1.7864165323067802e-07,-8.034037705040057e-06,-3.6832371369649447e-07,0.00046198598903662976,-0.0004502426460588454,0.0008180552616043862,-0.00019167935455553954,0.0005257852220336696,0.0007863585373247649,-0.0018036158590750999,0.0011083952598105172,-0.0007160271439634381,0.0009888820059926772,-0.00033931522349392473,0.0001646850167055108,-0.0012623151423270702,-8.58657112462003e-05,1.8681699492793508e-05,0.0009223421284570597,-0.0004128273042279953,-9.558743549971826e-05,0.002457805092918067,-0.0028073261375638177,0.004214890310873202,0.00022308200716172465,-0.00860126343359336,-0.0020230845801222056,-6.504116016347021e-06,-3.2979997519510183e-07,0.0018355546271796811,0.0034935593525800748,0.002289795295238261,0.004226103843331162,0.0013109778288741174,0.0010220523587574143,0.00012107892339212849,0.0012311812119648589,-0.00031601437314623726,0.0007576207066915118,-0.0012987569873670623,0.0008427533245515329,-0.0010886118492286323,-0.00017251033764917933,-0.0015415757184776906,-0.0006669557545232421,0.001850204832619922,0.00017553127561257523,-0.0012797740507572415,0.0017787130071884227,-0.007247836475349163,-0.006342652977195938,0.0020371814419228337,-0.0009539113685028104,0.0001996368291623124,-0.0024681592086217767,0.007272899000088872,0.009955805275561638,-0.008827065644094571,0.005464288456242059,0.001177451172546417,0.0008500805530603484,-0.0002601034801747106,0.0009076602901654869,0.0008195809229779196,-0.0011584049934227456,0.00048367555180430026,0.0006655371542348749,-0.001308720595547688,0.0002416566461507915,0.0009156229520500167,-0.004140713077490543,-0.00215785813022764,-0.001329626611903186,0.0033072597203844555,0.0014188548134158412,-7.428568964918464e-05,-0.0016025800051071332,-0.0001458510649381406,-3.3349328717633283e-06,1.1126539783431902e-05,-0.006834097644987607,-0.00850299353735179,0.0020731449691395237,0.0017776696148648994,-0.003666261734059485,0.004085328981222906,0.0010359483405242243,0.000732277473674509,-0.00011371933613551797,0.002540201114618591,-0.0007942948218784636,0.0010526533964643732,-0.0012257931474506099,0.00028086736075020886,-0.0031206933878514895,-0.0016488068383866236,0.004114185806752141,-0.004945866245368375,-0.007768587333258779,-0.0006639460567619776,-0.001907512755248192,-3.5518458766546136e-05,-2.3060922853176675e-06,-2.1536220038878913e-07,-4.955199991139258e-05,-0.0006606247383605909,-0.0006828889779091238,-0.0027333073018087147,-0.0017108123050267746,-0.0049253097998997785,-0.006978623766874706,-0.00279775079205239,-0.0035829021907478253,-0.010213120587831208,-0.0050550784036730865,-0.006869575217642318,-0.009059886410818127,-0.00312263780162104,-0.0025073045519308453,-0.0032156271272605337,-0.0031322915826643657,0.0005982962084571182,0.0009747100760829886,0.0002892875776150819,-0.00022425615853683466,-9.054030145950679e-08,-4.497674157619404e-07,-4.832113468673788e-06,-1.3171290594394017e-05,-0.0001612456695878202,-0.0003758894173159864,-0.00035414398085001423,-0.0012211928562040162,-0.0027944305683093866,-0.0024710281306718398,-0.0027421821786413982,-0.003385100448727958,-0.003762814176004042,-0.0030735314158401466,-0.004285891321387009,-0.003911642504211998,-0.0023602334066927023,-0.000930907162877465,-0.00032343251082012553,-9.131875201057477e-05,-4.7222310841766006e-05,-6.195545116540756e-06
-0.00010000395332559583,-0.0002477667684645417,-3.2040649111372907e-05,-1.3350270463072972e-06,-1.1724516577710288e-06,-6.395371925060873e-05,-0.00532208078331622,-0.008756943272636899,-0.005509124972695733,-0.0025915639180227566,-0.0041680120895428155,-0.003455160499376078,-0.0060013317493805025,-0.005349755372573493,0.004123290195250168,-0.008930219383058245,-0.011121692952722214,-0.005400806027118311,-0.0030387555011473816,-0.011148145528554924,-0.009963277715264104,-0.008645323611837806,-0.016054812971850536,-0.009411376664059357,-4.094025860352639e-06,-0.0016204241778474584,-0.0021107944691038465,-0.0002574455224330322,-0.005034743118400027,-0.019279075400353847,-0.014719452988492561,-0.012315051956536717,-0.020753467568759724,-0.01787617628298235,-0.01523016938670546,-0.0025389188530712393,-0.0004191996444733062,-0.008551362069981038,-0.01081870052597943,-0.007776520871935604,-0.01491373439175975,-0.013891183360528532,-0.010012312148672577,-0.005271418525364971,-0.015596064564049179,-0.014452339906466886,-0.0031308148715792758,-0.0003786572189388847,-9.04557037418464e-06,-0.00472508610411275,-0.0016931317237158926,-0.0010712065062176007,-0.01268594644273044,-0.012276668759111766,-0.01453906950103297,-0.019262546338598332,-0.005062819467900198,-0.004673200862929356,-0.006395064698845221,-0.02555739817304925,-0.0034269322558587614,-0.008078204943550164,-0.0022829895208882323,-0.0035918956901563417,-0.011027726758803598,0.002036599137817489,-0.006077499355658378,0.0009324608632840975,-0.0021505397345669406,-0.006505861755072548,-0.012876799671049653,-0.0009677149467619892,-0.0005872181589486653,-1.904721749925004e-07,-3.227379116756364e-05,-0.00036639964066075947,0.00015297094341301884,0.0005355056390305436,-0.012408802297453357,0.011412090965777687,-0.003427213146134208,0.003112883321723387,-0.007500717114402404,-0.003586274947674961,0.0005809877180719495,0.002805021039391552,-0.005639693742901055,-0.0026661482870604437,-0.0014119665734799631,-0.0018883193305994537,-0.003528604241484421,0.000999852924864543,0.0005377688747489267,-0.00013237387169609915,0.0029719435956390315,0.0014492580868575467,0.011527659943778542,-0.0008388492518538131,-0.003664094708712281,-0.00020711406241420686,-0.002017968600925784,0.0004406396464715578,-0.0006306232685646841,0.001417809031071221,-9.81417254923554e-05,-0.001003687125028607,-0.0009968962732097018,-0.00010981426925617542,5.068091967871658e-05,-0.0012315661808223425,-0.0007695742504501633,-0.0026346913818874676,0.0015078743077775675,0.0003699380152367604,0.0015298683477717222,0.0007141625101193891,0.0012485010015085452,0.0005405854007939752,0.0012411979011434713,-0.00069560770380387,0.0007190401646980305,-0.00039003603709603,-0.0019775955026452574,-0.005135482702147424,-0.009477043761190958,-0.0003027231778620084,-8.266214971932347e-08,-0.00042372672524036665,-0.007647030617505417,0.0008862488272423343,0.002033420086585507,-0.003332541047076965,-0.0006852438794265683,-0.00027081668162568797,-0.0003881357831850176,-0.0029702755896690333,-0.00233269444081289,-0.0022444213146573942,-0.0031732524471641795,-0.00361100083191712,-0.004257373762905041,-0.003781771616767663,-0.00232220087851002,-0.004142218581915409,-0.0011139821684568775,-0.002490866255779089,0.0002940156399267815,-0.0011287185062952274,0.003222741744962779,-0.001803081244306816,-0.000847730441645091,0.0020158292565018087,-0.001007098524301752,-7.436948587799378e-08,-0.00014301635253954418,-0.001095037450176255,-0.003678742800276319,-0.0027465507147935984,0.0054058683314717505,0.0015786802026019186,0.002543549665394232,-0.001487644863812905,0.001749731836217468,-0.0011797649310575338,0.0011190315840321802,-0.0029912012730276194,-0.001256395617656827,-0.0022978000804159213,-0.0027432052206457103,-0.002706151578245599,-0.0003844356995613809,-0.0012601239213808112,-0.00032129930312144644,0.0003969624305545293,0.000703293050449054,0.0002880458050858449,0.005555387018317624,-0.0037256937069472477,-0.0057021451907769945,-0.0011754234161135706,-0.0016767673089405416,-0.0004300547371569717,-0.003256623178185983,0.005393485525976748,0.009270458988090176,-0.0005100484793349485,0.0015965541381671913,-0.004840121398492349,0.0025950014702620992,-0.003864644901485739,0.0009389395185212209,-0.001764234919649579,-0.0009084825907652908,-0.0011549791300097829,-0.0011455081822008446,-0.0027496662352621487,-0.0015551374193822404,-0.0028332545785897468,-0.0010123445788745701,-0.00019593839988908733,-0.0010394742212357407,-0.0015438896463874894,-0.0004059395258901154,-0.0021816175809604523,-0.003732139911852335,0.0007991947956075649,0.00299841495696274,-0.004460842991872871,-0.006116333927718823,-0.0012763521888888487,-0.0021390711586895344,0.005739253209464744,-0.0033529685721693714,-0.009811665947614685,0.006346960803075781,0.00010179131681592648,0.000316578263283619,-0.0006370378952768213,-0.000997549280901496,-0.0020780830342088568,-3.5416778390435184e-05,-0.0025611513406320684,-0.00038272784362506707,-0.003572667193367506,-0.0019522246443458718,-0.00012660521898263315,-0.0010813608794665826,-0.0004599239432694654,0.0004255157397120012,-0.00012556892543639275,0.0005929665910797884,-6.374977184232358e-05,0.00445209211725841,-0.010404741239094946,-0.006524056774360227,-0.005035553776060347,-0.0035781714789679007,-0.0014847731060660778,-0.0008199629944708441,-0.007701932707954204,-0.010353411570774391,0.007866150767807835,-0.008489561917228211,-0.004999005147482494,0.001129787742914865,0.0008592059817538031,0.000803545135471839,-0.000809604305250638,-0.0005239589640860635,0.0007096297522745852,-0.0005744601191420694,-0.0034658633281556017,-0.00036694834173566914,-0.003021933757294446,0.0009772633409122335,-0.0007824611197208765,-0.00144910270587802,-0.000498641162817148,-0.0005484435799906083,0.0021975975008460048,-0.00656561134202284,0.009016288767406632,-0.005398493457349366,-0.017077794295526666,-0.0006187789828316327,-0.00016143364678381772,-0.003230625758863433,-0.008395732050304215,0.008903447424074559,-0.003781556264730755,0.0025204826393787866,0.002464583068028485,-0.001813733306543732,-0.0012577885060608023,0.0018130166658706173,0.0015480517984156653,-0.0002554973913765793,0.0005848076564777202,-0.005759102956689545,-0.0044700605916541845,0.0011413427032424144,0.0018222158291606536,-0.00030583048550371106,-0.0008671607374126215,0.0020168744019239686,-0.0028141818472408315,-0.0012338121818638768,-0.0035433892195928527,-0.0006772521518431659,-0.01727020315340276,-0.006876035795471611,-0.008216014979592248,-0.00021639352126562493,-6.825829024617951e-07,0.0005149559508854731,-0.006393740331099779,-0.00126316501161647,-0.007444129545400393,-8.786325668065416e-05,-0.002110338154144749,0.0013974265732208673,0.001587764913318008,-0.0005745272753115421,0.001778966207984128,0.0016432758864809963,0.005987866707022798,-9.66025222084637e-05,-0.002852655731581482,0.0007678655724931196,0.0018978439175995692,-0.0005310736402129513,0.00013494730222039767,0.00033388586562153953,0.00026904413329866087,0.0004363929826852449,4.682660291399638e-05,-0.005735280424819658,0.011160860038649816,-0.008675881710260843,-0.01780714901823746,-0.002602353668918381,-1.957183737325315e-06,0.0035189065031127256,-0.00542615451486535,-0.005574451801293266,-0.0040491745463430906,-0.0006474835676295159,0.0011032139501080884,0.0007527700860711963,0.0012752473904888008,0.00329403111854238,0.0026690774196601623,0.0034063051200280752,0.0014129040261771535,-0.0018874868046521425,-0.001246282318523551,0.0014264949147861955,-1.860106840537295e-05,0.0015633484846594348,0.0004997481904078411,-0.0018806319052784386,0.0006834724060228136,0.004082767980443856,-0.003203198905494909,0.0002992499717886538,-0.011862993932313954,0.005214222893165382,-0.009449359941644335,-0.008679487773345734,-4.017107006660052e-05,0.0017581075974725173,-0.004000120222568564,-0.002443855481992587,0.007074480033495427,0.0011080860126317512,0.001381864596950391,0.003682521801844025,0.0009938828370120363,0.000675529292230567,0.0007583694340286467,0.0020963083775195667,0.0025372234143629744,-0.0023099793352677925,-0.0002581379612181898,0.00045929263606849354,0.0017616061535104801,0.0014300941921228563,0.000393162156180971,0.003127864608510085,0.00021931327344255956,0.00020177785919688488,0.002671578770180508,-0.005477286281179054,0.004038628950391844,0.0036739237481651253,-0.02584483180174629,-0.0009573454618742584,-1.8039058566528205e-05,0.00011016164412637324,-0.0004730063594202393,-0.0014390907700826752,0.0073553100516991,-0.0015448645101379347,0.0016424418177462025,0.0001476744594279922,0.0011365557351864538,0.0016769255890539303,0.0014106229138156567,0.001305904511832307,0.0017064708632574803,-0.0021493473446843447,0.0002746922859449045,0.0009461256610612802,0.0022860950975965295,0.001064032021418536,-0.0008086254257464336,0.0019153405107742829,-0.0002602534938077336,-0.003940192682862639,0.004265404793733821,0.006433468744109211,-0.018519529706144403,-0.0019120987528657783,0.00891459447727299,-0.0022522006372563703,-2.7918281949608994e-05,-7.972618241460267e-07,0.002173360222780806,-0.003198991699074314,-0.010464634501840413,-0.00011638020761899774,-0.0008994160705662928,0.0018646089897519506,0.002514280092371618,0.0014136806151840266,0.00037591935094347735,-0.0014477153580088984,0.0024128491486125024,-0.000684898966593507,0.001395098012832413,0.0021495911483861542,0.0005811851583342133,0.0010896101072380292,0.0003608274763423344,-3.983414758700989e-05,0.003122519960373492,0.0039188665388378875,-0.003994777029470025,-0.002134277511529656,0.0053099203026919,-0.010393634444823354,-0.006830619766619636,-0.0010719897500481022,-5.869194035256273e-07,0.011820611583582443,-0.008943639950913922,0.004339130701278219,-0.0019399258255678327,0.00013088769306496593,0.0019980757973991755,0.00044601054825184843,0.0010463648964365896,-0.0007858955283049995,0.0010095459979982298,-0.0026343192876826928,0.0014487448237025086,0.002131024764469537,0.0010468743040518498,0.001540423551296921,0.0010866093993943005,0.0032115061404147105,-0.001971166204528531,-0.0016566911814341646,0.0005266386420647179,0.0003625114134252713,0.004718440959668055,-0.012144002643386694,-0.005035311866940127,-0.003239447292643098,-0.008185823630199639,-0.003106261354383407,-2.8743718456004705e-07,-0.0014763656952998506,-0.0019308017656080455,-0.00351219522397063,-0.0010392480652624044,0.0004860047847090342,0.000719280696697821,-0.00041728476791380906,0.0028089689071196006,-0.0025733420906641235,-0.004015945534930489,0.0042176056109942215,0.0029732834641345296,0.0006618888226236194,-0.0003577194364315459,0.0016101195777246285,-0.0026647066100037304,-0.0019963877347355104,0.0022717165163169003,0.0010067894897705992,0.0003827351296297481,-0.004786767696778595,0.0022170678208541846,0.002187104647713759,-0.01660301327426245,-0.00033736504519113155,-0.00027504639035760327,-2.545319220975381e-08,-0.0041431886402516485,-0.005373203829384971,0.008938536681121389,-0.00097328459154818,0.0052092022893871675,-0.003260864950634443,-0.002756022690452271,0.0017698285790101228,-0.005167776727933989,-0.0016723448537466258,0.002307041178412745,-0.005597662879396739,0.0001563121748384947,0.0023026039950006304,-0.0007294768496266982,-0.0017603505306282654,0.0003968966854590453,-0.0014312302940245303,-0.0019369124086857704,-0.002365077363763646,0.005821616642293428,-0.011611036754356936,-0.00014096960856370606,-0.0028126874285120027,-0.013546739552242783,-0.00014633860092781262,-3.069754981611963e-06,-1.1695334274267606e-05,0.0017120798763188532,0.002209704693138213,-0.0017641265109993541,-0.012252256877266821,0.004733072297601271,0.0010229902934404454,-0.009550781264040296,0.0012431332941139981,-0.004120507917530437,-0.0007157373888674741,0.0007303844108752603,-0.0028750544386326273,0.0008390741241071821,0.0009005406626561924,0.0028413719762953324,-0.00023305283563496937,0.0015164730168761317,-0.0010038934939372835,-0.005507037300027965,-0.001547186040492723,-0.000456067052017865,-0.0047475506534143275,-0.0031207094326446303,-0.007074288947558706,-0.000174810966612319,-0.0002667403268509446,-1.456931773445381e-07,-1.7240731174274668e-06,-3.6883072338290095e-05,-0.001398244899576795,-0.001641723896901981,0.01945511821149903,-0.013746208975633114,-0.007963240954464466,0.0075941919567996344,-0.003019770980010714,0.0004018240460608448,-0.0009116896015974856,-0.0023307439096152847,-0.0006081354095270136,-0.0011734977518631188,0.0009319203737487868,-0.002950045906496245,0.0018248956656409456,-0.0015029168200110044,-0.0002216330579200151,0.008484653827713844,-0.004801365346056173,0.0008826385607460986,0.006070799717725252,-0.001675606213371512,-0.0049647968358687514,-0.0003056985416908154,-4.037957250328451e-09,-1.411402655525246e-07,-7.70478903396936e-08,-0.0013965524115513467,-0.0047999804519800165,-0.008658804708651985,-0.008965734385036856,-0.0017904250174083293,0.0005313479324826408,-0.004297678497705274,-0.0013114185445580514,-0.0002037416440148869,-0.0016160071600729512,-0.0011286961800666088,-0.0007161946008931233,-0.0029591521739173324,-0.0009924769634389126,-0.0010469013968226256,-0.0007834040060309463,0.00014802956652999969,0.0034455074383777104,-0.00894104821991602,0.007009124612800804,0.006287751639267993,-0.0023885410479440004,-0.00213704119072091,-0.008568708841079162,0.0006607867703783928,-7.454690308298804e-09,-0.0022693937389150287,-0.0050641287384974075,-0.009117796469821336,-0.008030429557584077,-0.0005439112000638771,0.0012524409791251708,0.00024967205002112157,-0.002410557147266414,-0.0006883996170980105,0.00025206376675501356,-0.0015350333783385399,-0.0006371083436384649,6.16873327662404e-06,-0.00024505708774112504,0.0015098408209407986,-0.0001660496897415166,0.00010289882497387616,-0.0022733923572515902,0.0027009265322001375,0.0019046573417076718,-0.014337089608016376,-0.0020375993032658475,-0.0004752742950412749,0.0009044104410512937,0.0006879875577197372,-6.289533931782373e-06,-0.00016529709309327258,-0.0051072042682584855,-0.0011333789444011515,0.011443189607665166,-0.006608209246466022,0.0029203494895155835,0.0033944879592905817,-0.0024541198228890697,0.0022282196501144523,-0.0012080672891459428,-0.0009946543547521263,0.0004648054754499693,-0.002169911307331129,-0.000402907640926744,-0.0012925951309674657,-0.00156376033727437,0.0029249715788387523,-0.00383428503331118,0.00013308705019632558,0.007062921826662922,-0.0009564346567739999,-0.0049185503018768315,0.003919156602837328,-1.1870432146605862e-05,-4.886149364795235e-06,-5.214710355086881e-06,0.0001960134568400408,-0.009037418780430842,-0.0019289092508594891,-0.005167114691745601,-0.0028342665838660664,-0.0044907287529274455,-0.0009393606989309846,-0.0026036861245576763,-0.00433238391635222,-0.0013561029244627623,-0.004004693426303759,-0.0013267221140696875,-0.004305723127254209,-0.0036701588520542186,-0.0019812870822476184,-0.007865388009438092,0.0004079295277822355,-0.00836671459826373,-0.002223120955371359,-0.002761277269960196,-0.0034972576577277656,-1.8433102620009825e-05,-1.2583787132689479e-05,-9.338840470314888e-05,-0.0021807324519150123,0.003670558072270435,0.0007154411179909986,-0.014517431089770926,-0.00781803364199285,-0.008314975351765794,-0.006174095136450996,-0.012640039179657236,-0.006394240771879872,-0.011370942679591581,-0.01068364477706941,-0.010836633270861066,-0.009363191600947306,-0.01063364803498247,-0.006552439172293469,-0.014776613871235342,-0.018931125577590482,-0.018276159253913293,-0.015480494154125881,-0.006990476944272838,-0.00017898594942576137,-1.2726521694498395e-07,-2.4889195730540133e-07,-2.6300074093301992e-05,-0.0010608485846878332,-0.006029192337701138,-0.009412039304018438,-0.007238203795456118,-0.006875313248517509,-0.0034078430522286617,-0.003965001696372965,-0.0030258903967464662,-0.010484682936532591,-0.0032316830345917756,-0.0017305630683542173,-0.0013907684944031698,-0.0019333590527340933,-0.0012096367471045883,-0.0006239717191905605,-0.006043078735022483,-0.004195100620737443,-0.00010763386104408338
-4.511867898393046e-06,-1.0021093216053596e-05,-1.576386233788112e-07,-6.568275974117312e-09,-1.5587224988312393e-08,-4.9645423144093074e-08,-8.637088060960634e-06,-1.4757473313892208e-05,-2.7237051824540987e-05,-7.933831165504516e-05,-0.00036779804255010365,-0.00034483191845424173,-0.0005773118904446028,-0.0005681564750304049,-0.0002716410737091168,-0.00040628573129130463,-0.00045319534847128166,-0.00021583415679465626,-0.0003941902215761976,-0.00038525615339444986,-0.00018902970514671325,-3.8595337148360844e-05,-4.429701957135091e-06,-4.775777514058336e-06,-2.900315509134415e-07,-2.5095626732518886e-05,-1.1344862353133155e-05,-6.989019242959322e-06,-1.6634915559745833e-05,-0.00024407825748639424,-0.0013320635147315621,-0.0024407347409317924,-0.004030759620445701,-0.007324222095818022,-0.00811947044144673,-0.009968180059507172,-0.012215024211141802,-0.008194096606262137,-0.003386812421922657,-0.0026480831719899486,-0.000783830572414406,-0.0017888901249166304,-0.005887830736154073,-0.0044885567158257636,-0.002242746720185381,-0.000610834816259731,-0.0005046446964991095,-3.110478678327746e-05,-1.5207276555824073e-06,-9.360963196884281e-05,0.0014328565462869613,-0.0020939127579731967,-0.0015172913237318992,-0.0027935422014118303,-0.00396903939118089,-0.004708936666431646,0.0018357622898445799,-0.007094038605007774,0.0021474561794442553,-0.0012989995628550771,-0.002405366242207216,0.00021225732163721657,-0.00399355394147464,-0.0008275101668058936,-0.0018876662380510252,-0.000286704083321956,-0.0013749371532394794,-0.000898553758576184,0.00274086741215802,-0.008268265630013278,-0.004457312883363253,0.00029312474261380174,-1.0031789901753569e-05,-8.99650353803884e-06,-0.00018638225110410823,-0.00032703370664898283,-0.0025631739258351193,-0.010387673188073474,-0.0031957815026367534,0.0035381177141714493,-0.006062025498936083,-0.001505838900284796,-0.001230634128206542,0.00013683919480110576,-0.0006192320725556515,-0.002801847932364401,-0.0005014987554969501,0.0006822995709918406,-0.0005366461296243656,-0.0008554837573693454,0.0007503953205597444,-0.0007412643845007389,-0.002526491086207355,0.002956950056620684,-0.00160648487406281,0.0013231418829288684,0.006423257544481043,-0.0009308325091925003,-0.0008934154395341603,-0.0005324932077649923,-0.00027884191124785636,-0.0006763836317473027,-0.008119892520596096,-0.004987848501452647,-0.005407431701622935,0.0008718528469609588,-0.00028194556856618277,-0.000184286278195768,6.286246923835115e-05,2.4728841029413824e-05,-0.0011149734292950236,-0.0004551261033813173,-0.0004690267134285055,-0.001301371631998539,-0.00012385163427587324,0.000607293817857803,0.0006439804817706391,-0.0014005666889767507,0.003318922889280443,-0.001200586287120888,0.0034376755355248,0.00018743915362706904,-0.00030602046556063453,-0.000155784867241835,0.0038979510119002223,-0.0005077646005129601,-1.3330557780730592e-06,0.000576999590859388,-0.004945981712494877,-0.0016880673730859193,0.005926418458808564,-0.0009486893929391096,-0.0013297111591940866,-0.00190512507095637,0.00015614884350379011,-0.0007187406779554551,-0.00035412792528534013,-0.0004962189106151512,-0.0005300220027504017,0.0009494817657379045,-0.0013420992290448942,-0.0006104988641281354,-0.0006265180339762493,-0.00012511804102984954,0.0016304014584128162,0.00024937748599794356,-0.0007680408971194526,0.0014079804388347332,0.0005325939021295635,0.005489803745432666,-0.002108943140328168,0.004198125039367005,0.0012015323941370671,-3.666050969443197e-08,-9.136027841961083e-05,-0.000146318261576148,-0.004632100932635021,-0.009676073077471793,-0.0009888320804416649,-0.0017578757533579339,-2.6060017082812413e-05,0.0011858009409470732,-0.001039734524304811,0.0017493939601669326,0.00014783714762055478,0.0008165490670710983,-0.0018048343731124766,0.0013434516766717454,-0.002383106931228788,0.0006757952640692179,5.8302102452776127e-05,0.00042571545208523135,-0.0009374303971118426,0.00013422586529264382,0.0015271645519098556,0.0018116041215785429,0.0002772160799747056,0.002481223542083856,0.007803116851378651,-0.007806451446602571,0.0021144628499525663,-3.8962814552944633e-07,-2.8345143368205688e-05,-0.0008844585180074752,-0.005696644525950271,-0.010897356290872646,-0.0009779081605871386,-0.0009365763073637674,-0.0005556851625050385,0.001541781382505355,-0.0007229978350729362,0.0010609380560696454,0.0007735980883453222,-0.00018895931046499555,-0.0007359424702010298,-0.0010809411498902423,-0.00046544254112726945,-0.001242842269072075,0.0003731568419360084,-0.0009670651021126596,0.0015272890984785203,0.0011054899613841232,0.001034182715207415,-0.0019747649916584714,0.004286672502039183,0.00282032862255376,0.003723259735414092,0.003046399964855806,-0.002388888306011777,-5.268829014906049e-05,-0.0001284101117649846,-0.0009428123720491519,-0.006277595111041332,-0.0033444236749978467,-0.0016545424453271295,0.001654689079306604,-0.0023789701218686135,-0.000447527682351383,0.000565546272909672,-0.0009139590227172655,0.002339410652866872,0.000336453640833574,-0.00028695296921827583,-0.0010283802418497674,-0.002458584195973995,-0.0018488776226810095,-0.00147625061458271,-0.0005601722869504808,-0.0013078935946654877,-0.0006187099434293587,0.003620830914011257,0.0031805107259331956,-0.0017655306248286293,0.0077730378878527245,0.0024468093994433958,0.004663182546276648,-0.000563557550836953,-6.239293463105673e-05,-0.0002460364111171784,-0.0009505750554415137,-0.007970432320070968,0.003896582300867031,-0.0022499415429762535,-0.002522034754503979,0.0035733043824356836,0.0020025842654789526,0.002367687178532825,0.0012825496564151373,0.0013324929455546138,0.0024671149174745545,0.0012562262834736025,-0.0006779290616326754,0.0003580992524192426,-0.001883292570452071,-0.0021527312359043873,-0.0029017951465378023,-0.003050692430778461,-0.0042246757417047295,-0.0008743646701935005,0.005057203697352682,0.0034143199325006855,0.011211152636726483,0.003837525313554324,0.005806465834404425,-0.0015164493576663102,-2.7435077675369284e-05,-0.001542340136767645,-0.002596794894252122,-0.011106919330655373,-0.0004510473299794628,-0.0012253586909844313,0.004234052547118036,-0.0014881478307737484,0.0005067177627800903,0.0007631841970540845,0.0012973529702182812,0.0008962184954772292,0.0005300356257381098,0.0017718801694981317,-0.0002855485939426851,-0.0007511600527683595,-0.0001222556785982346,-0.0016754041423046404,-0.0002492237563945758,-0.00165537018381922,-0.0058911300619066045,-0.01035762397652924,-0.013436929109136648,0.004778701988743056,0.017212631595921474,0.022161312017456466,0.008373691638349435,-3.253459315692218e-05,-3.990451361675351e-06,-0.00136157416338494,-0.0027904917572125366,-0.0031395168048249317,-2.4484301131746676e-05,-0.0024626574882171902,0.0027030302527097675,0.0005240310266824205,0.0006960712062929321,-0.0008161295572365776,0.0008246186566151946,0.0009737636100872099,0.0007360916569998784,0.0016331979832439945,-0.0015342477782124987,0.0009574850138560156,-0.001291796478132851,-0.0018123851105232365,-0.0017365469378956418,-0.0028227504640174605,-7.73291847724411e-05,-0.003405771178514891,-0.012647379977269444,-0.026254221714089705,-0.04065319950552637,-0.0010662360803816325,0.01709520994729683,-0.00023414789705130122,-2.285988035409372e-06,-0.00044938227198609176,-0.001624888811397102,0.0012192341113336442,0.0014355582851763478,0.003966740474949107,-0.001438966563399445,0.0020907428985792813,-0.00034786328479004757,0.0007840521334662026,0.0005655473025806372,0.0011488132337380125,0.0019075602350643833,0.0007066487300698401,-0.0018265268219281596,-0.000993831987825468,-0.0020579845993752843,-0.002134618340720623,-9.530897962575782e-05,0.0006912854873400751,0.00021918035910984776,-0.0017739132340343102,0.0026661972703633232,-0.010664680373741724,-0.027055478343756642,-0.020178529254656814,0.0013387608613888676,-0.0009108679822649111,0.0013910430328562702,-0.00021518490538235263,-0.0005745819566817004,0.0012444011966983488,0.0021398553564272514,-0.001176179406588644,-0.0006025859091968695,-0.0015252878958401392,-0.00036541943964603477,0.0003054474770093039,0.001962682916717337,-0.00046718163943883955,0.0012540493282022153,-0.0005008175307858011,-0.0005965561998740739,-3.996563023179184e-05,-0.0010498851532804593,-0.0010316064852459851,-0.00042567190359854806,-0.0024594626624356644,0.0005546425841304167,-0.0005475326589299362,-7.294910281747775e-05,0.003266707821817595,0.013152702117656467,-0.021445289220138084,-0.0015523162277634695,-6.531750068509641e-05,0.00038763205346766926,-1.6591142857377133e-05,-0.0004208893475068943,-0.002722125712226251,0.0035368251405383175,-0.0028064640253221275,-0.0013193425920074043,-0.000612511392970094,0.0009561334332418547,0.001041118778987349,-0.00019207569497103926,0.0002530915150452934,0.001415303343796269,-0.0017330937240789541,-0.0026314417517988137,-0.0009912353153822974,-0.00015950792900936466,-0.0021290431568648754,0.0017554997120121894,-0.0011816729577282395,0.000313400496434682,-0.0015183715085948758,-0.0010052089633626907,-0.0020657156993234608,0.010705175688628233,-0.011292425071859872,-0.003580328321490257,-0.0005510485629875839,-0.0003876697938728134,-1.6860551338390376e-05,-0.0006619014054271398,0.0009457050682937028,-0.0018314039742300732,0.0014651740956300205,-0.0036470095375993996,-0.0030977485673391114,-0.002372425790324295,-0.0014727038569405002,0.00042836988766591517,-0.0007093352089287412,0.0005832434060521657,-1.4665433493776725e-05,-0.0013467814878211357,-0.00044253116332524474,-0.002361919154229102,-0.00022450330589167272,-0.0024923750183329396,0.00044535708518918504,0.00048603960352776066,-0.001756079759373685,0.004561542626006825,-0.0003957445468348969,-0.005560238636145828,-0.01042853624824981,-0.006668888898544758,-0.0011194624414055609,-4.056352844061187e-05,-0.001961256925204385,2.1029677264333646e-05,-0.0013506817928136173,-0.0006650372273029031,0.006588408573330049,-0.002725734413687174,-0.0004325858287515014,-0.002174410400217748,-0.002466224375349509,-0.0021915486311259013,-0.0030728923052495793,-0.002580345759731973,-0.0029586505693814007,-0.00040110008362868025,0.0001910828842514911,0.00021018493693231912,0.0023887266031999105,-0.000722202300222566,0.0002202761405580667,0.0033420788582161397,-0.005243561759094454,0.0026333260292165516,0.003530937166071302,-0.011135053770499321,-0.003001905720253615,-0.00015916151048128615,-2.2143020524218692e-05,-0.00017500108433893619,-0.003402465400817737,-0.003921372275808409,0.003224396458972634,0.00021223449098091527,0.001118653068386427,0.0018773554594212647,-0.002037851099264527,-0.0012877574816251168,-0.00307860418142736,-0.0019510493335181008,0.0005460251655226816,-0.00012128137548701829,0.0011203368330527388,-0.0008831704283314219,-0.00016902197170203597,0.0013385423552368964,-0.0013323556971265764,0.0009607951696669209,0.00048061644947040513,-0.002170195350064391,0.004587474266503759,-0.001080531846079808,0.0005002119894581799,-0.009356098321898754,-0.0021396621365983998,-0.0007628580264571598,-7.822193140675685e-08,-0.00039027389376555604,0.0035975222456062113,-0.0016941030300775992,0.003052373022803801,-0.0018838213384631114,0.001961273216678967,-0.00027597014919719453,0.002517573921624821,-4.0845044516885586e-05,0.0009548733713323336,-0.0004766679216942377,0.00027932621558503175,0.00016388985011966045,-0.0008630592300961326,0.0018611869399490317,-0.0007666091181028167,-0.0011149165484757868,3.4628319946376285e-05,-0.0012465957554569154,0.0003221370785799306,0.0015301649350524694,-0.002021065708182398,-0.00029105063647587407,0.006132240567557978,-0.0056935371076617,-0.004489635094339869,-0.0005408040852370201,-0.00015721328965634615,0.0019413065703140356,-0.0008575421939549351,-0.0017573716859153588,0.0008389164446105415,6.970498781298992e-05,-0.0009452591567495073,0.000518721444875098,0.0011077625123454924,-0.00042343679251867527,0.002584778312317361,-0.0008991784020750786,0.0010540888578242744,-0.00111595820467848,-0.001636019956301549,0.0010683778788193668,0.0007673943308171712,0.0006165105098122131,0.0015150761334274685,-0.0007531789006822077,-0.003153834900804963,0.004185115273727982,0.0008441983562156708,-0.004102867955777623,0.0034700386885056227,-0.0021614959517388503,1.1407844529439256e-05,-3.352514794728289e-07,-0.00011611932986802804,-0.003842097352448537,-0.00190535776069114,0.003200788050178258,0.0012690193963481756,0.0005060733569140725,0.0005450659025277603,0.0005081899629601332,0.0006353047370835371,0.0005805020396912557,0.0009209777527616863,-0.0006268172208078481,0.00040410541790299686,0.00031984273464386503,0.00031409758101440407,-0.0009994635239934514,0.0006560251559410417,-0.0005873304180724309,-0.000756280637252862,0.003136988593510429,0.004359256493787153,0.0023944370676124882,-0.0011013653525023307,0.0011210222517275923,0.0032567016926932984,-0.000604407580360371,-8.196540556636211e-08,-3.2477487073930634e-07,-9.16202460293498e-06,-0.0025166786953288106,-0.006263325779662905,0.0007359849122764618,-0.003867703004765473,-0.0011340509379533484,0.0008574589918505694,-0.00017207657913978085,0.0008642255986669345,-0.0007640625184669675,0.0004989084316871149,0.001637707754337879,0.00010516062483353515,0.0003199628271877593,-0.000557119560884687,0.0009053172966218982,-0.002117950403773994,0.0029625986667332137,0.0011862006609628408,-0.0010849321071196036,-0.0012659920424893892,0.0008537830960844278,0.0024134266005599947,0.0010475022461330045,0.002744552909446687,0.0023157813944612265,-1.513207487379057e-07,-0.00030631639320747195,-0.0016487714581252847,0.001705170168721946,0.005025489411799022,0.0016702859883555088,-0.00351914734072125,0.0012199017285064167,-0.001240239463227414,0.0019477911037670975,-0.00018870480254612161,0.0005235835225032979,-0.00026165446065171214,0.0008940473013486605,-0.0008438154003413765,0.0015872204796023345,-0.0006673513131666878,-0.0031205662425374463,-0.0011129175678088914,0.0026461056915928027,-5.241957697193052e-05,0.0009040083872527916,0.0006588221667426948,0.0009845509387684348,0.0037130485685509425,0.0014924936974757643,-0.0001863389555069322,-0.0003204911162333263,-0.005034909182336624,0.00036914063332307655,-0.0034130575438338787,0.0019712857874704176,-0.0016836934791512406,0.0033690602585385154,-0.0011555371993294417,-0.00010298626128976682,-0.00013734482653757655,0.00044263579775832254,0.001145698499327384,0.00029063960642699454,-0.0016161233891537924,0.0017567837784582916,0.0015282285162953415,-0.0027205109196660393,9.098515198790856e-05,-0.0032808542956914485,0.0005792156882294619,-0.008151825418133508,-0.0010183172559567698,-0.0034355426976207834,-0.0002949032228427695,-1.0353057542465785e-06,0.001878015069102639,0.0024686355860059988,-0.0025186808378858576,-0.0004857558068551306,0.0009863486901690978,-0.0034190296171668962,0.002308613193189073,-0.001852042535925404,0.0013536696973109107,-0.000532071962545518,0.0017506717141258243,-0.0022194807132457422,0.00260146439488536,-0.001242625661851673,-0.00027358397273652727,0.00138605101520659,0.0010765405970839556,-0.004267117410061589,-0.0006800744051927415,0.00680602181965436,0.00776226183576963,0.006680205514295375,-1.358071165926718e-06,-1.5226094054020022e-06,-2.751178133257408e-07,-4.244070355064434e-05,-0.00034470726451044326,-0.0024154025077550347,-0.00901581299290067,-0.011089377216289028,-0.0016615910135933754,-0.0021299826715430077,-0.0001890366478585359,-0.0032513487824895175,-0.0010622681129128033,-0.005459522967868082,-0.0011694209635698819,-0.0009207614841001115,-0.002482706991862243,-0.006166653687773192,-0.0017688938472274344,0.00108477956246266,-0.005636703141222852,-0.003560414511001864,-0.00013297027963456027,-3.204160590235664e-05,-1.1497955348040026e-07,-2.1359274245781788e-07,-5.0326607757294875e-06,-2.6647397959486742e-05,-0.0002043317329851919,-0.00034795763386860027,-0.00035025092523715065,0.0006018353696373101,0.0019041732844013645,0.00021647246967053862,-0.00326533969362983,-0.004316805347130907,-0.0033987230893754443,-0.0034203799629773943,-0.002361898378845321,-0.0018459111338483142,-0.0009108929365558797,-0.0008937701256419553,-0.003176943242933685,-0.0018699922831008687,-6.806989674263858e-06
